2.361106127500534058e-01	1.327229440212249756e-01	-1.223432049155235291e-01	-2.565127611160278320e-01	1.585070490837097168e-01	2.196987867355346680e-01	3.529908955097198486e-01	1.043943315744400024e-01	-4.275717958807945251e-02	7.604025304317474365e-02	-8.851659297943115234e-02	6.764069944620132446e-02	-1.344375312328338623e-01	1.792495250701904297e-01	-2.253721654415130615e-01	5.075721442699432373e-02	1.633743643760681152e-01	-1.541125178337097168e-01	2.803823351860046387e-01	2.359127849340438843e-01	2.450292706489562988e-01	1.316233724355697632e-01	2.341647446155548096e-02	2.624235153198242188e-01	-1.021739915013313293e-01	1.353806853294372559e-01	-1.894680857658386230e-01	-1.301532685756683350e-01	7.934185862541198730e-02	2.690525054931640625e-01	-3.803047537803649902e-02	-1.263976246118545532e-01	-2.122806310653686523e-01	1.978005766868591309e-01	-6.077699735760688782e-02	-2.128430455923080444e-02	1.162207275629043579e-01	-1.421124190092086792e-01	-2.456576973199844360e-01	-8.330233395099639893e-02	2.612967491149902344e-01	1.343832612037658691e-01	-1.667069792747497559e-01	1.895367205142974854e-01	1.134828254580497742e-01	1.676241606473922729e-01	-3.437189757823944092e-01	-9.487309306859970093e-02	-9.275677800178527832e-02	-2.583615183830261230e-01
-4.656324684619903564e-01	3.961292803287506104e-01	3.789824619889259338e-02	-1.831908375024795532e-01	6.360787898302078247e-02	2.647061944007873535e-01	-2.705594711005687714e-02	-1.712751239538192749e-01	1.283884793519973755e-01	1.092834770679473877e-01	-3.876781463623046875e-02	-2.332710288465023041e-02	7.815909385681152344e-02	-3.396868407726287842e-01	3.401329815387725830e-01	2.554078698158264160e-01	2.449079044163227081e-02	2.502720952033996582e-01	-1.285407841205596924e-01	-1.227050498127937317e-01	-2.879509627819061279e-01	-6.425933539867401123e-02	3.194731473922729492e-01	3.313564062118530273e-01	1.399832665920257568e-01	2.213619500398635864e-01	-1.567451506853103638e-01	-1.135395541787147522e-01	1.202198863029479980e-01	-8.380076289176940918e-02	-1.064300537109375000e-01	-3.409736752510070801e-01	-2.455537319183349609e-01	-2.834543883800506592e-01	-4.321700334548950195e-02	-2.549229860305786133e-01	1.238259673118591309e-02	-1.847398430109024048e-01	4.519974887371063232e-01	9.710562229156494141e-02	-3.438943922519683838e-01	1.861896216869354248e-01	1.621673852205276489e-01	-7.160573452711105347e-02	-1.681893020868301392e-01	3.734927773475646973e-01	3.005968928337097168e-01	-9.568610042333602905e-02	-1.194962710142135620e-01	2.142100930213928223e-01
1.707924455404281616e-01	-2.679065465927124023e-01	-1.130469068884849548e-01	1.241341829299926758e-01	-1.602586731314659119e-02	-3.313050270080566406e-01	2.743289172649383545e-01	-2.288752347230911255e-01	-4.154911637306213379e-02	-1.494882851839065552e-01	2.258163318037986755e-02	-1.436548028141260147e-02	-1.709021776914596558e-01	-3.063479959964752197e-01	1.093380600214004517e-01	-1.990207284688949585e-01	-1.516973040997982025e-02	8.686668425798416138e-02	6.355193257331848145e-02	-7.363298535346984863e-02	-2.024332284927368164e-01	2.717242538928985596e-01	1.583545585162937641e-03	-3.096290826797485352e-01	-2.148688137531280518e-01	-1.347635239362716675e-01	1.937676817178726196e-01	-8.256659656763076782e-02	2.464987710118293762e-02	-2.092493772506713867e-01	-1.000557467341423035e-01	-1.807186901569366455e-01	4.455712139606475830e-01	2.353264093399047852e-01	-7.487139850854873657e-02	1.596723347902297974e-01	-1.933330148458480835e-01	-2.989550412166863680e-04	2.822542786598205566e-01	4.529879242181777954e-02	-1.755122244358062744e-01	-1.022451221942901611e-01	-1.424656361341476440e-01	-3.742512688040733337e-02	-2.648480534553527832e-01	3.722298145294189453e-01	4.863082244992256165e-02	-1.791473925113677979e-01	-2.413448840379714966e-01	1.184948370791971684e-03
9.468299150466918945e-02	2.449701130390167236e-01	1.048896610736846924e-01	1.702390760183334351e-01	-3.243477642536163330e-01	-2.951055765151977539e-01	2.550943009555339813e-02	1.506676375865936279e-01	-1.642639487981796265e-01	4.587853327393531799e-02	2.431184947490692139e-01	1.367843057960271835e-02	-5.586050078272819519e-02	3.972735404968261719e-01	-1.907645463943481445e-01	-1.728712618350982666e-01	6.825050804764032364e-03	3.339484035968780518e-01	-1.016592532396316528e-01	-4.186912998557090759e-02	-1.067313253879547119e-01	-1.334340870380401611e-01	1.433795690536499023e-01	-8.441986143589019775e-02	-3.073897957801818848e-01	-1.629105508327484131e-01	6.762689352035522461e-02	3.918322920799255371e-02	-1.602071374654769897e-01	-4.190067350864410400e-01	-1.689942330121994019e-01	7.894084788858890533e-03	1.487119495868682861e-01	1.939642578363418579e-01	5.160629004240036011e-02	-2.824034988880157471e-01	-1.461305171251296997e-01	-2.852869033813476562e-02	2.731083035469055176e-01	2.850899994373321533e-01	2.775595486164093018e-01	-1.168425604701042175e-01	-1.293519735336303711e-01	1.676904037594795227e-02	6.364903599023818970e-02	2.702314853668212891e-01	-2.298550754785537720e-01	-3.086762130260467529e-02	-2.695615291595458984e-01	7.202720642089843750e-02
4.159648716449737549e-01	-3.145568370819091797e-01	6.831414997577667236e-02	-5.407010018825531006e-02	2.686430513858795166e-01	1.156040579080581665e-01	-2.079857885837554932e-01	1.850601732730865479e-01	-1.564165949821472168e-02	2.996795475482940674e-01	2.042656391859054565e-01	2.080867737531661987e-01	5.538213625550270081e-02	1.180616915225982666e-01	-5.266034975647926331e-03	-1.659452170133590698e-01	-8.383082598447799683e-02	6.219568848609924316e-02	2.393799833953380585e-02	-2.650136649608612061e-01	1.854720860719680786e-01	-1.013712435960769653e-01	1.266259402036666870e-01	-1.996133029460906982e-01	-6.341637670993804932e-02	7.880775630474090576e-02	6.206731498241424561e-02	-5.231529474258422852e-03	1.161451488733291626e-01	1.226005256175994873e-01	-1.459507495164871216e-01	1.617602556943893433e-01	-9.064939618110656738e-02	1.617760211229324341e-01	-8.894109725952148438e-02	2.202130854129791260e-03	-1.840269565582275391e-01	-1.825905889272689819e-01	-1.345076560974121094e-01	2.342398017644882202e-01	1.387795507907867432e-01	4.729146137833595276e-02	4.825446754693984985e-02	1.577253639698028564e-01	2.607178874313831329e-02	-3.085904717445373535e-01	-1.393429785966873169e-01	1.476626843214035034e-01	-5.276013910770416260e-02	1.710696667432785034e-01
3.977819532155990601e-02	-1.496480107307434082e-01	-2.893552780151367188e-01	6.537284702062606812e-02	1.978722214698791504e-01	2.439054399728775024e-01	5.940496325492858887e-01	1.023681536316871643e-01	-1.805554181337356567e-01	-4.932895768433809280e-03	-9.941714257001876831e-02	-1.831106841564178467e-01	2.275599390268325806e-01	-1.161154806613922119e-01	-2.617610394954681396e-01	-2.774024903774261475e-01	1.043787300586700439e-01	2.019093930721282959e-01	-4.215982928872108459e-02	4.510996043682098389e-01	2.701379358768463135e-01	3.101198673248291016e-01	4.321252182126045227e-02	-3.327918052673339844e-01	2.470348179340362549e-01	-3.295112848281860352e-01	-8.428601175546646118e-02	1.507975608110427856e-01	-4.097334574908018112e-03	3.628644943237304688e-01	1.571166962385177612e-01	2.647836208343505859e-01	1.195178404450416565e-01	1.817295700311660767e-01	-3.066284768283367157e-02	2.888876795768737793e-01	-1.659993678331375122e-01	8.099520951509475708e-02	-4.011069983243942261e-02	-4.972278475761413574e-01	7.862029224634170532e-02	-5.604312196373939514e-02	1.346095800399780273e-01	4.940743371844291687e-02	6.273297965526580811e-02	-2.346999645233154297e-01	7.619432173669338226e-03	1.779244095087051392e-01	2.931912839412689209e-01	1.767759323120117188e-01
-1.407676339149475098e-01	1.881329119205474854e-01	9.076542919501662254e-04	1.269277743995189667e-02	2.035797834396362305e-01	1.741290539503097534e-01	-2.457293421030044556e-01	1.908373236656188965e-01	1.284839063882827759e-01	-1.543140709400177002e-01	8.792911469936370850e-02	3.067760169506072998e-01	3.141413442790508270e-03	5.280679091811180115e-02	2.633740603923797607e-01	3.430181741714477539e-01	-1.005616635084152222e-01	-1.865402609109878540e-01	-3.430972341448068619e-03	-1.704551279544830322e-01	-2.898732721805572510e-01	-7.288362830877304077e-02	-2.866763770580291748e-01	2.337008416652679443e-01	1.895295828580856323e-01	1.383468210697174072e-01	-8.536156266927719116e-02	-1.365850865840911865e-01	-3.172982856631278992e-02	2.110007852315902710e-01	1.255893260240554810e-01	-7.128209620714187622e-02	2.143695019185543060e-02	-1.910820603370666504e-01	1.709363013505935669e-01	1.799119710922241211e-01	5.716130137443542480e-03	7.755923550575971603e-03	-9.545408934354782104e-02	1.433999687433242798e-01	-1.162667721509933472e-01	-1.720618158578872681e-01	-1.903939545154571533e-01	-1.817947030067443848e-01	-2.974032759666442871e-01	1.962282359600067139e-01	2.940708398818969727e-01	-4.616713523864746094e-02	-1.259787976741790771e-01	3.169088065624237061e-01
4.257686138153076172e-01	-1.296734958887100220e-01	1.476250141859054565e-01	2.905683219432830811e-01	-2.821828424930572510e-02	-2.708000540733337402e-01	-1.002543270587921143e-01	-1.569769680500030518e-01	-5.476355180144309998e-02	3.057350516319274902e-01	-1.181192249059677124e-01	-3.962373733520507812e-02	-2.005890458822250366e-01	1.553771644830703735e-01	2.439221143722534180e-01	1.120229586958885193e-01	1.233199760317802429e-01	-1.710396409034729004e-01	-9.781703352928161621e-03	-1.678532660007476807e-01	-1.168648363091051579e-03	-1.981042921543121338e-01	-4.883320257067680359e-02	-3.523540496826171875e-02	4.439743608236312866e-02	-2.821128070354461670e-01	6.925939023494720459e-02	-1.693274080753326416e-01	-1.790448725223541260e-01	2.310466617345809937e-01	9.149546921253204346e-02	2.818867564201354980e-01	3.205014392733573914e-02	-1.089265495538711548e-01	3.727019764482975006e-03	-7.987237721681594849e-02	1.263196617364883423e-01	-7.866867817938327789e-04	2.393013387918472290e-01	7.893756777048110962e-02	1.017218679189682007e-01	-1.460039168596267700e-01	7.987653836607933044e-03	-4.413503408432006836e-02	-9.137066453695297241e-02	-1.355247795581817627e-01	3.646798431873321533e-01	1.564732193946838379e-02	-4.740250855684280396e-02	-6.311821751296520233e-03
1.871363967657089233e-01	1.744070649147033691e-01	-3.759064152836799622e-02	3.919138759374618530e-02	9.639421105384826660e-02	1.301013529300689697e-01	-1.546211242675781250e-01	-6.731655448675155640e-02	-7.772543281316757202e-02	2.821504473686218262e-01	-3.771772235631942749e-02	-1.485401988029479980e-01	-5.861928686499595642e-03	-1.245276108384132385e-01	8.065918833017349243e-02	1.135039404034614563e-01	2.714443393051624298e-02	-1.879882067441940308e-01	1.052467897534370422e-01	-1.519244611263275146e-01	-7.365132123231887817e-02	-1.255861669778823853e-01	8.225810527801513672e-02	3.575101196765899658e-01	1.134663075208663940e-01	-4.877102002501487732e-02	-1.581839919090270996e-01	2.153678238391876221e-02	-5.944661423563957214e-02	1.697129160165786743e-01	1.324541717767715454e-01	4.022937640547752380e-02	-4.975193366408348083e-02	-9.287299960851669312e-02	-7.691533863544464111e-02	-1.599431633949279785e-01	-3.582373261451721191e-02	1.770446598529815674e-01	2.201391756534576416e-01	2.377414107322692871e-01	-8.306676149368286133e-02	-1.932955831289291382e-01	-9.958860278129577637e-02	1.433002203702926636e-01	1.929428577423095703e-01	-6.531223654747009277e-02	-7.214102149009704590e-02	2.252511680126190186e-02	5.841230042278766632e-03	4.345319420099258423e-02
-8.196717500686645508e-02	4.129275381565093994e-01	3.251216113567352295e-01	-7.696005050092935562e-03	-5.489788949489593506e-02	-1.690906733274459839e-01	-1.117863506078720093e-01	1.300761941820383072e-02	-1.205509305000305176e-01	5.722493678331375122e-02	2.392362505197525024e-01	8.537483215332031250e-02	1.660438627004623413e-01	2.832894921302795410e-01	1.595066636800765991e-01	4.096462130546569824e-01	-1.787068396806716919e-01	2.412432581186294556e-01	2.887263894081115723e-02	1.638781577348709106e-01	-6.325404345989227295e-02	-2.568403780460357666e-01	1.060880571603775024e-01	2.762062847614288330e-01	-5.415875092148780823e-02	1.336060911417007446e-01	-4.610920846462249756e-01	-1.089548617601394653e-01	-2.494352124631404877e-02	1.459580957889556885e-01	1.277657002210617065e-01	-1.333018243312835693e-01	-2.533514201641082764e-01	-3.895870149135589600e-01	-1.872024238109588623e-01	-1.423515826463699341e-01	-1.978313922882080078e-01	1.348797827959060669e-01	3.743749856948852539e-02	2.471802234649658203e-01	-1.765426099300384521e-01	-8.234196901321411133e-02	-1.546323597431182861e-01	8.156793192028999329e-03	-1.004367545247077942e-01	1.286029666662216187e-01	-1.192259043455123901e-01	-1.646380871534347534e-01	-3.738727420568466187e-02	-8.572991192340850830e-02
1.546757966279983521e-01	-3.723586499691009521e-01	6.158172339200973511e-02	9.176507592201232910e-02	2.872027456760406494e-01	2.923052310943603516e-01	-2.079810500144958496e-01	1.738042235374450684e-01	1.292080581188201904e-01	-3.703781962394714355e-01	-4.423895850777626038e-02	-1.839010119438171387e-01	1.226000711321830750e-01	-1.754374429583549500e-02	1.330382823944091797e-01	-2.143807262182235718e-01	9.913520514965057373e-02	-2.023736238479614258e-01	-2.790949046611785889e-01	-2.331175357103347778e-01	5.302117019891738892e-02	1.722752004861831665e-01	1.425725519657135010e-01	-1.415871977806091309e-01	2.099300175905227661e-01	-1.520197838544845581e-01	5.013163089752197266e-01	-4.376277327537536621e-02	1.639727503061294556e-01	1.964635550975799561e-01	1.005716472864151001e-01	4.239164292812347412e-01	3.857907354831695557e-01	7.630001287907361984e-03	-1.877896636724472046e-01	2.009325772523880005e-01	-3.728207945823669434e-02	1.624034903943538666e-02	-4.043158143758773804e-02	-2.467967420816421509e-01	3.981064856052398682e-01	-8.852812461555004120e-03	-1.052550673484802246e-01	6.330701708793640137e-02	-2.431595176458358765e-01	-6.421349942684173584e-02	4.466405212879180908e-01	4.578089714050292969e-02	4.341918826103210449e-01	3.068066537380218506e-01
1.334619820117950439e-01	-2.032375782728195190e-01	-7.834521681070327759e-02	-2.015674710273742676e-01	3.106364011764526367e-01	-1.138581186532974243e-01	5.553997680544853210e-02	-1.587538570165634155e-01	-1.194366663694381714e-01	1.042704433202743530e-01	2.051105499267578125e-01	2.002633959054946899e-01	8.841888606548309326e-02	9.387367218732833862e-02	6.646065413951873779e-02	2.087613642215728760e-01	-1.127062924206256866e-02	1.422279924154281616e-01	9.515541791915893555e-02	-1.809431314468383789e-01	3.098384737968444824e-01	4.365468025207519531e-02	7.439502328634262085e-02	-3.309926390647888184e-01	-1.406405717134475708e-01	-1.769026964902877808e-01	1.527287513017654419e-01	-9.066801518201828003e-02	-6.416562944650650024e-02	-1.166676431894302368e-01	1.011462658643722534e-01	-2.105859220027923584e-01	2.036432027816772461e-01	1.272433102130889893e-01	-1.483633667230606079e-01	2.484654188156127930e-01	-9.095539897680282593e-02	-1.379903107881546021e-01	1.875795125961303711e-01	-2.312247641384601593e-02	-1.264365762472152710e-01	-1.378428488969802856e-01	4.712289199233055115e-02	-3.569385707378387451e-01	-8.300238847732543945e-02	-3.920142352581024170e-02	1.124896630644798279e-01	-7.272347807884216309e-02	-1.338805556297302246e-01	2.251453250646591187e-01
-1.165722161531448364e-01	3.209780156612396240e-01	2.466684132814407349e-01	2.398942112922668457e-01	-2.777795195579528809e-01	2.442471832036972046e-01	4.551182314753532410e-02	1.245200112462043762e-01	-8.896658569574356079e-02	2.090362906455993652e-01	-2.517172694206237793e-01	-7.757584005594253540e-02	1.086428109556436539e-02	2.920384705066680908e-01	1.424888521432876587e-01	-5.966602638363838196e-02	-8.904330432415008545e-03	-1.746107041835784912e-01	1.135914921760559082e-01	1.057210862636566162e-01	6.874925643205642700e-02	-1.135724037885665894e-01	-3.021621145308017731e-02	4.730556905269622803e-01	1.226285025477409363e-01	2.455714792013168335e-01	5.321554839611053467e-02	8.918310701847076416e-02	1.765954494476318359e-01	-3.577126935124397278e-02	-7.564244419336318970e-02	1.537542883306741714e-02	-2.642097882926464081e-02	-2.472783625125885010e-01	-4.763493686914443970e-02	-2.055145949125289917e-01	-1.437385529279708862e-01	-3.884733887389302254e-03	2.466240338981151581e-02	4.042268097400665283e-01	3.047677874565124512e-02	-1.276523470878601074e-01	1.323294192552566528e-01	3.395635187625885010e-01	1.207909807562828064e-01	-5.787717550992965698e-02	1.431813240051269531e-01	-1.983186304569244385e-01	-3.152920901775360107e-01	-6.212169770151376724e-03
-3.493591845035552979e-01	3.074910044670104980e-01	-8.085867762565612793e-02	1.459536999464035034e-01	-7.000462710857391357e-02	-3.144487440586090088e-01	4.525389671325683594e-01	-2.093640118837356567e-01	-1.537766456604003906e-01	-2.930893301963806152e-01	-3.223993480205535889e-01	-2.245803624391555786e-01	2.855009436607360840e-01	7.106642238795757294e-03	-6.417284160852432251e-02	1.461928337812423706e-01	1.119050160050392151e-01	3.320881724357604980e-02	1.472215354442596436e-01	3.406708538532257080e-01	4.061749670654535294e-03	-8.412485942244529724e-03	9.996780753135681152e-02	3.280129656195640564e-02	-9.901402890682220459e-02	-2.569666206836700439e-01	-1.426610052585601807e-01	4.330892860889434814e-02	4.980256035923957825e-02	1.662151962518692017e-01	-1.066784560680389404e-02	-3.101083450019359589e-02	2.318630814552307129e-01	-2.588946521282196045e-01	1.727524995803833008e-01	-2.660610973834991455e-01	-1.646729409694671631e-01	3.959777764976024628e-03	2.986041009426116943e-01	-3.284520804882049561e-01	-1.165588572621345520e-02	-1.887308247387409210e-02	-4.810836538672447205e-02	2.785898447036743164e-01	-2.111313939094543457e-01	1.417060643434524536e-01	9.036448597908020020e-02	1.248472183942794800e-01	-2.083285152912139893e-01	2.640245258808135986e-01
3.387555480003356934e-01	-1.999387890100479126e-01	-2.037503384053707123e-02	-1.154595538973808289e-01	-1.587295681238174438e-01	3.160604834556579590e-01	2.087577432394027710e-02	5.340730771422386169e-02	-1.931227743625640869e-01	2.571895122528076172e-01	1.798099428415298462e-01	1.968438625335693359e-01	1.172378659248352051e-01	-1.244639754295349121e-01	-2.453584372997283936e-01	1.629940271377563477e-01	9.964495897293090820e-02	1.404776871204376221e-01	-2.197437137365341187e-01	-1.568689383566379547e-02	4.821227192878723145e-01	-1.092136129736900330e-01	1.202396377921104431e-01	-1.064761281013488770e-01	2.348456829786300659e-01	-1.757446229457855225e-01	-1.079439371824264526e-01	1.799033731222152710e-01	-5.340863391757011414e-02	2.821947634220123291e-01	3.538985550403594971e-02	-1.233802735805511475e-01	-2.710072398185729980e-01	1.676213443279266357e-01	-5.917025730013847351e-02	-5.992536246776580811e-02	1.911735981702804565e-01	-1.757796108722686768e-01	1.170338913798332214e-01	2.664623558521270752e-01	-1.416677534580230713e-01	-6.796068698167800903e-02	1.458690613508224487e-01	-1.875085234642028809e-01	3.393136858940124512e-01	-2.562459409236907959e-01	-2.847464680671691895e-01	5.299882590770721436e-02	1.096788197755813599e-01	3.304698690772056580e-02
-1.558236777782440186e-02	5.234516412019729614e-02	2.370668351650238037e-01	5.410682410001754761e-02	1.561019271612167358e-01	1.240781247615814209e-01	9.967254102230072021e-02	4.962797090411186218e-02	1.530622243881225586e-01	-1.625748351216316223e-02	-1.826488971710205078e-01	-1.972503066062927246e-01	1.457261443138122559e-01	-9.273793548345565796e-02	-3.158660829067230225e-01	2.638758718967437744e-01	-8.238926529884338379e-02	3.703619167208671570e-02	1.139612942934036255e-01	3.278624117374420166e-01	3.439799845218658447e-01	1.085832640528678894e-01	7.908780127763748169e-02	1.169853210449218750e-01	1.646552085876464844e-01	-1.994443498551845551e-02	-9.888491779565811157e-02	1.356646418571472168e-03	1.307301074266433716e-01	3.079704046249389648e-01	-1.730066835880279541e-01	-1.722979694604873657e-01	-1.646209210157394409e-01	1.860100328922271729e-01	-7.810958474874496460e-02	1.104989275336265564e-01	-5.036005377769470215e-02	-8.676684647798538208e-02	9.398143738508224487e-02	-3.112957477569580078e-01	-1.746772378683090210e-01	2.500832639634609222e-02	-1.974365860223770142e-01	1.160981282591819763e-01	2.248181402683258057e-01	-1.703392863273620605e-01	-1.781193614006042480e-01	-8.844226598739624023e-03	-8.839296549558639526e-02	-2.529987692832946777e-01
-2.675680220127105713e-01	2.513511776924133301e-01	2.213902473449707031e-01	-1.507252305746078491e-01	2.004587799310684204e-01	-2.988502196967601776e-02	4.455243945121765137e-01	-2.573062432929873466e-03	-8.751738071441650391e-02	-5.586795508861541748e-02	1.239118352532386780e-01	1.053854823112487793e-01	-3.554517403244972229e-02	-1.482339948415756226e-01	-2.326942831277847290e-01	1.709741801023483276e-01	1.705927699804306030e-01	1.901378333568572998e-01	2.539290487766265869e-02	3.030504286289215088e-01	1.104126721620559692e-01	2.533887624740600586e-01	1.371157020330429077e-01	-2.905401289463043213e-01	-3.035498559474945068e-01	-2.579276561737060547e-01	1.177729386836290359e-02	1.958740204572677612e-01	-4.708338528871536255e-02	-1.477160453796386719e-01	8.297115564346313477e-03	3.740608319640159607e-02	9.599612094461917877e-03	-2.008069157600402832e-01	1.526126638054847717e-02	1.140400171279907227e-01	-1.845786124467849731e-01	1.825821399688720703e-01	1.070320233702659607e-01	-1.667755544185638428e-01	2.393524646759033203e-01	-1.942448914051055908e-01	-1.784696877002716064e-01	-3.636478781700134277e-01	-2.466454803943634033e-01	3.649671375751495361e-01	-1.775726824998855591e-01	-1.046693846583366394e-01	2.718890085816383362e-02	1.895935833454132080e-01
1.252296566963195801e-01	2.417681664228439331e-01	8.629189431667327881e-02	2.423503994941711426e-01	2.842368185520172119e-01	-3.948772698640823364e-02	1.087799593806266785e-01	2.658173441886901855e-01	-2.270348370075225830e-02	1.951023489236831665e-01	-3.532169163227081299e-01	1.819097101688385010e-01	5.790119618177413940e-02	-3.236269205808639526e-02	9.892363846302032471e-02	-1.809292584657669067e-01	8.655632287263870239e-02	-1.060456186532974243e-01	-2.020065486431121826e-01	2.571757435798645020e-01	1.308299452066421509e-01	1.911187916994094849e-01	-2.789457142353057861e-01	2.444083392620086670e-01	5.406147241592407227e-02	-4.706756025552749634e-02	-2.223399877548217773e-01	-1.996816694736480713e-01	-6.115492433309555054e-02	4.166154563426971436e-01	-1.585859358310699463e-01	1.173025071620941162e-01	2.461562305688858032e-02	-1.506469398736953735e-01	1.369187533855438232e-01	1.744682937860488892e-01	1.138760000467300415e-01	1.836663782596588135e-01	-7.431897521018981934e-02	-1.791256070137023926e-01	2.183345407247543335e-01	-7.932206988334655762e-02	-5.830255337059497833e-03	1.096664518117904663e-01	-1.740915030241012573e-01	-4.152065217494964600e-01	-2.322247624397277832e-01	-7.072333991527557373e-02	1.828718781471252441e-01	-1.619442105293273926e-01
-3.499137461185455322e-01	2.603829503059387207e-01	-6.321723759174346924e-02	-1.763778328895568848e-01	1.073695421218872070e-01	4.360616207122802734e-02	2.589084021747112274e-02	-1.100494414567947388e-01	1.112731024622917175e-01	-1.362345814704895020e-01	-1.996867358684539795e-01	-1.610735803842544556e-02	1.767412424087524414e-01	-9.289418160915374756e-02	1.489204820245504379e-03	3.550513088703155518e-01	6.505400687456130981e-02	-1.864438951015472412e-01	2.326110005378723145e-01	-1.351041644811630249e-01	-3.021714687347412109e-01	5.865941196680068970e-02	-3.251173496246337891e-01	5.932880938053131104e-02	-3.523021340370178223e-01	-1.190247163176536560e-01	-4.679364562034606934e-01	-1.687524318695068359e-01	-1.450287550687789917e-01	-2.105889320373535156e-01	7.063384354114532471e-02	-6.551134586334228516e-02	2.147875279188156128e-01	-3.295880854129791260e-01	1.101262196898460388e-01	3.997003287076950073e-02	2.644190192222595215e-02	1.369795948266983032e-01	3.114751875400543213e-01	3.311033546924591064e-02	-2.116078436374664307e-01	-1.512335985898971558e-01	-2.024305164813995361e-01	1.440627276897430420e-01	-4.818188846111297607e-01	4.782354235649108887e-01	4.041957259178161621e-01	1.651265770196914673e-01	8.437943458557128906e-02	2.651320993900299072e-01
-2.601937949657440186e-01	1.908488720655441284e-01	-5.528262257575988770e-02	7.007875293493270874e-02	5.319976061582565308e-02	2.682264447212219238e-01	3.214637935161590576e-01	9.008201956748962402e-02	1.214823499321937561e-01	7.835268974304199219e-02	-1.428712606430053711e-01	4.813899844884872437e-02	1.237592324614524841e-01	4.627298191189765930e-02	-3.110802471637725830e-01	3.375256955623626709e-01	-1.980041339993476868e-02	1.196774244308471680e-01	3.640240803360939026e-02	3.429308831691741943e-01	3.137781322002410889e-01	1.073153987526893616e-01	-7.873430848121643066e-03	2.334083020687103271e-01	-2.232609130442142487e-02	-2.430171370506286621e-01	-2.477082908153533936e-01	-1.122629195451736450e-01	-9.985662251710891724e-02	2.305160164833068848e-01	-1.056594401597976685e-01	-1.093565672636032104e-01	-2.081177234649658203e-01	-2.138541936874389648e-01	-1.268277131021022797e-02	7.559068500995635986e-02	-5.991873145103454590e-02	1.868887096643447876e-01	-1.401436030864715576e-01	-1.740885078907012939e-01	1.341164857149124146e-01	1.549180150032043457e-01	-1.350077092647552490e-01	1.259470731019973755e-01	-1.042621955275535583e-02	-8.912413567304611206e-02	4.487496986985206604e-02	4.236312210559844971e-02	-7.733047008514404297e-02	-1.384228914976119995e-01
1.802075468003749847e-02	1.834854632616043091e-01	6.841356307268142700e-02	2.040120065212249756e-01	2.231576740741729736e-01	2.289820462465286255e-01	1.207037642598152161e-01	2.023003995418548584e-01	-1.130583211779594421e-01	2.923492491245269775e-01	-2.123520821332931519e-01	-1.682246923446655273e-01	1.731782108545303345e-01	5.971456412225961685e-03	1.230127364397048950e-01	3.806636855006217957e-02	-7.259309291839599609e-03	-1.545325219631195068e-01	-4.084406793117523193e-02	4.713522270321846008e-02	2.595119923353195190e-02	1.422161050140857697e-02	4.651296883821487427e-02	3.374032378196716309e-01	-8.237322419881820679e-02	1.348331570625305176e-01	1.969329267740249634e-01	-1.009872928261756897e-01	-1.988149136304855347e-01	1.877157017588615417e-02	-1.151070147752761841e-01	2.123970240354537964e-01	8.905175328254699707e-02	-1.287211328744888306e-01	-1.289015356451272964e-02	-5.305457487702369690e-02	9.419088065624237061e-02	-2.049030363559722900e-01	-7.196407020092010498e-02	-8.897036314010620117e-02	1.512513458728790283e-01	1.211339160799980164e-01	-3.114651888608932495e-02	2.245960831642150879e-01	8.782760053873062134e-02	-1.677404791116714478e-01	-1.374940425157546997e-01	-8.883986622095108032e-02	-8.382037281990051270e-02	-1.484318971633911133e-01
-1.167203038930892944e-01	2.652933895587921143e-01	2.254868485033512115e-02	2.938083410263061523e-01	1.425714492797851562e-01	6.761253625154495239e-02	1.874004304409027100e-01	-3.096064031124114990e-01	4.715787246823310852e-02	2.548629641532897949e-01	5.182500928640365601e-02	1.132602393627166748e-01	-2.193449810147285461e-02	-2.595206201076507568e-01	2.473821491003036499e-01	-1.394996792078018188e-01	-2.915870025753974915e-02	2.383696883916854858e-01	-1.435060650110244751e-01	-2.376208156347274780e-01	-1.047435589134693146e-02	8.064348250627517700e-02	2.351080477237701416e-01	-1.757021993398666382e-02	-2.247877120971679688e-01	1.041829660534858704e-01	-7.469158619642257690e-02	-1.475907266139984131e-01	-1.246944889426231384e-01	-1.405501514673233032e-01	6.493844091892242432e-02	-8.519532158970832825e-03	1.556284278631210327e-01	5.358961224555969238e-02	-1.365313977003097534e-01	-1.723466515541076660e-01	-1.585612297058105469e-01	1.211165562272071838e-01	1.035007014870643616e-01	3.025797903537750244e-01	5.849836394190788269e-03	9.302434325218200684e-02	-2.118941247463226318e-01	3.498731553554534912e-01	9.193444997072219849e-02	2.694855332374572754e-01	1.427034884691238403e-01	6.203271448612213135e-02	3.182886913418769836e-02	1.070485487580299377e-01
-9.358362853527069092e-02	2.094906754791736603e-03	-1.333029717206954956e-01	-1.037370190024375916e-01	2.152254618704319000e-02	-2.185396701097488403e-01	4.254811406135559082e-01	-1.004309356212615967e-01	-1.137085333466529846e-01	2.141361385583877563e-01	-4.015700519084930420e-02	1.061483696103096008e-01	-3.438459709286689758e-02	-1.582606732845306396e-01	-2.961645126342773438e-01	-1.307559013366699219e-01	-1.776942014694213867e-01	2.827025353908538818e-01	4.154165387153625488e-01	1.441163122653961182e-01	3.213672041893005371e-01	-2.792229317128658295e-02	3.007214367389678955e-01	1.127404794096946716e-01	9.762931615114212036e-02	1.241335272789001465e-01	9.057616442441940308e-02	3.078523278236389160e-02	-1.605905592441558838e-01	7.804559171199798584e-02	8.996810019016265869e-02	-2.466156035661697388e-01	-6.704348325729370117e-02	2.266956418752670288e-01	-1.942390948534011841e-01	8.590544015169143677e-02	1.162651628255844116e-01	1.599655896425247192e-01	-1.766527257859706879e-02	-7.161123305559158325e-02	-2.165054380893707275e-01	-1.466774046421051025e-01	-1.515105664730072021e-01	-2.194014638662338257e-01	7.984713464975357056e-02	3.311208784580230713e-01	-2.011155486106872559e-01	-1.793141663074493408e-02	-7.965259253978729248e-02	1.149949282407760620e-01
1.835744380950927734e-01	-1.312565524131059647e-02	1.797596216201782227e-01	1.104175075888633728e-01	-1.507028192281723022e-01	-2.395648360252380371e-01	1.888206303119659424e-01	8.724012225866317749e-02	1.558695137500762939e-01	-2.914029061794281006e-01	-1.047435402870178223e-01	-1.113780364394187927e-01	5.908818542957305908e-02	1.274150609970092773e-01	-2.639072537422180176e-01	2.616495788097381592e-01	-1.632104814052581787e-01	3.214630857110023499e-02	-4.548015817999839783e-02	3.065624237060546875e-01	-6.766747683286666870e-02	1.806028187274932861e-01	1.813059002161026001e-01	1.747868806123733521e-01	-1.372821778059005737e-01	7.514886558055877686e-02	-5.049217026680707932e-03	-1.789292395114898682e-01	1.614753156900405884e-01	-6.248813495039939880e-02	-4.350037872791290283e-02	2.755188941955566406e-01	-1.357306838035583496e-01	-1.013983488082885742e-01	3.260873258113861084e-02	-1.558900177478790283e-01	-1.804278343915939331e-01	-1.876918971538543701e-01	-8.497805893421173096e-02	6.381725519895553589e-02	2.246351540088653564e-01	5.735310167074203491e-02	-6.404105573892593384e-02	-1.140951141715049744e-01	-1.865864917635917664e-02	-1.504903137683868408e-01	-9.308701381087303162e-03	-1.238848194479942322e-01	1.110522821545600891e-02	6.152116879820823669e-02
-9.590760618448257446e-02	8.244913071393966675e-02	-4.214299470186233521e-02	3.695840537548065186e-01	1.267905831336975098e-01	-9.159678220748901367e-02	3.086879290640354156e-02	-7.966107130050659180e-02	1.506962329149246216e-01	1.116184815764427185e-01	-8.359248191118240356e-02	-1.727415472269058228e-01	-1.192064955830574036e-01	1.704240590333938599e-01	2.954443991184234619e-01	1.361356079578399658e-01	-2.168880105018615723e-01	2.400738745927810669e-01	-4.683775827288627625e-02	-1.386595964431762695e-01	-2.696072161197662354e-01	9.920383989810943604e-02	2.683906257152557373e-01	1.232910379767417908e-01	1.075684428215026855e-01	-6.710814684629440308e-02	1.111969500780105591e-01	-6.092271208763122559e-02	-1.874385029077529907e-01	5.458645522594451904e-02	-1.333435177803039551e-01	-1.262566819787025452e-02	3.145278096199035645e-01	-4.701038822531700134e-02	-7.000392675399780273e-02	-2.182610705494880676e-02	6.124784052371978760e-02	2.515228092670440674e-02	2.733839452266693115e-01	2.959811091423034668e-01	-2.476418912410736084e-01	9.032792598009109497e-02	-7.099758833646774292e-03	2.220690399408340454e-01	-2.136370539665222168e-01	1.809462457895278931e-01	2.608330249786376953e-01	9.590627253055572510e-02	-4.653323441743850708e-02	2.276112511754035950e-02
3.071954846382141113e-01	2.543940544128417969e-01	1.347870230674743652e-01	2.403767406940460205e-02	3.388738334178924561e-01	-3.766353130340576172e-01	1.584231555461883545e-01	2.214662432670593262e-01	1.468542963266372681e-03	2.444704622030258179e-01	1.381258666515350342e-01	4.071404933929443359e-01	1.026122197508811951e-01	-4.943499714136123657e-02	9.560818225145339966e-02	-8.860860764980316162e-02	1.026894077658653259e-01	1.294827908277511597e-01	1.197881549596786499e-01	-1.680669486522674561e-01	2.212178409099578857e-01	1.955656111240386963e-01	5.851657129824161530e-03	-1.910986453294754028e-01	-3.795839473605155945e-02	1.502696573734283447e-01	1.821288913488388062e-01	-6.032988429069519043e-03	-1.145399436354637146e-01	-1.247632279992103577e-01	1.670631766319274902e-02	9.644789248704910278e-02	2.615548670291900635e-01	1.664826571941375732e-01	-5.683550983667373657e-02	3.168855011463165283e-01	-1.479303389787673950e-01	-1.267654746770858765e-01	-1.550193578004837036e-01	2.709712088108062744e-01	5.533492192625999451e-02	-1.514566987752914429e-01	1.424550712108612061e-01	5.257699638605117798e-02	-1.551110595464706421e-01	3.646152615547180176e-01	-2.205867916345596313e-01	1.142077147960662842e-02	9.725096821784973145e-02	-1.384316831827163696e-01
1.623475551605224609e-01	8.108610287308692932e-03	-1.837397515773773193e-01	7.227277010679244995e-02	-1.217981576919555664e-01	3.084772527217864990e-01	1.683973520994186401e-01	1.563220769166946411e-01	-4.796122759580612183e-02	1.628548800945281982e-01	2.145784795284271240e-01	-1.375414133071899414e-01	2.551496922969818115e-01	1.103551909327507019e-01	-1.706866174936294556e-02	4.002140462398529053e-02	-2.493102103471755981e-02	1.008818596601486206e-01	-1.284079700708389282e-01	7.036478072404861450e-02	-3.472638130187988281e-02	1.817605346441268921e-01	2.705765366554260254e-01	2.542352974414825439e-01	3.380143642425537109e-01	2.879981100559234619e-01	-1.634472794830799103e-02	-1.398086547851562500e-01	4.666973277926445007e-02	3.186538815498352051e-02	1.529589295387268066e-02	-1.251244992017745972e-01	6.290977448225021362e-02	3.811028599739074707e-01	-1.483669728040695190e-01	3.990345075726509094e-02	-1.207840964198112488e-01	1.750603467226028442e-01	-2.130605578422546387e-01	2.301070988178253174e-01	-2.562670409679412842e-01	-1.209735572338104248e-01	-2.235331386327743530e-02	5.325524136424064636e-02	3.328540325164794922e-01	-1.558404136449098587e-02	-3.322549909353256226e-02	-1.582123339176177979e-01	6.113809719681739807e-02	-1.237598061561584473e-01
4.896317124366760254e-01	-1.588480472564697266e-01	-8.733180910348892212e-02	4.179628193378448486e-01	-1.721884757280349731e-01	-2.309919595718383789e-01	-1.904546022415161133e-01	2.717616967856884003e-02	1.126044392585754395e-01	-2.562845945358276367e-01	-7.603438943624496460e-02	2.426882833242416382e-02	-1.621122956275939941e-01	1.679684519767761230e-01	-5.092362314462661743e-02	-2.700242400169372559e-01	-1.006388217210769653e-01	1.223609298467636108e-01	-2.492699474096298218e-01	-4.657705873250961304e-02	1.780063211917877197e-01	-1.426406390964984894e-02	-3.930813446640968323e-02	-1.644096076488494873e-01	-2.048096358776092529e-01	-3.050043433904647827e-02	2.511717975139617920e-01	-7.196016609668731689e-02	-4.634378850460052490e-02	2.827617824077606201e-01	1.023829430341720581e-01	2.812742888927459717e-01	1.120495647192001343e-01	-6.798351556062698364e-02	8.608762174844741821e-03	-1.390217542648315430e-01	1.962812095880508423e-01	1.861828118562698364e-01	-7.991046458482742310e-02	1.571849882602691650e-01	5.721168518066406250e-01	-6.486326456069946289e-02	-1.289087980985641479e-01	6.221527606248855591e-02	-1.811532117426395416e-02	-3.570742309093475342e-01	6.259512156248092651e-02	2.289462089538574219e-02	6.574678421020507812e-02	2.383633852005004883e-01
2.243174314498901367e-01	-2.442971467971801758e-01	2.099083065986633301e-01	1.992345452308654785e-01	2.373208403587341309e-01	-5.113169923424720764e-02	3.505843281745910645e-01	5.584313347935676575e-02	1.712776124477386475e-01	-1.153653189539909363e-01	-1.476190835237503052e-01	-8.489825576543807983e-02	-1.019495651125907898e-01	-1.087603494524955750e-01	-2.979763150215148926e-01	3.517314046621322632e-02	-5.326546728610992432e-02	2.357921898365020752e-01	-1.528156399726867676e-01	-1.890345513820648193e-01	3.659538328647613525e-01	2.254664748907089233e-01	8.327817916870117188e-02	-2.776603698730468750e-01	3.374222666025161743e-02	-2.845451831817626953e-01	1.233269227668642998e-03	3.704538941383361816e-02	-6.041985377669334412e-02	2.363949865102767944e-01	-1.589636802673339844e-01	-8.820242434740066528e-02	1.101437509059906006e-01	-1.430810540914535522e-01	7.497446984052658081e-02	-2.755977958440780640e-02	1.223135143518447876e-01	1.013687178492546082e-01	-5.952106788754463196e-02	-5.843449383974075317e-02	5.508823785930871964e-03	-1.135017722845077515e-01	-8.605109155178070068e-02	-3.215643391013145447e-02	1.383179724216461182e-01	-2.270960360765457153e-01	1.001314073801040649e-01	-1.252375543117523193e-01	-6.735809892416000366e-02	3.578633069992065430e-02
2.396252453327178955e-01	-5.807380378246307373e-02	-1.214383170008659363e-02	-2.905015945434570312e-01	1.035009548068046570e-01	-2.323912978172302246e-01	5.117577314376831055e-01	1.145715564489364624e-01	-2.488430589437484741e-02	1.121942698955535889e-01	1.294527947902679443e-01	-5.775921791791915894e-02	-6.238727271556854248e-02	-1.030813008546829224e-01	-3.602589368820190430e-01	1.723932474851608276e-01	2.628613822162151337e-02	8.778083324432373047e-02	1.030740290880203247e-01	4.651265218853950500e-02	3.185984492301940918e-01	1.732004135847091675e-01	2.496153414249420166e-01	-3.116569817066192627e-01	1.996954977512359619e-01	-2.783617675304412842e-01	-1.779933720827102661e-01	6.192274391651153564e-02	1.328746527433395386e-01	3.541896045207977295e-01	1.856958419084548950e-01	-1.087772771716117859e-01	8.968328684568405151e-02	1.745643839240074158e-02	1.010907813906669617e-01	2.456615865230560303e-01	-3.460550308227539062e-02	-1.219430863857269287e-01	3.014462068676948547e-02	-8.638238906860351562e-02	-1.636293083429336548e-01	5.753960460424423218e-02	-1.933505535125732422e-01	-4.183477535843849182e-02	1.374127864837646484e-01	1.495959311723709106e-01	9.561166167259216309e-02	1.711010485887527466e-01	1.607906818389892578e-01	-2.031627744436264038e-01
1.010807603597640991e-01	5.031962692737579346e-02	2.033755630254745483e-01	-1.554584652185440063e-01	-1.489695161581039429e-01	8.969258517026901245e-02	3.567490726709365845e-02	-1.116708144545555115e-01	-1.902641505002975464e-01	9.886051714420318604e-02	3.325956687331199646e-02	-1.281325817108154297e-01	2.286513447761535645e-01	7.198353111743927002e-02	-1.780366599559783936e-01	5.845952779054641724e-02	-1.762663125991821289e-01	3.227979177609086037e-04	6.340952217578887939e-02	-1.088644489645957947e-01	2.533235847949981689e-01	-1.225332617759704590e-01	2.366022914648056030e-01	1.696917414665222168e-01	1.635912209749221802e-01	1.109657883644104004e-01	8.646631240844726562e-02	-1.855062991380691528e-01	9.367498569190502167e-03	-1.707966923713684082e-01	1.836089789867401123e-02	-2.589271664619445801e-01	3.069661371409893036e-02	1.859898418188095093e-01	-1.035793796181678772e-01	-2.488457858562469482e-01	5.337415635585784912e-02	-1.932162940502166748e-01	1.855161339044570923e-01	-2.606307528913021088e-02	1.284987032413482666e-01	1.741074770689010620e-01	-7.292228937149047852e-02	1.411834955215454102e-01	2.972751557826995850e-01	1.719729155302047729e-01	-3.695753868669271469e-03	-1.248047873377799988e-01	1.633091270923614502e-01	9.474267251789569855e-03
-2.646457850933074951e-01	-2.584665454924106598e-02	2.960500307381153107e-02	-7.151605933904647827e-02	-5.851380527019500732e-02	-6.836585700511932373e-02	-6.828159838914871216e-02	3.058232665061950684e-01	-1.748344153165817261e-01	-3.415204882621765137e-01	2.071011215448379517e-01	-2.144154757261276245e-01	3.596085011959075928e-01	-3.537205755710601807e-01	-7.242851704359054565e-02	8.529603481292724609e-02	-7.737070322036743164e-02	2.194539755582809448e-01	-2.546874284744262695e-01	-4.197783768177032471e-02	-2.009699940681457520e-01	-6.095798686146736145e-02	1.400315314531326294e-01	-2.477783113718032837e-01	4.747469127178192139e-01	1.632450371980667114e-01	1.080927327275276184e-01	-1.436051875352859497e-01	2.330739237368106842e-02	3.279980719089508057e-01	1.721798032522201538e-01	-1.906185895204544067e-01	6.726665794849395752e-02	-4.909701645374298096e-03	6.563981622457504272e-02	-5.975398793816566467e-02	5.938912928104400635e-02	1.493902802467346191e-01	-2.241016626358032227e-01	-2.280890643596649170e-01	2.806239575147628784e-02	1.331492513418197632e-01	1.751779168844223022e-01	-2.457780390977859497e-01	2.967717126011848450e-02	2.492086291313171387e-01	2.079926282167434692e-01	1.123662292957305908e-02	3.627244383096694946e-02	4.783974215388298035e-02
1.837522238492965698e-01	-2.109162509441375732e-01	3.276731967926025391e-01	1.281158030033111572e-01	-3.573818597942590714e-03	1.346302181482315063e-01	4.474682509899139404e-01	3.102278113365173340e-01	7.962946593761444092e-02	-5.224988460540771484e-01	-1.592059433460235596e-01	-3.114175610244274139e-02	-2.011491060256958008e-01	1.734565198421478271e-01	-1.916916817426681519e-01	3.674985468387603760e-01	1.113487556576728821e-01	2.505754679441452026e-02	7.971020042896270752e-02	3.128033578395843506e-01	4.284613728523254395e-01	1.526550501585006714e-01	1.827927827835083008e-01	-3.949555158615112305e-01	4.607336595654487610e-02	-2.569593489170074463e-01	4.381008744239807129e-01	3.056211769580841064e-02	-1.485131382942199707e-01	2.483056485652923584e-01	-7.082867622375488281e-02	2.810774445533752441e-01	3.817549049854278564e-01	-6.240731850266456604e-02	-1.706220209598541260e-01	-2.035372331738471985e-02	-1.024313941597938538e-01	-6.626741588115692139e-02	1.723042316734790802e-02	-5.025573968887329102e-01	2.661287188529968262e-01	-1.981384307146072388e-01	-3.506281971931457520e-02	-4.510225057601928711e-01	-4.569453001022338867e-02	-3.030332326889038086e-01	4.288552701473236084e-01	-4.768371582031250000e-02	5.012334883213043213e-02	5.866684764623641968e-02
3.576250076293945312e-01	1.316341608762741089e-01	-1.604821830987930298e-01	3.189682066440582275e-01	2.779366075992584229e-01	3.039957284927368164e-01	1.234649866819381714e-01	3.890777751803398132e-02	2.267110496759414673e-01	3.929179534316062927e-02	-2.472152560949325562e-01	7.642687857151031494e-02	2.838465943932533264e-02	6.951611954718828201e-03	1.501743495464324951e-01	-2.979133725166320801e-01	-1.630604863166809082e-01	-6.170547753572463989e-02	2.164051383733749390e-01	-1.085782870650291443e-01	-7.055859267711639404e-02	1.346526592969894409e-01	-2.730931341648101807e-01	2.034709006547927856e-01	1.850719749927520752e-01	-1.057357154786586761e-02	-3.049467802047729492e-01	1.805587857961654663e-01	1.086004897952079773e-01	1.704340279102325439e-01	-1.926716864109039307e-01	2.714965939521789551e-01	3.559091687202453613e-02	4.278005287051200867e-02	5.850378796458244324e-02	1.601531207561492920e-01	-1.085445433855056763e-01	-3.386157751083374023e-02	-1.315930038690567017e-01	-1.716982871294021606e-01	1.292503327131271362e-01	-9.747737646102905273e-02	1.070375964045524597e-01	3.347201049327850342e-01	1.105507165193557739e-01	-3.238098323345184326e-01	-8.991599828004837036e-02	5.139030516147613525e-02	-1.659773886203765869e-01	1.919434219598770142e-01
2.286988049745559692e-01	7.755810767412185669e-02	3.824893385171890259e-02	2.466201186180114746e-01	-7.543303817510604858e-02	-1.255002617835998535e-01	-8.085140585899353027e-02	2.548023164272308350e-01	1.727402955293655396e-01	-3.027761578559875488e-01	7.972595840692520142e-02	-1.944983899593353271e-01	-6.981528550386428833e-02	4.659421276301145554e-03	-2.019723355770111084e-01	5.173394456505775452e-02	-1.237391382455825806e-01	1.483574956655502319e-01	-3.564776778221130371e-01	1.473672688007354736e-01	3.847759664058685303e-01	-2.538089156150817871e-01	3.605211079120635986e-01	-9.048444777727127075e-02	2.128231376409530640e-01	1.246364787220954895e-01	3.287767171859741211e-01	-1.928455382585525513e-01	1.864736154675483704e-02	3.149745762348175049e-01	-2.512603998184204102e-03	-3.175769448280334473e-01	-1.349547654390335083e-01	-9.647255390882492065e-02	-5.449361633509397507e-03	-7.066755741834640503e-02	4.764004051685333252e-02	-1.243794802576303482e-02	-1.063252016901969910e-01	-1.891969144344329834e-01	2.812526822090148926e-01	1.396711170673370361e-02	1.352031081914901733e-01	2.402275335043668747e-03	-4.399603977799415588e-02	-2.451868504285812378e-01	8.333772420883178711e-02	-1.689850836992263794e-01	1.379292160272598267e-01	5.123947560787200928e-02
2.796328663825988770e-01	-3.288411200046539307e-01	-2.636907696723937988e-01	2.758053243160247803e-01	-1.652325317263603210e-02	2.959509193897247314e-01	-4.215255752205848694e-02	-2.461333721876144409e-01	3.502226993441581726e-02	1.940854638814926147e-01	-2.095709741115570068e-01	-7.877293229103088379e-02	7.248206436634063721e-02	-1.831538528203964233e-01	8.640153706073760986e-02	-3.266448974609375000e-01	-2.038940042257308960e-02	1.676447540521621704e-01	-6.531216949224472046e-02	1.481840014457702637e-01	1.733758449554443359e-01	1.422631293535232544e-01	8.565904200077056885e-02	2.214255332946777344e-01	-3.457603231072425842e-02	1.771936193108558655e-02	2.932863831520080566e-01	-1.928075402975082397e-01	-8.767891675233840942e-02	-3.803739324212074280e-03	-1.129560992121696472e-01	2.451635450124740601e-01	9.577776491641998291e-02	-5.460668727755546570e-02	-1.156127229332923889e-01	-8.230307698249816895e-02	-1.372675001621246338e-01	1.199197918176651001e-01	1.664115488529205322e-01	1.827309727668762207e-01	1.413357164710760117e-02	1.742289960384368896e-01	1.135523095726966858e-01	3.673904538154602051e-01	2.073099315166473389e-01	-2.473744899034500122e-01	-2.061167657375335693e-01	4.751294851303100586e-03	1.047314926981925964e-01	-2.411411851644515991e-01
1.220798213034868240e-02	-2.166042625904083252e-01	-1.812946349382400513e-01	2.445801198482513428e-01	-1.978025734424591064e-01	5.173646211624145508e-01	-1.710912138223648071e-01	7.531452924013137817e-03	-1.582370251417160034e-01	-1.564991027116775513e-01	-2.272587968036532402e-03	-1.071045100688934326e-01	2.268478721380233765e-01	-2.284307330846786499e-01	-7.598728686571121216e-02	-2.041473239660263062e-01	4.345986247062683105e-02	-1.049664686433970928e-03	2.311523556709289551e-01	2.579189240932464600e-01	-2.901812791824340820e-01	7.559976726770401001e-02	-2.019936293363571167e-01	4.412928968667984009e-02	7.367011904716491699e-02	-1.023842468857765198e-01	7.438883930444717407e-02	1.517955809831619263e-01	-1.930186003446578979e-01	2.383890748023986816e-01	-1.445103585720062256e-01	3.069864511489868164e-01	1.715237647294998169e-02	9.668677300214767456e-02	3.516895696520805359e-02	-1.079960614442825317e-01	1.187920123338699341e-01	1.056452542543411255e-01	-2.182814627885818481e-01	-1.715239882469177246e-01	2.190100699663162231e-01	-4.447301104664802551e-02	1.885108067654073238e-03	-1.628429442644119263e-02	2.544146478176116943e-01	1.461957097053527832e-01	2.376332581043243408e-01	9.691481292247772217e-02	-2.102580219507217407e-01	1.172126978635787964e-01
2.430865615606307983e-01	1.123669743537902832e-01	2.202337831258773804e-01	1.312353014945983887e-01	8.355800807476043701e-02	-1.087221056222915649e-01	-1.345395743846893311e-01	2.091608643531799316e-01	6.247040256857872009e-02	-9.380565583705902100e-02	1.328349560499191284e-01	-5.555043742060661316e-02	-6.860601156949996948e-02	7.612045854330062866e-02	-8.055946230888366699e-02	-2.349571138620376587e-01	1.269260942935943604e-01	-4.226669967174530029e-01	7.995234429836273193e-02	3.376179337501525879e-01	9.515292197465896606e-02	1.530563458800315857e-02	-3.909365236759185791e-01	-8.655495196580886841e-02	-2.568868994712829590e-01	1.963638514280319214e-01	-3.433938026428222656e-01	7.756300270557403564e-02	-1.324966400861740112e-01	8.878941088914871216e-02	-8.995475620031356812e-02	4.482634067535400391e-01	1.508487612009048462e-01	-1.706564575433731079e-01	1.517293155193328857e-01	3.472045063972473145e-01	1.526308506727218628e-01	2.619556896388530731e-02	-2.758759260177612305e-01	-8.137059211730957031e-02	4.451009035110473633e-01	1.778363436460494995e-01	8.540441282093524933e-03	-3.241624236106872559e-01	-2.576409280300140381e-01	1.845804303884506226e-01	1.562804281711578369e-01	1.701214462518692017e-01	-4.262425471097230911e-03	1.098529323935508728e-01
-4.561360552906990051e-02	1.436800956726074219e-01	4.239743649959564209e-01	-5.917120724916458130e-03	4.064562916755676270e-01	-3.901394605636596680e-01	-3.094955720007419586e-02	3.215361833572387695e-01	-1.318641453981399536e-01	-1.766144335269927979e-01	2.063283473253250122e-01	1.899016201496124268e-01	-8.946485072374343872e-02	-1.279509365558624268e-01	-1.021522134542465210e-01	1.720284372568130493e-01	1.992151886224746704e-02	1.270207315683364868e-01	-1.471194326877593994e-01	-1.305660158395767212e-01	3.383527398109436035e-01	-9.184841811656951904e-02	-2.561079561710357666e-01	-1.887273043394088745e-01	6.115427985787391663e-02	-1.160892993211746216e-01	1.253845095634460449e-01	7.328705489635467529e-02	-1.495192293077707291e-02	2.687619328498840332e-01	-1.178231835365295410e-02	-5.087207257747650146e-02	-8.468652516603469849e-02	-1.198455095291137695e-01	-1.710983663797378540e-01	4.278437420725822449e-02	8.825908601284027100e-02	2.702239900827407837e-02	-1.998626813292503357e-02	-1.913484930992126465e-02	-1.364510357379913330e-01	-9.124565869569778442e-02	1.773565858602523804e-01	-1.679592430591583252e-01	-3.972117304801940918e-01	-7.480091601610183716e-02	-6.318897008895874023e-02	-9.650244563817977905e-02	2.050460129976272583e-01	1.756437309086322784e-02
2.094456851482391357e-01	1.342478245496749878e-01	-1.995049044489860535e-02	2.973977923393249512e-01	4.473206773400306702e-02	-2.797791659832000732e-01	-6.233912333846092224e-02	-2.149406969547271729e-01	-1.146002262830734253e-01	-3.642450273036956787e-02	1.940026134252548218e-01	-1.239743828773498535e-01	9.181347489356994629e-02	1.624550968408584595e-01	-6.681069731712341309e-02	7.907332479953765869e-02	1.625704616308212280e-01	-3.147470951080322266e-02	-1.059556305408477783e-01	-1.564077138900756836e-01	-1.423681527376174927e-01	8.079018443822860718e-02	1.721237450838088989e-01	2.363333702087402344e-01	1.858039945363998413e-02	3.211127817630767822e-01	2.645699083805084229e-01	7.337500154972076416e-02	8.814771473407745361e-02	-7.037383317947387695e-02	1.777891665697097778e-01	-1.199997887015342712e-01	1.541076451539993286e-01	1.264535486698150635e-01	-1.039172261953353882e-01	-1.774586141109466553e-01	-1.930149048566818237e-01	8.055783063173294067e-02	2.113476768136024475e-02	1.761625558137893677e-01	-4.047335311770439148e-02	-1.299098730087280273e-01	8.137519657611846924e-02	2.615864574909210205e-01	-1.235475540161132812e-01	-2.689742017537355423e-03	-1.416261941194534302e-01	-1.833972036838531494e-01	1.488239318132400513e-01	-2.376276701688766479e-01
-1.891858130693435669e-01	1.781361252069473267e-01	3.674173653125762939e-01	-3.587059080600738525e-01	-7.871194928884506226e-02	-1.939673721790313721e-01	2.508795559406280518e-01	2.435571998357772827e-01	-4.768571630120277405e-02	2.105977982282638550e-01	9.598309546709060669e-02	3.291772902011871338e-01	-1.243536025285720825e-01	2.062473595142364502e-01	1.834393478929996490e-02	2.174415439367294312e-01	-1.664055883884429932e-01	1.076289489865303040e-01	3.668566048145294189e-02	3.737275898456573486e-01	-1.222363300621509552e-02	7.070774585008621216e-02	-4.422400593757629395e-01	1.498989015817642212e-01	-2.127054035663604736e-01	-9.958986937999725342e-02	-2.257109880447387695e-01	-1.984623521566390991e-01	-1.477019339799880981e-01	-1.944686286151409149e-02	1.130339652299880981e-01	2.703709527850151062e-02	1.512302458286285400e-01	1.258909106254577637e-01	3.514279797673225403e-02	1.058093160390853882e-01	-1.462047994136810303e-01	4.195933230221271515e-03	-1.082593798637390137e-01	1.795351207256317139e-01	-8.490474522113800049e-02	-1.678455471992492676e-01	-1.968042403459548950e-01	-2.555489242076873779e-01	-9.194558858871459961e-02	6.094738245010375977e-01	-7.170605659484863281e-02	-3.942933678627014160e-02	-1.370347943156957626e-02	2.566317319869995117e-01
1.532499212771654129e-02	7.366883754730224609e-02	1.548224538564682007e-01	1.325099468231201172e-01	8.871509879827499390e-02	1.519090123474597931e-02	-7.587289810180664062e-02	2.086572498083114624e-01	1.043198481202125549e-01	2.144136875867843628e-01	-2.982190623879432678e-02	-3.841161727905273438e-02	2.518790364265441895e-01	3.383900970220565796e-02	1.423608362674713135e-01	1.630847007036209106e-01	-1.946174055337905884e-01	1.927926540374755859e-01	-2.784402370452880859e-01	2.178687453269958496e-01	9.587610512971878052e-02	-1.556840389966964722e-01	2.942636609077453613e-01	9.515441954135894775e-02	3.441891670227050781e-01	2.417086064815521240e-01	-1.526924073696136475e-01	2.302446961402893066e-02	1.876224875450134277e-01	1.888990998268127441e-01	-6.207036972045898438e-02	-1.546316146850585938e-01	-2.663828730583190918e-01	-1.517985947430133820e-02	3.138052672147750854e-02	7.772761583328247070e-02	-1.530027836561203003e-01	-1.830727308988571167e-01	1.788404583930969238e-02	9.674039483070373535e-02	-4.867958649992942810e-02	1.100617647171020508e-01	1.798371821641921997e-01	1.346638202667236328e-01	1.841886490583419800e-01	1.992144137620925903e-01	-1.731707304716110229e-01	-1.722364872694015503e-01	-1.482243090867996216e-01	-6.411922723054885864e-02
-4.568875581026077271e-02	2.567130029201507568e-01	-1.148099228739738464e-01	-1.204427778720855713e-01	-1.296817697584629059e-02	2.691520564258098602e-02	1.826590299606323242e-01	-3.089747950434684753e-02	-1.206609979271888733e-01	-3.517804741859436035e-01	7.659352570772171021e-02	-2.651018202304840088e-01	-4.582973942160606384e-02	-2.018112689256668091e-01	-1.638250648975372314e-01	9.788711369037628174e-02	-1.909311413764953613e-01	3.456223309040069580e-01	8.535297214984893799e-02	2.934464812278747559e-01	2.287523299455642700e-01	1.394097954034805298e-01	3.940708637237548828e-01	-3.828510344028472900e-01	3.253307044506072998e-01	1.643647402524948120e-01	-5.404870584607124329e-02	-1.407076418399810791e-01	-9.254904091358184814e-02	1.696611344814300537e-01	1.278446763753890991e-01	-2.413778901100158691e-01	-2.906475588679313660e-02	1.953332126140594482e-01	1.179842501878738403e-01	-8.695939928293228149e-02	-9.227266162633895874e-02	-2.475556544959545135e-02	1.028738096356391907e-01	-4.388843774795532227e-01	-1.790524274110794067e-01	-4.048202186822891235e-02	2.567135542631149292e-02	-1.416997760534286499e-01	-7.322394102811813354e-02	1.536491811275482178e-01	3.587530553340911865e-02	-2.021002769470214844e-02	1.610816568136215210e-01	-1.233145967125892639e-01
2.347576990723609924e-02	-2.467475086450576782e-01	-8.115901052951812744e-02	1.521994620561599731e-01	-9.097812324762344360e-02	1.024786531925201416e-01	3.026925325393676758e-01	-1.804730743169784546e-01	9.782854467630386353e-02	-1.577363908290863037e-02	1.177273243665695190e-01	1.564174145460128784e-01	6.515841186046600342e-02	7.934281229972839355e-02	-1.944107413291931152e-01	-6.162689626216888428e-02	1.603622175753116608e-02	-5.969138443470001221e-02	-3.357808291912078857e-02	1.396667584776878357e-02	5.590774491429328918e-02	2.684828937053680420e-01	3.069072663784027100e-01	-2.539552152156829834e-01	-2.272617667913436890e-01	-8.260255306959152222e-02	-3.850580379366874695e-02	5.641056597232818604e-02	1.527969390153884888e-01	-7.610712200403213501e-02	-8.219808340072631836e-03	-3.886625543236732483e-02	3.220341503620147705e-01	-8.721973747014999390e-02	-1.632160246372222900e-01	-5.181313678622245789e-02	-1.858333647251129150e-01	-1.008594408631324768e-02	5.932063981890678406e-02	8.420719206333160400e-02	1.581700444221496582e-01	-8.466684073209762573e-02	-6.086636334657669067e-03	6.598813086748123169e-02	-2.439486980438232422e-01	-8.442020416259765625e-02	-1.448611021041870117e-01	3.022137284278869629e-02	8.168549835681915283e-02	7.045897096395492554e-02
-1.162559613585472107e-01	-7.393564283847808838e-02	2.385981678962707520e-01	1.113257408142089844e-01	2.029395848512649536e-01	-1.121108308434486389e-01	-4.581425189971923828e-01	3.111195266246795654e-01	2.876767143607139587e-02	-4.277451895177364349e-03	-2.491443231701850891e-02	2.734872102737426758e-01	9.890317916870117188e-03	5.125895887613296509e-02	2.338726818561553955e-01	1.052328199148178101e-01	-2.073442190885543823e-01	-1.564839631319046021e-01	-4.435119628906250000e-01	-3.167787194252014160e-02	7.200440019369125366e-02	-1.565230935811996460e-01	-2.054698318243026733e-01	4.020587205886840820e-01	1.266688704490661621e-01	-1.071429476141929626e-01	-1.834701597690582275e-01	-6.178303062915802002e-02	-1.578619033098220825e-01	2.269773185253143311e-01	-1.629973351955413818e-01	7.345809042453765869e-02	-7.873868197202682495e-02	-3.634468317031860352e-01	-2.087462320923805237e-02	6.013396661728620529e-03	1.187709718942642212e-01	-1.483112871646881104e-01	6.534778326749801636e-02	-5.628970451653003693e-03	-1.267215758562088013e-01	-8.008999377489089966e-02	-6.860197335481643677e-02	5.232319608330726624e-02	1.107333004474639893e-01	-1.197018176317214966e-01	4.609264135360717773e-01	5.464340746402740479e-02	1.769405901432037354e-01	1.482779979705810547e-01
3.414805829524993896e-01	4.109295457601547241e-02	-1.319937855005264282e-01	2.542477846145629883e-01	1.088980212807655334e-01	2.235860973596572876e-01	4.246830046176910400e-01	-2.610293924808502197e-01	-4.846560582518577576e-02	-2.012593597173690796e-01	6.380179524421691895e-02	1.149197295308113098e-01	1.253032982349395752e-01	-7.732035964727401733e-02	-7.864015549421310425e-02	-5.172626674175262451e-02	-1.371052414178848267e-01	4.180289804935455322e-02	7.946886867284774780e-02	1.286476701498031616e-01	4.054175317287445068e-01	1.063828021287918091e-01	4.455093741416931152e-01	6.059914827346801758e-02	1.731490939855575562e-01	-1.563163548707962036e-01	2.530441582202911377e-01	5.231620371341705322e-02	1.906734257936477661e-01	-9.113416820764541626e-02	1.136957556009292603e-01	-2.222727537155151367e-01	-1.391077339649200439e-01	7.022910565137863159e-02	1.830501854419708252e-01	7.650372385978698730e-02	-1.040872558951377869e-01	-1.741087883710861206e-01	-9.523713029921054840e-03	3.395383432507514954e-02	2.287932187318801880e-01	2.262239903211593628e-02	1.146881803870201111e-01	-1.936140656471252441e-01	1.477934569120407104e-01	-1.810411550104618073e-02	-2.106502503156661987e-01	-4.881277680397033691e-02	-3.582552373409271240e-01	5.427811667323112488e-02
-4.074133001267910004e-03	2.916543483734130859e-01	9.370735287666320801e-02	1.522505879402160645e-01	1.258332282304763794e-01	-1.904555559158325195e-01	-1.732217520475387573e-01	1.548155248165130615e-01	1.503571122884750366e-01	1.224000379443168640e-01	1.165235415101051331e-01	-1.420440226793289185e-01	-8.512137830257415771e-02	1.363556236028671265e-01	2.881353795528411865e-01	1.439254879951477051e-01	-9.000659734010696411e-02	1.484707463532686234e-02	2.198105752468109131e-01	-1.036505848169326782e-01	9.595981985330581665e-02	1.334830224514007568e-01	2.686313986778259277e-01	-6.078787520527839661e-02	2.219473272562026978e-01	1.084894686937332153e-01	1.144226416945457458e-01	9.014950692653656006e-02	-1.865544021129608154e-01	-3.367434069514274597e-02	-1.536238193511962891e-01	-2.188293039798736572e-01	3.233001381158828735e-02	1.410104334354400635e-01	-5.282340571284294128e-02	2.970699220895767212e-02	2.445498108863830566e-02	-5.514546111226081848e-02	1.223253235220909119e-01	3.742693066596984863e-01	-1.600505113601684570e-01	-1.694197207689285278e-01	-1.617943048477172852e-01	1.498373150825500488e-01	2.724751234054565430e-01	-1.310968250036239624e-01	1.803146600723266602e-01	1.964820772409439087e-01	4.680529609322547913e-02	-2.376128882169723511e-01
-4.392528533935546875e-02	5.686326697468757629e-02	3.191294521093368530e-02	-1.485459059476852417e-01	1.495047509670257568e-01	3.355835080146789551e-01	-3.456551134586334229e-01	1.589928716421127319e-01	-1.568011790513992310e-01	1.210634559392929077e-01	-2.979981526732444763e-02	-8.004680275917053223e-02	-1.112091615796089172e-01	-4.416347667574882507e-02	2.554645836353302002e-01	2.245787829160690308e-01	1.051388084888458252e-01	1.055676043033599854e-01	-5.346415936946868896e-02	-1.070898473262786865e-01	-2.865481376647949219e-01	-2.427513301372528076e-01	-7.796654850244522095e-02	4.358035922050476074e-01	2.106629461050033569e-01	2.477353252470493317e-02	-1.838229298591613770e-01	-7.237811386585235596e-02	-1.950773894786834717e-01	1.540356278419494629e-01	-9.934373199939727783e-02	1.290268544107675552e-02	-2.038215547800064087e-01	-2.786763012409210205e-02	8.289655297994613647e-02	-2.392240613698959351e-02	-3.363975882530212402e-02	-5.581145361065864563e-02	1.890087872743606567e-02	-5.424636229872703552e-02	-2.237912863492965698e-01	-1.287736743688583374e-01	7.773410528898239136e-02	3.148819804191589355e-01	-1.225095465779304504e-01	-4.319526627659797668e-02	3.335054218769073486e-01	-1.718105822801589966e-01	2.614626586437225342e-01	1.984958648681640625e-01
-2.065955400466918945e-01	3.612608835101127625e-02	8.778141438961029053e-02	4.881095513701438904e-02	2.738232612609863281e-01	-4.010030031204223633e-01	-2.439060956239700317e-01	-2.538849599659442902e-02	7.957360148429870605e-02	-8.934646099805831909e-02	-1.231386233121156693e-02	-3.291431814432144165e-02	-2.392193377017974854e-01	-1.048599109053611755e-01	1.134587526321411133e-01	1.394690573215484619e-01	1.519871801137924194e-01	-1.355718821287155151e-01	-5.860945209860801697e-02	-1.482438296079635620e-01	-1.412477903068065643e-02	1.207046955823898315e-01	-2.135738432407379150e-01	-1.256052702665328979e-01	-8.950141072273254395e-02	2.581184543669223785e-02	5.169582739472389221e-02	-4.311236739158630371e-02	3.827782347798347473e-02	-1.585641354322433472e-01	-1.489262133836746216e-01	3.275541663169860840e-01	3.797566890716552734e-01	-1.144548691809177399e-02	-6.828591972589492798e-02	2.442172616720199585e-01	-5.160260200500488281e-02	-1.733002252876758575e-02	2.008182853460311890e-01	-1.103781238198280334e-01	1.054980307817459106e-01	-2.078302577137947083e-02	1.090650185942649841e-01	-1.115245074033737183e-01	-3.013714253902435303e-01	3.513056337833404541e-01	-7.720754481852054596e-03	-1.852679252624511719e-02	5.938983708620071411e-02	4.860242083668708801e-02
1.611003875732421875e-01	-2.368296533823013306e-01	-1.417012512683868408e-01	2.468246966600418091e-01	3.058752715587615967e-01	-8.480264246463775635e-02	2.992431819438934326e-02	-4.402704164385795593e-02	-1.236626654863357544e-01	6.513077765703201294e-02	1.077227219939231873e-01	7.844632863998413086e-02	-1.642982959747314453e-01	-2.513278722763061523e-01	9.555274993181228638e-02	5.686614662408828735e-02	1.412479430437088013e-01	-3.222284615039825439e-01	1.148483380675315857e-01	2.553422749042510986e-02	-1.717793345451354980e-01	1.218163818120956421e-01	-3.315639793872833252e-01	9.697050601243972778e-02	-1.771385408937931061e-02	9.120450168848037720e-02	1.354227662086486816e-01	3.907236456871032715e-02	-1.592657119035720825e-01	2.595085501670837402e-01	-3.293327987194061279e-02	4.154165089130401611e-01	3.288391232490539551e-02	-9.561088681221008301e-02	6.229925528168678284e-02	1.316448301076889038e-01	5.529011785984039307e-02	1.256112158298492432e-01	-2.350617200136184692e-01	-7.970469444990158081e-02	1.312339752912521362e-01	-7.365725934505462646e-02	1.168043389916419983e-01	7.726825773715972900e-02	-4.456702247262001038e-02	1.544452309608459473e-01	1.724749803543090820e-01	4.270596802234649658e-02	2.705785259604454041e-02	1.984391957521438599e-01
-1.548028886318206787e-01	-1.294441670179367065e-01	6.657315045595169067e-02	-3.209346532821655273e-01	-1.540607586503028870e-02	2.125024199485778809e-01	3.381352871656417847e-02	2.935699522495269775e-01	-1.210958436131477356e-01	1.892528086900711060e-01	-8.981350064277648926e-02	5.649602785706520081e-02	3.053375482559204102e-01	-8.675011247396469116e-02	1.675524562597274780e-02	5.666776001453399658e-02	-1.852005273103713989e-01	6.616114079952239990e-02	1.871323287487030029e-01	1.834029406309127808e-01	-1.160984486341476440e-01	1.602500379085540771e-01	-9.924128651618957520e-02	1.568324714899063110e-01	-5.961702764034271240e-02	9.748277813196182251e-02	4.925329238176345825e-02	-1.583376526832580566e-02	-1.530223786830902100e-01	-4.033435881137847900e-02	1.858662217855453491e-01	4.208743572235107422e-02	-1.209412589669227600e-01	-1.067426204681396484e-01	8.579585701227188110e-02	2.908650636672973633e-01	-1.978704929351806641e-01	8.708399534225463867e-02	-2.375438660383224487e-01	-8.306248486042022705e-02	-2.856971696019172668e-02	-1.531870365142822266e-01	-1.305061578750610352e-01	-5.763965100049972534e-02	1.780789494514465332e-01	4.792502522468566895e-01	-4.329594597220420837e-02	3.427143394947052002e-02	-1.003903057426214218e-02	-1.776120960712432861e-01
-1.314866989850997925e-01	-1.377455741167068481e-01	-5.568914487957954407e-02	1.276469603180885315e-02	-1.177123840898275375e-02	-9.813889861106872559e-03	9.571452438831329346e-02	-1.096578389406204224e-01	3.547285497188568115e-02	-1.280064694583415985e-02	-4.955644160509109497e-02	-1.147802472114562988e-01	1.834928393363952637e-01	-1.520483195781707764e-01	-1.111037433147430420e-01	-1.621695011854171753e-01	2.358530089259147644e-02	-2.486652135848999023e-01	2.349708080291748047e-01	1.321152895689010620e-01	-1.153120771050453186e-01	1.424055397510528564e-01	-4.748433828353881836e-02	7.487309724092483521e-02	2.214990705251693726e-01	2.254043668508529663e-01	2.974875867366790771e-01	4.907608032226562500e-03	-1.201250776648521423e-01	2.959785759449005127e-01	6.969107687473297119e-02	3.502245843410491943e-01	3.742775022983551025e-01	2.105989903211593628e-01	-8.077096939086914062e-02	-9.251419454813003540e-02	1.455536484718322754e-02	-8.535470068454742432e-02	-2.193115055561065674e-01	-2.018823176622390747e-01	2.802542448043823242e-01	1.696713082492351532e-02	-1.610386818647384644e-01	2.219742536544799805e-01	-4.032583162188529968e-02	-8.880464732646942139e-02	1.293700039386749268e-01	-1.528312265872955322e-01	3.229213654994964600e-01	-6.039234250783920288e-02
1.891522258520126343e-01	-6.413832306861877441e-02	-8.953739702701568604e-02	9.278757870197296143e-02	1.639174297451972961e-02	2.681091129779815674e-01	-1.611848473548889160e-01	2.238755673170089722e-01	2.171920053660869598e-02	-1.809633672237396240e-01	7.119077490642666817e-04	1.281610876321792603e-01	-1.103613078594207764e-01	1.132198497653007507e-01	3.150193393230438232e-02	7.447578012943267822e-02	1.455014646053314209e-01	-2.669184505939483643e-01	-2.229931652545928955e-01	2.023666054010391235e-01	-1.799207925796508789e-01	5.834215134382247925e-02	-1.463569700717926025e-01	2.195511460304260254e-01	5.006928369402885437e-02	-2.700406312942504883e-01	-4.663216322660446167e-02	1.923183351755142212e-01	8.544348925352096558e-02	8.022565394639968872e-02	1.553582102060317993e-01	3.036330342292785645e-01	2.534668445587158203e-01	-1.161728501319885254e-01	-6.726741045713424683e-02	1.433155834674835205e-01	-1.865108013153076172e-01	-1.007529050111770630e-01	7.541258633136749268e-02	-2.156364470720291138e-01	2.965554296970367432e-01	8.405821025371551514e-02	-1.406962573528289795e-01	2.629673667252063751e-02	-1.715766340494155884e-01	-1.188531294465065002e-01	3.097290098667144775e-01	1.101646870374679565e-01	-5.585369095206260681e-02	1.283483356237411499e-01
9.920212626457214355e-02	-2.955489754676818848e-01	7.842662930488586426e-02	2.160379737615585327e-01	1.171974092721939087e-01	5.474687740206718445e-02	-2.359147667884826660e-01	1.819682270288467407e-01	-1.010759174823760986e-01	-8.183988928794860840e-02	-2.689712122082710266e-02	2.462850511074066162e-01	-2.522176802158355713e-01	-8.005735278129577637e-02	3.813052549958229065e-02	5.155579745769500732e-02	-2.123522460460662842e-01	3.792101517319679260e-02	-5.719728767871856689e-02	-2.135731279850006104e-01	-8.644529618322849274e-03	-6.708990782499313354e-02	8.137587457895278931e-02	3.651662915945053101e-02	-2.015915364027023315e-01	-2.235649377107620239e-01	1.280883103609085083e-01	-9.674210846424102783e-02	-1.357261240482330322e-01	-1.944613158702850342e-01	-8.493647724390029907e-02	2.160023003816604614e-01	2.503050863742828369e-01	1.250562667846679688e-01	1.723490655422210693e-02	2.181795388460159302e-01	-7.653732597827911377e-02	-1.512196362018585205e-01	-5.619366094470024109e-02	2.127181440591812134e-01	2.000543922185897827e-01	-4.620967432856559753e-02	1.473156809806823730e-01	-8.824453502893447876e-02	1.220517456531524658e-01	1.157322898507118225e-01	7.559636980295181274e-02	-8.340354263782501221e-02	-1.890991479158401489e-01	1.268313080072402954e-01
3.351917862892150879e-01	-1.238317936658859253e-01	9.651201963424682617e-02	2.535967230796813965e-01	1.227414757013320923e-01	-2.372602075338363647e-01	-3.077657818794250488e-01	-8.053472638130187988e-02	2.143019139766693115e-01	6.959059089422225952e-02	5.473733320832252502e-02	8.100762218236923218e-02	-2.346643358469009399e-01	1.022910177707672119e-01	4.384678229689598083e-02	-5.565319955348968506e-02	1.786352097988128662e-01	-2.863384783267974854e-01	8.068042248487472534e-02	-1.312928497791290283e-01	-9.702027589082717896e-02	2.685707621276378632e-02	-2.043731361627578735e-01	1.284152716398239136e-01	-1.030603703111410141e-02	1.037791296839714050e-01	-9.766308218240737915e-02	1.048302799463272095e-01	-9.638472646474838257e-02	-6.919263303279876709e-02	-1.014516353607177734e-01	2.181082069873809814e-01	1.814332753419876099e-01	2.417339384555816650e-01	1.558171808719635010e-01	-9.126424789428710938e-03	-7.122163474559783936e-02	7.310586981475353241e-03	1.481625344604253769e-02	-8.000139892101287842e-02	3.795169889926910400e-01	8.972354233264923096e-02	-2.167829871177673340e-01	-1.822458207607269287e-02	4.911868646740913391e-02	7.774201035499572754e-02	1.330239623785018921e-01	1.047417670488357544e-01	7.252960652112960815e-02	-8.062969893217086792e-02
-5.479259416460990906e-02	2.573711797595024109e-02	2.602806687355041504e-01	-5.697464197874069214e-02	-2.614382505416870117e-01	3.280132412910461426e-01	-1.559109836816787720e-01	2.759951651096343994e-01	-8.432719856500625610e-02	-1.937880367040634155e-01	-1.272068023681640625e-01	-1.231684908270835876e-01	1.838815063238143921e-01	2.666289806365966797e-01	-3.358715474605560303e-01	2.573735415935516357e-01	-2.940924279391765594e-02	1.657675504684448242e-01	-7.724103331565856934e-02	3.981031477451324463e-01	2.618845999240875244e-01	8.425782620906829834e-02	-2.063302546739578247e-01	3.411973416805267334e-01	1.399424225091934204e-01	9.507019072771072388e-02	4.236552119255065918e-02	5.177126824855804443e-02	1.243572607636451721e-01	1.040063276886940002e-01	1.463823765516281128e-01	-1.741491705179214478e-01	-1.500637382268905640e-01	-1.331780552864074707e-01	-6.371793895959854126e-02	1.351265162229537964e-01	4.167032241821289062e-02	1.808444261550903320e-01	5.446264520287513733e-02	-2.145262509584426880e-01	2.067952752113342285e-01	-5.784535408020019531e-02	8.528081327676773071e-02	-6.098362803459167480e-02	1.893308013677597046e-01	5.883999168872833252e-02	-1.881156712770462036e-01	1.402899175882339478e-01	-2.171442508697509766e-01	1.358350962400436401e-01
1.357911378145217896e-01	6.093661487102508545e-02	-1.819693297147750854e-01	-2.426863014698028564e-01	-1.339882612228393555e-01	7.730889320373535156e-02	-1.400772929191589355e-01	1.152849569916725159e-02	2.047194913029670715e-02	2.740306258201599121e-01	3.299714922904968262e-01	-9.275430440902709961e-02	9.867316484451293945e-02	-7.967248558998107910e-02	1.936421394348144531e-01	-2.150403410196304321e-01	-1.336653530597686768e-01	5.482921749353408813e-02	-4.233132302761077881e-02	-1.081432923674583435e-01	2.205760031938552856e-01	-1.744095236063003540e-01	2.209254652261734009e-01	-1.118480861186981201e-01	1.408208757638931274e-01	9.323100745677947998e-02	2.674764692783355713e-01	9.453862905502319336e-03	8.544618636369705200e-02	-5.638886988162994385e-02	-1.897073835134506226e-01	8.338460698723793030e-03	-4.261364229023456573e-03	3.174190223217010498e-01	-1.992132700979709625e-02	1.339438557624816895e-01	2.638487517833709717e-02	1.673502326011657715e-01	9.037388116121292114e-02	2.590872049331665039e-01	-1.974007487297058105e-01	-1.873085945844650269e-01	1.118506044149398804e-01	-7.459723949432373047e-02	3.564620912075042725e-01	3.282675743103027344e-01	-9.864436835050582886e-02	1.427019983530044556e-01	1.701497584581375122e-01	1.143243312835693359e-01
3.770244717597961426e-01	8.008369058370590210e-02	2.294267416000366211e-01	2.527346909046173096e-01	-1.265765875577926636e-01	4.919079318642616272e-02	1.207969859242439270e-01	5.274800211191177368e-02	1.408231556415557861e-01	6.953423470258712769e-02	-2.286254912614822388e-01	1.567395329475402832e-01	8.793085580691695213e-04	2.867752909660339355e-01	9.710107743740081787e-02	2.412245869636535645e-01	-1.940069161355495453e-02	2.111306935548782349e-01	-1.261181682348251343e-01	1.432060897350311279e-01	3.282157778739929199e-01	-1.295890510082244873e-01	2.691051065921783447e-01	3.025653064250946045e-01	-1.341639757156372070e-01	-9.899481199681758881e-03	-1.300050914287567139e-01	-1.476222574710845947e-01	-3.542770072817802429e-02	4.217633232474327087e-02	1.932876557111740112e-01	-3.406218066811561584e-02	-1.147201880812644958e-01	1.476168632507324219e-01	1.349876224994659424e-01	7.174134999513626099e-02	-9.118447452783584595e-02	-2.295632474124431610e-02	2.755792438983917236e-01	4.471248686313629150e-01	2.059390693902969360e-01	4.649184271693229675e-02	1.696396321058273315e-01	4.505116119980812073e-02	1.705819666385650635e-01	-1.423506736755371094e-01	-2.381713241338729858e-01	-1.434955000877380371e-02	1.398103088140487671e-01	8.235991001129150391e-02
2.639235556125640869e-01	-2.740903012454509735e-02	9.621095657348632812e-02	1.290386170148849487e-01	-1.457957178354263306e-02	-6.666971743106842041e-02	-4.146470502018928528e-02	6.110268458724021912e-02	7.232015579938888550e-02	2.223854362964630127e-01	-2.827624082565307617e-01	4.094801098108291626e-02	-8.859371300786733627e-04	2.776740789413452148e-01	6.046784296631813049e-02	-1.256656199693679810e-01	-1.043225079774856567e-01	-4.007484391331672668e-02	1.883849203586578369e-01	9.637065976858139038e-02	-5.805499106645584106e-02	-1.241907402873039246e-01	-1.795094609260559082e-01	3.157299160957336426e-01	5.863336101174354553e-02	-1.922606676816940308e-01	-6.543166469782590866e-03	9.280867874622344971e-02	1.627381592988967896e-01	-1.926052197813987732e-02	1.186652630567550659e-01	1.740515679121017456e-01	1.138960495591163635e-01	-2.296882122755050659e-01	-2.576586417853832245e-02	-6.938678771257400513e-02	1.449241787195205688e-01	9.938285499811172485e-02	1.545042097568511963e-01	1.504766494035720825e-01	2.800464630126953125e-01	-1.857309937477111816e-01	-1.630699932575225830e-01	3.279492557048797607e-01	1.431053131818771362e-01	-3.018075823783874512e-01	5.143089592456817627e-02	-9.801101684570312500e-02	2.114258855581283569e-01	2.081275135278701782e-01
2.521187961101531982e-01	-9.442211687564849854e-02	2.256708294153213501e-01	2.981978058815002441e-01	-1.617156565189361572e-01	-2.679652869701385498e-01	-3.338661789894104004e-01	-8.323886245489120483e-02	2.224637269973754883e-01	5.493631213903427124e-02	5.289591848850250244e-02	-5.680126696825027466e-02	1.523862481117248535e-01	-6.400509923696517944e-02	1.260523200035095215e-01	9.405840188264846802e-02	-1.546476334333419800e-01	-2.000776976346969604e-01	-1.781512647867202759e-01	-2.934582829475402832e-01	-2.264964282512664795e-01	-8.207902312278747559e-02	-1.111985146999359131e-01	-1.239605098962783813e-01	-1.254781484603881836e-01	1.724089980125427246e-01	1.020652502775192261e-01	1.422744244337081909e-01	8.179452270269393921e-02	-1.097919046878814697e-01	-1.038346812129020691e-01	2.489328086376190186e-01	2.471238821744918823e-01	-6.244919449090957642e-02	1.744329929351806641e-01	8.634255081415176392e-02	2.297696471214294434e-02	1.299919933080673218e-01	1.872592121362686157e-01	4.492968320846557617e-02	2.690898440778255463e-02	-6.941776722669601440e-02	-3.589994832873344421e-02	-9.829722344875335693e-03	-2.084366232156753540e-01	-1.384852528572082520e-01	3.471315801143646240e-01	-1.644419729709625244e-01	-1.906795613467693329e-02	-7.409074809402227402e-03
2.998215854167938232e-01	-2.309660017490386963e-01	1.449831724166870117e-01	-7.800250500440597534e-02	3.449360132217407227e-01	-2.593049108982086182e-01	-1.343683898448944092e-01	-8.229302614927291870e-02	7.929262518882751465e-02	1.482560783624649048e-01	2.029635757207870483e-01	1.698907762765884399e-01	-3.275018185377120972e-02	-1.773873418569564819e-01	5.027388036251068115e-02	1.365787237882614136e-01	-3.943249955773353577e-02	1.448020935058593750e-01	-1.070988476276397705e-01	-2.067313343286514282e-01	2.274270728230476379e-02	-1.369935721158981323e-01	1.894824355840682983e-01	-1.518591046333312988e-01	-5.953625310212373734e-03	-2.637997567653656006e-01	2.625276148319244385e-01	-1.014454886317253113e-01	4.076641798019409180e-02	1.112665534019470215e-01	-9.700899571180343628e-02	-8.428417891263961792e-02	-4.527023807168006897e-02	1.077844500541687012e-01	-1.527351886034011841e-01	1.789652109146118164e-01	1.464711278676986694e-01	7.712479680776596069e-02	-2.695825137197971344e-02	2.159197330474853516e-01	-7.828190177679061890e-02	-6.514186412096023560e-02	1.290436927229166031e-02	-1.630344837903976440e-01	-9.562378376722335815e-02	-3.578084707260131836e-02	-7.566682249307632446e-02	-5.992770195007324219e-02	3.630988299846649170e-01	3.025428019464015961e-02
2.719883024692535400e-01	1.280175596475601196e-01	-3.347059339284896851e-02	1.966859251260757446e-01	-1.189339682459831238e-01	-1.545558720827102661e-01	1.513966470956802368e-01	-1.849254816770553589e-01	-1.100583076477050781e-01	2.179370820522308350e-01	1.637819558382034302e-01	2.095030099153518677e-01	-1.740066409111022949e-01	-1.104670986533164978e-01	-1.888535618782043457e-01	9.884142130613327026e-02	1.042621880769729614e-01	7.920473068952560425e-02	2.743948996067047119e-01	1.134085357189178467e-01	6.300761550664901733e-02	8.253015577793121338e-02	7.216752320528030396e-02	2.618273720145225525e-03	1.754253916442394257e-02	-2.415194921195507050e-02	-1.348170489072799683e-01	-1.785954535007476807e-01	-1.704329550266265869e-01	-2.206143140792846680e-01	-8.930683135986328125e-02	8.717244118452072144e-02	-6.668397691100835800e-03	6.775368005037307739e-02	-7.657853513956069946e-02	-4.952926188707351685e-02	-1.194225326180458069e-01	-1.423612684011459351e-01	2.246507108211517334e-01	-3.055798634886741638e-02	-1.316324472427368164e-01	1.856055855751037598e-01	1.300245672464370728e-01	-5.945921689271926880e-02	1.075139716267585754e-01	2.102594673633575439e-01	-1.756975054740905762e-01	1.516513973474502563e-01	-2.931364178657531738e-01	5.674113705754280090e-02
-7.879060506820678711e-02	2.021691501140594482e-01	1.606416106224060059e-01	3.878462314605712891e-02	1.233141869306564331e-01	3.861949220299720764e-02	-1.222323253750801086e-01	8.000468462705612183e-02	7.816697657108306885e-02	7.805273681879043579e-02	3.460719948634505272e-03	8.808408677577972412e-02	-1.772520542144775391e-01	-5.651199258863925934e-03	-7.577276229858398438e-02	1.710271835327148438e-02	-1.938713639974594116e-01	-4.429044574499130249e-02	-9.799239784479141235e-02	-4.453002288937568665e-02	-2.877017855644226074e-01	-1.374781876802444458e-01	-2.434079647064208984e-01	-1.195733156055212021e-02	-2.082032412290573120e-01	2.875422835350036621e-01	-4.041980504989624023e-01	-1.631875932216644287e-01	-3.915934264659881592e-02	-2.268139272928237915e-01	2.766069769859313965e-02	1.527280509471893311e-01	-3.858643025159835815e-02	1.020006090402603149e-01	-9.659769386053085327e-02	2.400685399770736694e-01	-1.436302661895751953e-01	6.163222342729568481e-02	-1.053634434938430786e-01	2.508601844310760498e-01	-1.877489872276782990e-02	8.413065969944000244e-02	7.443094998598098755e-02	-3.282094001770019531e-02	-2.650814354419708252e-01	3.447746932506561279e-01	2.825735323131084442e-02	-5.758610367774963379e-02	-2.299962937831878662e-01	6.890041381120681763e-02
3.450159430503845215e-01	9.339947998523712158e-02	2.630805373191833496e-01	-1.402855664491653442e-01	-3.141516447067260742e-02	4.350640997290611267e-02	3.040600717067718506e-01	-9.840752184391021729e-02	1.017386615276336670e-01	2.418887913227081299e-01	-2.838955819606781006e-01	-1.979025304317474365e-01	-2.046880722045898438e-01	3.338236212730407715e-01	-2.964782714843750000e-01	-1.058257594704627991e-01	-1.044141724705696106e-01	-1.675224006175994873e-01	-5.433794111013412476e-02	1.064969524741172791e-01	1.690012216567993164e-01	-1.675884798169136047e-02	-2.531009316444396973e-01	1.152390465140342712e-01	-3.687749207019805908e-01	-2.363340407609939575e-01	-2.754294574260711670e-01	1.210042089223861694e-01	1.401771157979965210e-01	1.240531355142593384e-01	-1.839284002780914307e-01	2.632250487804412842e-01	1.288766115903854370e-01	4.184682387858629227e-03	-1.772154420614242554e-01	1.765736043453216553e-01	-1.543886661529541016e-01	5.768212024122476578e-03	9.413491934537887573e-02	1.934232115745544434e-01	3.759879767894744873e-01	-2.032337784767150879e-01	-1.202165111899375916e-01	1.744277775287628174e-01	-7.272837311029434204e-02	-2.327210828661918640e-02	1.370481848716735840e-01	2.058129012584686279e-02	-2.478316277265548706e-01	-6.876922398805618286e-02
-1.006902307271957397e-01	-1.861361563205718994e-01	6.405655294656753540e-02	4.567443579435348511e-02	-1.793867908418178558e-02	-5.030448362231254578e-02	3.843304812908172607e-01	-2.515901923179626465e-01	3.125526010990142822e-02	1.390613801777362823e-02	1.263141781091690063e-01	-1.712063848972320557e-01	-5.790039896965026855e-02	-2.746658921241760254e-01	-1.494229882955551147e-01	-2.108439803123474121e-01	-6.953548640012741089e-02	1.803758740425109863e-01	4.057619720697402954e-02	5.887548252940177917e-02	1.956121921539306641e-01	-8.415491878986358643e-02	1.548160165548324585e-01	-2.026963829994201660e-01	-1.081695184111595154e-01	1.344471424818038940e-01	9.947580099105834961e-02	1.063127815723419189e-02	1.591822803020477295e-01	-5.035514384508132935e-02	-8.362483978271484375e-02	-5.233414471149444580e-02	-8.764636516571044922e-02	1.477849334478378296e-01	-1.634374558925628662e-01	4.772337153553962708e-02	-4.111140966415405273e-03	-4.717495664954185486e-02	2.587714195251464844e-01	2.532632052898406982e-01	-7.367101311683654785e-02	-3.951758891344070435e-02	1.852877140045166016e-01	1.210237368941307068e-01	2.418692559003829956e-01	2.502965629100799561e-01	8.959154784679412842e-02	-8.305006474256515503e-02	1.095072031021118164e-01	1.645987480878829956e-01
-5.555875599384307861e-02	1.511203646659851074e-01	3.260850161314010620e-02	1.700404137372970581e-01	-1.579206623136997223e-02	-2.939726710319519043e-01	-3.670808672904968262e-01	3.980112820863723755e-02	8.071092516183853149e-02	4.369038715958595276e-02	2.735741138458251953e-01	4.304955899715423584e-02	6.025757268071174622e-02	-2.164435014128684998e-02	3.133393824100494385e-01	-3.970262780785560608e-02	-5.296167731285095215e-02	1.408867388963699341e-01	-1.719234734773635864e-01	-2.005036026239395142e-01	-2.182068973779678345e-01	-1.459111571311950684e-01	3.784547373652458191e-02	1.136947870254516602e-01	-8.397743850946426392e-02	2.663871943950653076e-01	-1.983706355094909668e-01	1.777690798044204712e-01	1.186072528362274170e-01	-1.227169111371040344e-01	-2.151116728782653809e-02	1.819239109754562378e-01	3.303492665290832520e-01	-1.819998472929000854e-01	7.935292273759841919e-02	-4.708230961114168167e-03	1.918497234582901001e-01	7.732995599508285522e-02	2.537589669227600098e-01	2.711778879165649414e-01	-1.692237555980682373e-01	1.175267770886421204e-01	9.717512130737304688e-02	-1.671906113624572754e-01	-3.169014751911163330e-01	2.813092768192291260e-01	2.290822267532348633e-01	1.277171224355697632e-01	1.198448538780212402e-01	2.379041463136672974e-01
3.806794062256813049e-02	1.614943146705627441e-01	-7.070817798376083374e-02	6.844635307788848877e-02	-2.349766045808792114e-01	-8.308546245098114014e-02	3.432615101337432861e-01	-3.092098832130432129e-01	9.343828260898590088e-02	-1.143055129796266556e-02	2.362614311277866364e-02	-1.160392016172409058e-01	-1.038895249366760254e-01	8.147553354501724243e-02	-5.968176573514938354e-02	-5.308940075337886810e-03	-1.773500442504882812e-01	-2.258526347577571869e-02	3.646334111690521240e-01	-2.859638631343841553e-02	2.745459377765655518e-01	-1.621156116016209126e-04	2.846054434776306152e-01	3.059347271919250488e-01	2.085348367691040039e-01	3.227742910385131836e-01	1.598804444074630737e-01	6.292305886745452881e-02	-4.413001984357833862e-02	-2.688250541687011719e-01	-1.645497977733612061e-02	-2.420198023319244385e-01	1.027450561523437500e-01	2.646045982837677002e-01	5.478348582983016968e-02	-2.548434436321258545e-01	-9.617247432470321655e-02	1.353674679994583130e-01	-9.006595611572265625e-02	3.225533366203308105e-01	1.372643113136291504e-01	-1.300681233406066895e-01	-7.023755460977554321e-02	2.215762734413146973e-01	3.378723561763763428e-01	-5.404051393270492554e-02	-1.625282615423202515e-01	-1.116012558341026306e-01	-1.849330514669418335e-01	-2.688858509063720703e-01
-2.527794428169727325e-02	1.547438204288482666e-01	6.643617060035467148e-03	-3.329347074031829834e-02	-1.237677782773971558e-01	-1.293484419584274292e-01	9.020626544952392578e-02	-1.071603372693061829e-01	-8.238114416599273682e-02	3.397274613380432129e-01	4.852735251188278198e-02	-1.008825898170471191e-01	-1.272350400686264038e-01	2.249376326799392700e-01	2.780874073505401611e-01	1.801913827657699585e-01	-1.062745153903961182e-01	1.642398834228515625e-01	8.430236577987670898e-02	5.641985684633255005e-02	-3.688007593154907227e-02	-3.212254121899604797e-02	-7.907479256391525269e-02	1.338350176811218262e-01	1.970839202404022217e-01	-2.659921348094940186e-02	-1.841723024845123291e-01	-1.640773713588714600e-01	-1.799542009830474854e-01	-1.984041780233383179e-01	-1.900476515293121338e-01	-2.012024670839309692e-01	4.948826134204864502e-02	1.226982995867729187e-01	-1.627708226442337036e-01	1.231480091810226440e-01	1.366197019815444946e-01	-1.496674418449401855e-01	1.128931418061256409e-01	3.390737771987915039e-01	-1.235820204019546509e-01	6.640962511301040649e-02	4.865941405296325684e-02	3.257997930049896240e-01	2.338401973247528076e-01	1.542570590972900391e-01	-6.756152026355266571e-03	1.238320320844650269e-01	8.348140120506286621e-02	-3.975613787770271301e-02
-9.089095890522003174e-02	1.020702049136161804e-01	7.007937878370285034e-02	4.384995698928833008e-01	2.171251922845840454e-01	-2.362906932830810547e-01	1.273085176944732666e-01	5.929829180240631104e-02	9.374292194843292236e-02	9.867876768112182617e-02	-1.635507196187973022e-01	1.071022599935531616e-01	-6.958993151783943176e-03	7.893942296504974365e-02	3.560656905174255371e-01	-2.040879577398300171e-01	2.957376185804605484e-03	-1.716670580208301544e-02	1.477060168981552124e-01	-2.667492330074310303e-01	-2.680771984159946442e-02	6.463672965764999390e-02	3.608195576816797256e-03	1.922874599695205688e-01	-2.140122205018997192e-01	1.306505799293518066e-01	-3.372888863086700439e-01	1.055106520652770996e-02	1.026456430554389954e-01	-1.785825937986373901e-01	2.581863105297088623e-02	1.802017986774444580e-01	3.643769323825836182e-01	-2.105181962251663208e-01	1.023522391915321350e-01	2.088621258735656738e-02	9.129457175731658936e-02	-3.827568143606185913e-02	2.685098350048065186e-01	2.471114993095397949e-01	9.888857603073120117e-02	1.590874642133712769e-01	1.238744035363197327e-01	2.214220017194747925e-01	-3.139227628707885742e-01	-1.742353886365890503e-01	1.816261410713195801e-01	6.198450922966003418e-03	4.339234903454780579e-02	-6.380508095026016235e-02
2.847174704074859619e-01	-1.051177978515625000e-01	-3.642785176634788513e-02	-1.471773535013198853e-01	-2.105112075805664062e-01	-8.778852969408035278e-02	4.985683783888816833e-02	-2.076905965805053711e-01	-2.673457004129886627e-02	1.612953841686248779e-01	-1.326065659523010254e-01	-5.071939434856176376e-03	-1.240120157599449158e-01	4.878296703100204468e-02	-1.752523183822631836e-01	-1.867458820343017578e-01	1.543191820383071899e-01	2.568659484386444092e-01	-1.597553938627243042e-01	7.178684696555137634e-03	2.545264922082424164e-02	-1.425642073154449463e-01	2.950654923915863037e-01	-1.897144019603729248e-01	1.412259340286254883e-01	-2.368862777948379517e-01	2.336020618677139282e-01	3.152079880237579346e-02	8.940459787845611572e-02	1.020954996347427368e-01	9.095801413059234619e-02	2.161094360053539276e-02	5.437625944614410400e-02	1.858364045619964600e-01	1.966235339641571045e-01	-1.464319229125976562e-01	-1.086310893297195435e-01	-1.099301204085350037e-01	9.535862505435943604e-02	1.392004042863845825e-01	-1.261899061501026154e-02	1.015045493841171265e-01	1.607047021389007568e-01	2.015548944473266602e-01	1.851723045110702515e-01	-2.195066660642623901e-01	-1.465738266706466675e-01	8.147345483303070068e-02	-1.699720770120620728e-01	2.174011617898941040e-01
3.822648152709007263e-02	-4.128666967153549194e-02	-1.728063635528087616e-02	1.152621060609817505e-01	-3.592600822448730469e-01	1.434214860200881958e-01	2.073761075735092163e-01	1.671269908547401428e-02	-8.380992710590362549e-02	-9.891574084758758545e-02	-2.155095785856246948e-01	-3.150955438613891602e-01	-4.054049029946327209e-02	9.927677363157272339e-02	-1.448846161365509033e-01	5.271428823471069336e-02	-3.846399113535881042e-02	2.160807251930236816e-01	5.592434108257293701e-02	2.050957977771759033e-01	1.925821751356124878e-01	-1.656233668327331543e-01	1.651660054922103882e-01	1.759712994098663330e-01	-5.796675384044647217e-02	1.846648007631301880e-01	-1.748623251914978027e-01	-1.714830845594406128e-01	-1.390709578990936279e-01	-2.685109674930572510e-01	-1.548132300376892090e-02	2.152941375970840454e-01	2.083083838224411011e-01	-9.669587761163711548e-02	1.086132898926734924e-01	-1.131800860166549683e-01	-3.824171423912048340e-02	2.309702686034142971e-04	2.642734646797180176e-01	2.243602089583873749e-02	8.180164545774459839e-02	1.158956903964281082e-02	-8.056905865669250488e-02	2.120945975184440613e-02	-4.754405003041028976e-03	1.377003043889999390e-01	9.038957208395004272e-02	-1.811618357896804810e-01	-1.834395714104175568e-02	7.924009859561920166e-02
-3.068623319268226624e-02	2.293099611997604370e-01	8.424784243106842041e-02	8.197191357612609863e-02	-2.264363467693328857e-01	-8.751227706670761108e-02	-2.920834906399250031e-02	2.661831080913543701e-01	2.752511203289031982e-01	6.791163235902786255e-02	1.462747603654861450e-01	-3.273487463593482971e-02	2.286985367536544800e-01	4.271339178085327148e-01	-9.853324294090270996e-02	2.620620429515838623e-01	1.648846715688705444e-01	-3.914412856101989746e-02	-1.655747890472412109e-01	9.385564178228378296e-02	1.401068121194839478e-01	1.225547194480895996e-01	2.653773874044418335e-02	2.784581780433654785e-01	1.594964414834976196e-01	9.989889711141586304e-02	-8.137460052967071533e-02	1.433331519365310669e-01	3.856570273637771606e-02	2.457970082759857178e-01	-9.892397373914718628e-02	-1.106282994151115417e-01	-2.336347252130508423e-01	1.657265871763229370e-01	-1.770488470792770386e-01	-1.218014881014823914e-01	7.048279047012329102e-03	-1.083772554993629456e-01	-3.718655928969383240e-02	3.048673868179321289e-01	-1.411738544702529907e-01	1.240377053618431091e-01	-1.900560855865478516e-01	2.463130950927734375e-01	2.792485654354095459e-01	-5.158834531903266907e-02	9.017260372638702393e-02	-1.882164031267166138e-01	-6.140364706516265869e-02	-1.094692721962928772e-01
-2.126840874552726746e-02	3.090766966342926025e-01	-6.501777470111846924e-02	1.317097842693328857e-01	-1.901798546314239502e-01	-7.890466600656509399e-02	4.602321982383728027e-01	-6.909995526075363159e-02	-2.061135172843933105e-01	-3.384612798690795898e-01	-1.753247380256652832e-01	-1.626036912202835083e-01	6.207325682044029236e-02	-1.095568877644836903e-03	-2.022061347961425781e-01	-1.889506541192531586e-02	-9.352196007966995239e-02	4.522828385233879089e-02	5.163170099258422852e-01	2.647645771503448486e-01	8.324374258518218994e-02	8.456610888242721558e-02	5.237456783652305603e-02	1.211749911308288574e-01	-1.142221018671989441e-01	-1.880646646022796631e-01	-1.751548349857330322e-01	-8.492384105920791626e-02	1.801154166460037231e-01	3.119717836380004883e-01	1.668297797441482544e-01	1.722472347319126129e-02	2.358334213495254517e-01	-1.576471775770187378e-01	3.437695279717445374e-02	-4.401094838976860046e-02	3.672018647193908691e-02	-1.297575514763593674e-02	2.321634888648986816e-01	-3.163668513298034668e-01	4.664005339145660400e-02	-1.600375026464462280e-01	3.966227918863296509e-02	1.837859153747558594e-01	-3.898282051086425781e-01	2.104067504405975342e-01	3.495821356773376465e-01	-1.749288588762283325e-01	9.608594700694084167e-03	3.035055994987487793e-01
-3.577215671539306641e-01	-2.242860794067382812e-01	-3.195471167564392090e-01	3.457351773977279663e-02	-1.839332729578018188e-01	3.011769056320190430e-01	1.012002304196357727e-01	4.614686220884323120e-02	-7.716106623411178589e-02	3.277190029621124268e-02	-8.606468886137008667e-02	9.972941875457763672e-02	1.029192879796028137e-01	-2.153259962797164917e-01	-1.402463167905807495e-01	-2.097386568784713745e-01	1.582049578428268433e-01	-8.942038565874099731e-02	1.563551276922225952e-01	7.212916761636734009e-02	-4.569880366325378418e-01	2.180215120315551758e-01	2.304036170244216919e-01	9.250676631927490234e-02	2.514469064772129059e-02	1.502540856599807739e-01	3.459412604570388794e-02	4.477319121360778809e-02	9.490988403558731079e-02	-2.253237664699554443e-01	-1.247210502624511719e-01	7.163070887327194214e-02	2.236032187938690186e-01	1.054033637046813965e-01	6.819398701190948486e-02	-1.793116331100463867e-02	2.848210930824279785e-02	-1.107533499598503113e-01	6.667406111955642700e-02	1.424437463283538818e-01	-1.805106997489929199e-01	1.552936993539333344e-02	1.073633059859275818e-01	3.187097907066345215e-01	2.740721106529235840e-01	4.988926649093627930e-01	-1.517450064420700073e-01	-6.206412613391876221e-02	-7.546275854110717773e-02	2.031667232513427734e-01
-8.565034717321395874e-03	-3.545602262020111084e-01	-2.381771057844161987e-02	4.150343537330627441e-01	-5.433245003223419189e-02	-5.511426180601119995e-02	-6.906411796808242798e-02	1.787302345037460327e-01	-2.307622134685516357e-01	-4.891700148582458496e-01	1.623180806636810303e-01	-1.582290530204772949e-01	3.771380484104156494e-01	9.126118570566177368e-02	-3.235788345336914062e-01	-6.702807266265153885e-03	7.092079520225524902e-02	-1.006040796637535095e-01	-1.443697214126586914e-01	1.544721126556396484e-01	8.700788766145706177e-02	8.794564753770828247e-02	4.055163860321044922e-01	-3.441600799560546875e-01	2.353048771619796753e-01	2.197193950414657593e-01	5.907251834869384766e-01	-1.942757666110992432e-01	-1.049732044339179993e-01	3.771430253982543945e-02	-1.331906318664550781e-01	7.769086956977844238e-02	5.016162991523742676e-01	3.916543722152709961e-01	-1.487992703914642334e-01	-2.555962800979614258e-01	1.988196820020675659e-01	-1.477441489696502686e-01	-2.443176209926605225e-01	-1.437969207763671875e-01	4.208831489086151123e-01	-3.105841018259525299e-02	-1.592215597629547119e-01	-1.414835900068283081e-01	8.147004991769790649e-02	9.147411584854125977e-02	3.070473074913024902e-01	1.722385436296463013e-01	-1.710010021924972534e-01	1.333969533443450928e-01
-2.550691738724708557e-02	1.289370357990264893e-01	1.313549373298883438e-02	4.349366724491119385e-01	3.104117810726165771e-01	-1.378788799047470093e-01	-1.413059383630752563e-01	-1.792105436325073242e-01	2.887148261070251465e-01	1.470182687044143677e-01	-2.134874761104583740e-01	-9.452930092811584473e-02	3.890565410256385803e-02	-6.387095153331756592e-02	2.593793272972106934e-01	-3.585460782051086426e-02	1.146531179547309875e-01	-2.245761901140213013e-01	1.735626906156539917e-01	-3.380866944789886475e-01	7.441744208335876465e-02	1.873414963483810425e-01	4.016953706741333008e-02	-7.159523665904998779e-02	-2.587760686874389648e-01	-1.230824366211891174e-01	-3.337207734584808350e-01	-5.146189033985137939e-02	-9.110336750745773315e-02	8.447476476430892944e-02	1.270577460527420044e-01	5.404852703213691711e-02	3.045966029167175293e-01	-2.972608208656311035e-01	1.149093210697174072e-01	7.918564230203628540e-02	-1.300268173217773438e-01	-5.912269279360771179e-02	1.849865317344665527e-01	-2.181471586227416992e-01	-2.280356921255588531e-02	1.238716952502727509e-02	4.056623578071594238e-02	1.721916645765304565e-01	-4.426675438880920410e-01	-1.052198037505149841e-01	3.595160543918609619e-01	-1.019947081804275513e-01	5.980253219604492188e-02	3.745118975639343262e-01
3.337465822696685791e-01	-3.394879102706909180e-01	1.083661913871765137e-01	-1.751108467578887939e-01	-2.310513705015182495e-01	1.816733777523040771e-01	-4.244263470172882080e-01	2.050803452730178833e-01	-2.703363895416259766e-01	-2.147263139486312866e-01	1.937161013484001160e-02	-7.424907386302947998e-02	7.889042794704437256e-02	3.081499040126800537e-01	1.781452298164367676e-01	-4.092660918831825256e-02	-7.772549986839294434e-02	-2.112441323697566986e-02	1.592950150370597839e-02	5.046369880437850952e-02	3.070197701454162598e-01	-4.375375211238861084e-01	1.496028434485197067e-02	1.763952225446701050e-01	3.144364953041076660e-01	-1.243072897195816040e-01	3.533453047275543213e-01	-1.645014286041259766e-01	7.356645911931991577e-02	1.238880157470703125e-01	1.916046440601348877e-02	-1.145829912275075912e-02	-1.013186573982238770e-01	-2.429928444325923920e-02	-1.713189035654067993e-01	-9.373407065868377686e-02	-9.359698742628097534e-02	-7.195027172565460205e-02	-2.065202742815017700e-01	2.054029107093811035e-01	-5.733553553000092506e-04	3.107733558863401413e-03	-1.095338091254234314e-01	-1.440776139497756958e-01	1.664780974388122559e-01	-7.448969781398773193e-02	2.341743409633636475e-01	-2.747854590415954590e-02	-2.544846534729003906e-01	4.991927370429039001e-02
1.310051530599594116e-01	-1.203918829560279846e-01	1.704550385475158691e-01	1.259440928697586060e-01	-2.698861993849277496e-02	1.395450322888791561e-03	-2.461450248956680298e-01	7.195574045181274414e-02	9.373075515031814575e-02	-1.489923596382141113e-01	2.321501076221466064e-01	-1.070160120725631714e-01	-4.861431196331977844e-02	6.327459216117858887e-02	1.662676334381103516e-01	2.347475141286849976e-01	1.124733313918113708e-01	1.627526432275772095e-02	-3.015709519386291504e-01	-2.385500818490982056e-02	1.833812743425369263e-01	-3.512801527976989746e-01	1.473761498928070068e-01	7.738478598184883595e-04	3.162032067775726318e-01	-2.447182685136795044e-02	-6.435282528400421143e-02	3.888607025146484375e-04	-1.357196420431137085e-01	-3.292696923017501831e-02	1.307232826948165894e-01	-2.033812850713729858e-01	-1.466176807880401611e-01	3.462464781478047371e-03	7.010617759078741074e-03	-2.941306866705417633e-02	-1.624486893415451050e-01	1.366409007459878922e-02	8.333562314510345459e-02	2.021465748548507690e-01	4.659542441368103027e-02	-7.813864201307296753e-02	-9.550563246011734009e-02	-1.616460084915161133e-01	1.922573298215866089e-01	-1.328368037939071655e-01	2.626449763774871826e-01	-1.262711584568023682e-01	7.672186195850372314e-02	-6.008009985089302063e-02
