-9.179874323308467865e-03
-9.697062522172927856e-02
-8.076862990856170654e-02
3.531168773770332336e-02
5.318382009863853455e-02
-1.450552642345428467e-01
-4.042307659983634949e-02
8.851067721843719482e-02
2.332231961190700531e-02
3.644159808754920959e-02
-1.823548674583435059e-01
-3.185671940445899963e-02
6.218108162283897400e-02
-5.421755835413932800e-02
3.444417193531990051e-02
-4.155127331614494324e-02
-4.441639780998229980e-02
-1.055340990424156189e-01
-4.663366824388504028e-02
-1.018028780817985535e-01
7.374807447195053101e-02
2.575873024761676788e-02
6.974673271179199219e-02
6.128218397498130798e-02
3.391166776418685913e-02
7.284571975469589233e-02
9.558278322219848633e-02
-1.176389977335929871e-01
-7.663708180189132690e-02
-3.269013762474060059e-02
8.695121109485626221e-02
-1.572809740900993347e-02
-8.639576286077499390e-02
-1.237760856747627258e-01
-2.105918154120445251e-02
-1.724797999486327171e-03
1.460878644138574600e-02
-1.927511021494865417e-02
-1.064629387110471725e-02
5.870863050222396851e-02
-1.951496489346027374e-02
5.602532625198364258e-02
-6.457342952489852905e-02
-8.918955922126770020e-03
-6.844197213649749756e-02
-1.297275722026824951e-02
1.013744026422500610e-01
-2.156163565814495087e-02
-1.843801140785217285e-02
4.390465840697288513e-02
1.979864574968814850e-02
1.100742351263761520e-02
-6.425505876541137695e-02
3.744487836956977844e-02
3.944254666566848755e-02
2.319789864122867584e-02
1.187153011560440063e-01
1.215623691678047180e-01
4.403107333928346634e-03
-1.668916642665863037e-02
5.116448923945426941e-02
1.125317811965942383e-01
1.900034211575984955e-02
4.431429784744977951e-03
5.732480064034461975e-02
5.187166854739189148e-02
3.334753960371017456e-02
1.742853969335556030e-01
-4.715681076049804688e-02
4.019415471702814102e-03
9.066645056009292603e-02
7.247973233461380005e-02
-6.078833248466253281e-04
7.030361145734786987e-02
-6.360595673322677612e-02
-1.294572651386260986e-01
3.441987186670303345e-02
1.973911374807357788e-02
3.579791635274887085e-02
-2.496268600225448608e-02
-2.583559835329651833e-03
2.057836577296257019e-02
4.821844026446342468e-02
-1.172078866511583328e-02
2.493222430348396301e-02
5.681799352169036865e-02
-1.215022280812263489e-01
-5.249517783522605896e-02
-1.226744893938302994e-02
-3.391142934560775757e-02
-9.383208118379116058e-03
-1.364968717098236084e-01
-4.025241732597351074e-02
-1.685006427578628063e-03
9.352883696556091309e-02
-5.998751148581504822e-02
-1.824740134179592133e-02
1.294693648815155029e-01
-1.073417440056800842e-02
-1.556256115436553955e-01
