5.418482422828674316e-02	6.802199780941009521e-02	-4.622821509838104248e-02	-5.360422283411026001e-02	2.413003891706466675e-02	5.587112903594970703e-02	6.648980081081390381e-02	1.616647094488143921e-02	1.720175147056579590e-02	7.861885428428649902e-02	-2.316723763942718506e-02	2.226021885871887207e-02	2.199546247720718384e-02	-4.593817889690399170e-02	-8.006519824266433716e-02	-6.980958580970764160e-02	-4.389016702771186829e-02	-8.061775565147399902e-02	7.727736234664916992e-02	6.449435651302337646e-02	-5.655762180685997009e-02	7.201838493347167969e-02	1.809837669134140015e-02	5.934533476829528809e-02	-1.910586655139923096e-02	-1.308518648147583008e-02	-6.516767293214797974e-02	2.244711667299270630e-02	-7.788792252540588379e-03	-2.784050628542900085e-02	-4.277080297470092773e-03	4.024646431207656860e-02	-8.051002025604248047e-02	-3.154751658439636230e-02	-6.123568117618560791e-02	3.273074328899383545e-02	6.925970315933227539e-02	-2.170293405652046204e-02	-7.017053663730621338e-02	-8.002804219722747803e-02	6.815090775489807129e-02	-2.220253273844718933e-02	3.600846976041793823e-02	-4.020902514457702637e-02	4.809546470642089844e-02	-1.121962815523147583e-02	-4.250447079539299011e-02	3.930994868278503418e-02	8.000694215297698975e-02	-3.955034539103507996e-02	-8.229484409093856812e-02	-3.885324671864509583e-02	-8.002571761608123779e-02	-6.134384870529174805e-02	7.582759857177734375e-02	3.953035175800323486e-02	7.768252491950988770e-02	1.893371343612670898e-03	1.256702840328216553e-02	-4.124075174331665039e-02	-3.696078062057495117e-02	2.431318163871765137e-02	4.419498145580291748e-02	-4.898287355899810791e-02	-3.699686378240585327e-02	-6.062695011496543884e-02	-2.258813008666038513e-02	-8.036109060049057007e-02	-4.019066318869590759e-02	-5.301230773329734802e-02	8.094212412834167480e-02	2.313630282878875732e-02	2.535708248615264893e-03	1.823683828115463257e-02	5.196893215179443359e-02	-1.388338208198547363e-02	7.777024805545806885e-02	1.473795622587203979e-02	4.080573469400405884e-02	-4.957547783851623535e-02	-6.681559234857559204e-02	-6.593576073646545410e-02	4.875311255455017090e-02	2.495177090167999268e-02	-6.714035570621490479e-02	-4.051201045513153076e-03	-6.427053362131118774e-02	-1.490813493728637695e-02	8.419245481491088867e-03	1.714233309030532837e-02	-6.704337894916534424e-02	-4.198304936289787292e-02	-7.692964375019073486e-02	1.649893820285797119e-02	5.821393430233001709e-02	8.029170334339141846e-03	4.961788654327392578e-03	-2.472557127475738525e-02	-8.018784224987030029e-03	1.167558133602142334e-02
7.470597326755523682e-02	5.346792936325073242e-02	5.963042378425598145e-02	4.567600786685943604e-02	-5.290855839848518372e-02	-5.791446566581726074e-02	7.312068343162536621e-02	-6.673900783061981201e-02	-2.432814985513687134e-02	-1.587309688329696655e-02	2.196975052356719971e-03	-3.868602216243743896e-03	8.593425154685974121e-04	-5.406603217124938965e-02	1.938920468091964722e-02	6.317704916000366211e-02	-2.202412486076354980e-02	-7.931724935770034790e-02	2.430033683776855469e-02	7.910867035388946533e-02	5.230408906936645508e-02	-1.587189733982086182e-02	-6.541094183921813965e-02	1.361809670925140381e-03	-3.547865897417068481e-02	6.691330671310424805e-02	1.777563989162445068e-02	5.343677103519439697e-02	3.084009885787963867e-02	5.726523697376251221e-02	3.317902982234954834e-02	4.917104542255401611e-02	-6.876189261674880981e-02	4.029749333858489990e-02	-1.902906596660614014e-02	-5.951736494898796082e-02	-7.205649465322494507e-02	3.589916229248046875e-02	-1.187000423669815063e-02	2.506320178508758545e-02	2.432667464017868042e-02	-4.009759798645973206e-02	-6.215006485581398010e-02	5.259832739830017090e-02	-6.653296202421188354e-02	-5.570586025714874268e-02	-8.216241747140884399e-02	5.112577974796295166e-02	-7.048673927783966064e-03	6.818726658821105957e-02	7.663924992084503174e-02	5.852121114730834961e-02	3.816219419240951538e-02	6.167024374008178711e-02	4.510560631752014160e-02	-2.216075360774993896e-02	7.823117077350616455e-02	6.277681887149810791e-02	7.114221155643463135e-02	-3.523965552449226379e-02	-6.286782771348953247e-02	5.197742581367492676e-02	1.001892238855361938e-02	7.701002061367034912e-02	5.759134888648986816e-02	7.028017938137054443e-02	-1.444106549024581909e-02	-5.751767382025718689e-02	-3.068194165825843811e-02	6.748713552951812744e-02	-5.125769227743148804e-02	-2.305231243371963501e-02	-2.456334605813026428e-02	5.421499907970428467e-02	2.841161936521530151e-02	-4.679190739989280701e-02	7.355266809463500977e-02	-4.670716822147369385e-02	-3.191319480538368225e-02	-5.509618669748306274e-02	3.348812460899353027e-02	4.898793995380401611e-02	-5.662713572382926941e-02	-5.898506194353103638e-02	-4.959003254771232605e-02	4.252687096595764160e-03	-3.462180867791175842e-02	-5.347613990306854248e-02	4.062691330909729004e-02	3.469543159008026123e-02	-3.778944537043571472e-02	-1.665656268596649170e-02	-5.421414971351623535e-04	4.465013742446899414e-02	-1.488819718360900879e-02	6.666748225688934326e-02	-3.205923363566398621e-02	-8.047191053628921509e-02	-3.189522027969360352e-02	-1.508959382772445679e-02
6.419709324836730957e-02	-6.147665157914161682e-02	3.579910099506378174e-02	5.640611052513122559e-04	4.787983000278472900e-02	-2.982247993350028992e-02	-2.176061272621154785e-03	1.942013949155807495e-02	2.793455123901367188e-02	5.079329013824462891e-03	-2.179287746548652649e-02	-5.083255842328071594e-02	7.226745784282684326e-02	1.912148296833038330e-02	-5.555259063839912415e-02	-3.061667084693908691e-02	3.180100023746490479e-02	-3.689963370561599731e-02	3.891509771347045898e-02	3.246603906154632568e-02	-2.404740452766418457e-02	4.855571687221527100e-02	4.896579682826995850e-02	7.797576487064361572e-02	-7.489532232284545898e-02	1.395462453365325928e-02	3.007853776216506958e-02	3.980857878923416138e-02	7.644025981426239014e-02	-5.667282640933990479e-02	1.872219890356063843e-02	3.127266466617584229e-02	-3.457178175449371338e-02	-4.224898293614387512e-02	1.185481995344161987e-02	-1.633232831954956055e-02	8.155100047588348389e-03	8.096346259117126465e-02	3.573563694953918457e-02	6.923909485340118408e-02	-8.319541811943054199e-03	-1.416196674108505249e-02	3.634505718946456909e-02	6.525464355945587158e-02	-6.397750973701477051e-02	-1.584351807832717896e-02	3.174772858619689941e-02	3.373683243989944458e-02	2.301161736249923706e-02	-7.088937610387802124e-02	-2.371596172451972961e-02	7.529257237911224365e-02	-2.877319604158401489e-02	6.846176087856292725e-02	-6.642264872789382935e-02	6.265993416309356689e-02	2.258244901895523071e-02	4.165381193161010742e-03	-4.369983449578285217e-02	7.431773841381072998e-02	5.311493575572967529e-02	-9.761981666088104248e-03	-2.253000810742378235e-02	7.329849898815155029e-02	3.336154669523239136e-02	2.662985771894454956e-02	-3.957507386803627014e-02	4.508294165134429932e-03	1.319427788257598877e-02	-1.700083166360855103e-02	6.124800443649291992e-02	4.442667961120605469e-02	6.206665933132171631e-02	-6.528618931770324707e-02	-4.814312979578971863e-02	-1.843868196010589600e-02	-5.890686810016632080e-02	3.127501904964447021e-02	3.330984711647033691e-02	7.797503471374511719e-02	-7.018484175205230713e-03	-9.698286652565002441e-03	3.977982699871063232e-02	5.414697527885437012e-02	-7.215082645416259766e-03	-3.076614812016487122e-02	-6.324931979179382324e-02	-2.609902992844581604e-02	-8.075707405805587769e-02	6.215941905975341797e-02	-9.926721453666687012e-03	-5.099886655807495117e-02	4.444953799247741699e-02	2.538917958736419678e-02	-1.106025278568267822e-02	-4.959790781140327454e-02	2.315631508827209473e-02	6.314201653003692627e-02	-8.092299103736877441e-03	6.884531676769256592e-02
-2.091899514198303223e-04	9.797342121601104736e-03	1.965551078319549561e-02	-1.241628825664520264e-02	3.531543165445327759e-02	-9.251445531845092773e-03	8.100476861000061035e-02	-7.006905972957611084e-02	3.927537798881530762e-02	-1.683524996042251587e-02	-7.334242761135101318e-02	4.928280413150787354e-02	4.743748903274536133e-02	-7.908374071121215820e-02	7.293321192264556885e-02	3.414075076580047607e-02	7.501128315925598145e-02	3.480752557516098022e-02	2.618355304002761841e-02	-2.832167968153953552e-02	5.373470485210418701e-03	6.432628631591796875e-02	-6.911926716566085815e-02	-1.137904822826385498e-02	-7.484625279903411865e-02	6.294651329517364502e-02	-4.935018718242645264e-03	1.515698432922363281e-02	-6.040925532579421997e-02	-5.636381357908248901e-02	-4.511195048689842224e-02	-6.616437435150146484e-02	1.968853175640106201e-02	-5.699660629034042358e-02	3.811582177877426147e-02	4.546597599983215332e-03	2.633284777402877808e-02	6.281194090843200684e-02	4.685926437377929688e-02	-5.338700115680694580e-02	-7.726410776376724243e-02	-4.306627437472343445e-02	-1.966066658496856689e-03	-4.160507395863533020e-02	-5.201849341392517090e-02	4.367667436599731445e-02	-2.712050080299377441e-02	7.494330406188964844e-02	3.304719924926757812e-03	-7.123827934265136719e-03	5.921587347984313965e-03	-3.419394418597221375e-02	7.032409310340881348e-02	-6.781756877899169922e-03	5.708733201026916504e-02	5.418165028095245361e-02	2.999480068683624268e-02	5.089272558689117432e-02	7.235403358936309814e-02	5.052860081195831299e-02	3.312814235687255859e-02	1.169496774673461914e-02	-7.641097158193588257e-02	-2.791428193449974060e-02	-4.455523192882537842e-02	2.785757184028625488e-02	-9.714193642139434814e-03	8.096577227115631104e-02	-1.259633153676986694e-02	2.339550107717514038e-02	-3.109589219093322754e-03	1.495659351348876953e-02	2.909474074840545654e-02	-3.399826958775520325e-02	-2.042191103100776672e-02	7.899808883666992188e-02	3.628524392843246460e-02	3.436561673879623413e-02	-8.158324658870697021e-02	-1.000516116619110107e-03	4.013647139072418213e-02	-3.300423920154571533e-02	4.230007529258728027e-02	6.464603543281555176e-02	2.832364290952682495e-02	-5.365780740976333618e-02	-7.154605537652969360e-02	-4.747902974486351013e-02	-1.661229133605957031e-02	-2.272407338023185730e-02	-8.337140083312988281e-03	7.645420730113983154e-02	5.062091350555419922e-02	2.853477746248245239e-02	-4.281847178936004639e-02	-7.603364437818527222e-02	2.580805122852325439e-02	-2.605617046356201172e-02	6.757040321826934814e-02	-1.363974064588546753e-02
-8.480198681354522705e-03	1.589749008417129517e-02	-3.084069117903709412e-02	3.384687006473541260e-02	2.195439487695693970e-02	6.814196705818176270e-02	8.136187493801116943e-02	-5.818784236907958984e-02	3.787520527839660645e-02	5.630984902381896973e-02	-7.503628730773925781e-03	-4.395559430122375488e-02	-3.322425112128257751e-02	-3.723487257957458496e-03	4.573178291320800781e-02	2.508325874805450439e-02	5.948603153228759766e-02	-2.320758253335952759e-02	5.981445312500000000e-02	-4.530112445354461670e-02	3.398825228214263916e-02	-8.112104982137680054e-02	-2.982672303915023804e-02	-7.441251724958419800e-02	-5.141176283359527588e-02	4.071757942438125610e-02	1.487970352172851562e-03	1.997108757495880127e-02	-3.144409880042076111e-02	-7.775657624006271362e-02	3.407499194145202637e-02	-1.424554735422134399e-02	5.128705501556396484e-02	7.475300133228302002e-02	2.530821412801742554e-02	3.299516439437866211e-02	-3.938531130552291870e-02	-7.814297825098037720e-02	-5.635544657707214355e-04	-6.141719222068786621e-02	1.835249364376068115e-03	-4.707860201597213745e-02	5.539244413375854492e-02	-3.511337563395500183e-02	6.354960799217224121e-02	-5.857611075043678284e-02	4.355955123901367188e-02	-4.152387380599975586e-02	-4.760736972093582153e-02	-3.716619685292243958e-02	-2.032478153705596924e-02	-7.942889630794525146e-02	6.244368851184844971e-03	-3.463249653577804565e-02	-8.083425462245941162e-02	3.563892096281051636e-02	7.745005190372467041e-03	-7.442834973335266113e-02	-5.256242305040359497e-02	-3.848253935575485229e-02	8.080674707889556885e-02	-6.979299336671829224e-02	-3.076770156621932983e-02	6.131601333618164062e-02	-4.374917596578598022e-02	-2.588705345988273621e-02	1.804141700267791748e-02	1.635935902595520020e-02	6.461381912231445312e-02	1.719837635755538940e-02	2.774670720100402832e-04	-7.522059977054595947e-02	-4.028101637959480286e-02	-1.714961975812911987e-02	5.341559648513793945e-02	2.507531642913818359e-02	4.774618148803710938e-02	8.102717995643615723e-02	6.699711084365844727e-02	-2.986319363117218018e-03	-5.311460420489311218e-02	-1.765961199998855591e-02	8.007934689521789551e-02	-1.338869333267211914e-03	-7.076714932918548584e-02	8.746832609176635742e-04	2.147372812032699585e-02	-2.283148467540740967e-03	1.967829465866088867e-02	-5.009304732084274292e-02	-1.604884862899780273e-03	-1.209751516580581665e-02	-2.950745820999145508e-02	-5.763297528028488159e-02	7.350072264671325684e-04	7.287740707397460938e-02	-4.521265625953674316e-02	8.228170871734619141e-02	-1.522170752286911011e-02	2.862039953470230103e-02
-3.882224857807159424e-02	-3.547042608261108398e-03	7.589145004749298096e-02	6.716698408126831055e-02	4.898530244827270508e-02	-6.172991544008255005e-02	-7.519877701997756958e-02	3.041325509548187256e-02	1.673770695924758911e-02	-5.916812643408775330e-02	-3.727073594927787781e-02	4.627366364002227783e-02	-1.201935857534408569e-02	-9.743832051753997803e-03	-1.573286950588226318e-02	4.944120347499847412e-02	6.212055683135986328e-02	4.050741344690322876e-02	3.036545217037200928e-02	4.732039570808410645e-02	9.769409894943237305e-03	7.288761436939239502e-02	-1.264084130525588989e-02	2.191665768623352051e-02	-3.234178572893142700e-02	3.252168744802474976e-02	4.080399125814437866e-02	2.987616509199142456e-02	-1.015035063028335571e-02	-5.316390842199325562e-02	3.075925260782241821e-02	6.378407776355743408e-02	4.550263285636901855e-02	4.367567598819732666e-02	7.033191621303558350e-02	2.902203798294067383e-02	-4.070497304201126099e-02	-6.813806295394897461e-02	-5.624022334814071655e-02	-4.218371212482452393e-02	3.381086140871047974e-02	3.311415761709213257e-02	-3.573730960488319397e-02	-4.891033470630645752e-02	-3.299640119075775146e-02	-8.170860260725021362e-02	4.847614467144012451e-02	-2.023686096072196960e-02	-3.178241476416587830e-02	2.831647545099258423e-02	1.521119475364685059e-02	8.033275604248046875e-03	-4.318026080727577209e-02	-4.150044173002243042e-02	4.695300757884979248e-02	5.839373171329498291e-02	-4.470339417457580566e-02	-3.089278191328048706e-02	-7.687121629714965820e-03	-4.615121707320213318e-02	-2.447059750556945801e-02	7.997445762157440186e-03	-1.249104738235473633e-03	4.147162288427352905e-02	-1.322026550769805908e-02	-6.939002871513366699e-02	-2.519706264138221741e-02	-7.089056074619293213e-03	-6.624472886323928833e-02	3.238603472709655762e-03	7.076019048690795898e-02	1.874016970396041870e-02	3.823809325695037842e-02	3.531463444232940674e-03	-5.210933834314346313e-02	-4.461771249771118164e-02	8.209909498691558838e-02	2.414541691541671753e-02	-1.940029859542846680e-02	-1.734164357185363770e-02	-1.195676624774932861e-03	7.012264430522918701e-02	1.735739409923553467e-03	2.985153347253799438e-02	8.035160601139068604e-02	-1.299471408128738403e-02	3.650869429111480713e-02	-4.732344299554824829e-02	-4.353332892060279846e-02	4.367068409919738770e-02	1.280255615711212158e-02	-3.401665389537811279e-02	4.415869712829589844e-02	-7.848317921161651611e-02	-6.513316184282302856e-02	-2.202769741415977478e-02	4.340445995330810547e-02	3.606637567281723022e-02	-4.515149071812629700e-02	1.540657877922058105e-02
-6.368125230073928833e-02	-6.810565292835235596e-02	6.343409419059753418e-02	-7.292786240577697754e-02	8.404023945331573486e-03	5.567649006843566895e-02	6.040117144584655762e-02	-6.748870760202407837e-02	-6.469364464282989502e-02	-6.787090748548507690e-02	6.816096603870391846e-02	-7.775494456291198730e-02	-3.757579624652862549e-02	5.818110704421997070e-02	4.369953274726867676e-02	-1.764299720525741577e-02	5.087909102439880371e-02	-1.883305609226226807e-02	-2.066089585423469543e-02	-3.043301403522491455e-03	-2.251920476555824280e-02	-1.118564605712890625e-02	-6.116703152656555176e-02	-7.135173678398132324e-02	-6.898326426744461060e-02	6.177628040313720703e-02	3.626075387001037598e-02	-7.537702471017837524e-02	6.615158915519714355e-02	-1.037796586751937866e-02	3.894630819559097290e-02	8.078299462795257568e-03	1.907960325479507446e-02	1.562391966581344604e-02	2.240469306707382202e-02	-4.390230774879455566e-02	4.627190530300140381e-02	6.298959255218505859e-02	-7.482107728719711304e-02	-5.656225979328155518e-02	6.690953671932220459e-02	-4.124656692147254944e-02	5.216941237449645996e-03	-4.411860555410385132e-02	-4.110299050807952881e-03	-3.280070424079895020e-02	4.617075622081756592e-02	6.322719156742095947e-03	7.930891215801239014e-02	6.679320335388183594e-02	5.521406233310699463e-02	6.124505400657653809e-02	1.787131279706954956e-02	-7.343891263008117676e-02	-7.562557607889175415e-02	7.923467457294464111e-02	1.871591061353683472e-02	-5.613088607788085938e-03	2.341113984584808350e-02	-5.652920156717300415e-02	6.568004190921783447e-02	3.509805351495742798e-02	1.872555166482925415e-02	4.529117047786712646e-02	3.722196072340011597e-02	-2.576507255434989929e-02	2.166946232318878174e-02	1.657623052597045898e-02	2.267824858427047729e-02	9.024441242218017578e-03	-7.635082304477691650e-02	-1.933367550373077393e-02	-1.994016766548156738e-02	2.529061585664749146e-02	6.315472722053527832e-02	4.788994789123535156e-03	1.407051831483840942e-02	6.940442323684692383e-02	-1.889119297266006470e-02	-4.352818056941032410e-02	-3.112141788005828857e-02	2.010164409875869751e-02	1.719161868095397949e-03	-8.225878328084945679e-02	-2.374951168894767761e-02	5.305345356464385986e-02	-9.910836815834045410e-04	9.850338101387023926e-03	-3.654627129435539246e-02	-1.649394631385803223e-02	-4.650475829839706421e-02	-3.545295074582099915e-02	6.523139774799346924e-02	7.535842061042785645e-02	-4.784062132239341736e-02	-1.937226951122283936e-02	5.636487901210784912e-02	3.323455899953842163e-02	3.499180823564529419e-02	-1.220751553773880005e-02
7.938735187053680420e-02	-1.840624958276748657e-02	-8.103715628385543823e-02	1.238179951906204224e-02	8.026830852031707764e-03	-2.820127457380294800e-02	-6.009422242641448975e-03	-6.987894326448440552e-02	1.805074512958526611e-02	-4.439675807952880859e-02	7.516053318977355957e-02	8.110110461711883545e-02	-7.371228933334350586e-02	6.932325661182403564e-02	6.541140377521514893e-03	-6.662970036268234253e-02	-4.927353560924530029e-02	-5.070282146334648132e-02	3.657322376966476440e-02	-1.097863912582397461e-02	5.089822411537170410e-02	5.439713597297668457e-02	5.976416170597076416e-02	-5.697831884026527405e-02	-7.465062290430068970e-02	4.603579640388488770e-02	-8.105414360761642456e-02	6.455829739570617676e-02	-3.670050203800201416e-02	-6.002324819564819336e-02	-8.204136043787002563e-02	-4.716657102108001709e-03	-4.067897796630859375e-03	5.922259390354156494e-02	-5.520343035459518433e-02	-4.072001948952674866e-02	-1.676727086305618286e-02	-3.046770393848419189e-02	-5.144399777054786682e-02	-2.342873439192771912e-02	6.404003500938415527e-02	1.202138513326644897e-02	4.079053550958633423e-02	2.514287084341049194e-02	-2.098530530929565430e-03	-2.444649487733840942e-02	-5.758317932486534119e-02	-7.962603867053985596e-02	3.971918672323226929e-02	2.395479381084442139e-02	-3.081413358449935913e-02	-3.178098052740097046e-02	3.866436332464218140e-02	-6.370659172534942627e-02	-2.911331877112388611e-02	1.407576352357864380e-02	-4.788599535822868347e-02	3.384453058242797852e-02	1.635947823524475098e-02	-3.231389448046684265e-02	8.468255400657653809e-03	-5.976878106594085693e-03	6.868661940097808838e-02	-3.886796534061431885e-03	-3.574005886912345886e-02	1.796029508113861084e-02	7.308368384838104248e-02	2.701268345117568970e-02	4.615277051925659180e-02	3.881115466356277466e-02	6.352522969245910645e-02	2.477064728736877441e-02	2.301921695470809937e-02	6.794966757297515869e-02	-6.258992850780487061e-02	6.842477619647979736e-02	1.968002319335937500e-02	-1.848230510950088501e-02	-1.112782210111618042e-02	7.031902670860290527e-02	-4.152470082044601440e-02	3.941127657890319824e-02	-5.718707293272018433e-02	-1.547155529260635376e-02	-4.097155481576919556e-02	2.207593619823455811e-02	5.436621606349945068e-02	6.673124432563781738e-02	-2.026724815368652344e-02	3.663911670446395874e-02	-2.958500757813453674e-02	-1.308590918779373169e-02	5.771771073341369629e-02	-6.229551509022712708e-02	-2.298197522759437561e-02	-2.976068481802940369e-02	1.210743933916091919e-02	8.059479296207427979e-03	5.801104009151458740e-02	3.227494657039642334e-02
7.227544486522674561e-02	5.402968823909759521e-02	-5.825916677713394165e-02	2.433384954929351807e-02	4.996700584888458252e-02	-5.296494811773300171e-02	7.842101156711578369e-03	-1.113437116146087646e-03	-5.538463592529296875e-03	1.012238115072250366e-02	-1.506647467613220215e-02	-8.138908445835113525e-02	1.536497473716735840e-02	-5.614656955003738403e-02	1.325473934412002563e-02	-9.139701724052429199e-04	4.158823937177658081e-02	7.821102440357208252e-02	3.855109214782714844e-03	4.843862354755401611e-02	-6.126932799816131592e-02	2.320036292076110840e-03	-5.758541822433471680e-02	-5.136319249868392944e-02	-6.884834170341491699e-02	5.533249676227569580e-02	5.890426039695739746e-02	1.206672191619873047e-02	3.309520334005355835e-02	4.349936544895172119e-02	-6.778479367494583130e-02	-7.132987678050994873e-02	-4.433616250753402710e-02	5.954936146736145020e-02	7.645106315612792969e-02	6.806614995002746582e-02	-2.960337325930595398e-02	-3.766253590583801270e-02	7.660566270351409912e-02	3.301598131656646729e-03	5.563886463642120361e-02	5.136653780937194824e-04	-6.570135056972503662e-02	-1.334515213966369629e-02	-7.409694790840148926e-02	-9.266361594200134277e-04	7.238583266735076904e-02	-7.394151389598846436e-02	-4.801553487777709961e-02	-7.016026228666305542e-02	6.763438880443572998e-02	1.569099724292755127e-02	-2.846053242683410645e-02	-3.484704717993736267e-02	-5.013543739914894104e-02	-1.802475750446319580e-02	2.264226227998733521e-02	-2.221716567873954773e-02	-2.812814712524414062e-02	-1.037705689668655396e-02	-2.996973693370819092e-02	5.976754426956176758e-02	7.984739542007446289e-02	1.291372627019882202e-02	-2.696957066655158997e-02	8.143877983093261719e-02	-1.541869342327117920e-02	-6.852494925260543823e-02	-3.596696630120277405e-02	-1.812413334846496582e-02	-6.283167004585266113e-02	-5.247670412063598633e-02	-6.572054326534271240e-02	5.518944561481475830e-02	6.727333366870880127e-02	1.275798678398132324e-02	-3.447343409061431885e-02	6.042675673961639404e-02	-5.943453311920166016e-02	-3.792640939354896545e-02	-5.501863732933998108e-02	-4.173789545893669128e-02	1.176432520151138306e-02	-2.442306280136108398e-02	5.931095778942108154e-02	6.292736530303955078e-02	3.759412467479705811e-02	-7.319193333387374878e-02	4.177238792181015015e-02	3.272525966167449951e-02	2.157170325517654419e-02	1.424696296453475952e-02	-6.749346852302551270e-03	-4.491250216960906982e-02	2.892125397920608521e-02	7.997465133666992188e-02	2.838718891143798828e-02	5.059438943862915039e-02	2.080047130584716797e-02	-7.969295978546142578e-02
-3.840065002441406250e-02	-5.496338754892349243e-02	2.603481709957122803e-02	4.542200267314910889e-02	-7.406883686780929565e-02	3.620170056819915771e-03	9.876146912574768066e-03	-2.412461861968040466e-02	-1.338253170251846313e-02	-3.625106811523437500e-02	7.066087424755096436e-02	7.377676665782928467e-03	5.784390866756439209e-02	8.828252553939819336e-03	-4.560249298810958862e-02	-5.725095421075820923e-02	-6.282179057598114014e-02	7.271708548069000244e-02	4.304087162017822266e-02	5.500990152359008789e-02	-2.161529287695884705e-02	2.551320195198059082e-02	7.710732519626617432e-03	-2.717658132314682007e-02	3.140758723020553589e-02	-1.999270915985107422e-02	-4.184443503618240356e-02	5.033718049526214600e-02	8.981227874755859375e-03	4.472486674785614014e-02	-7.457126677036285400e-02	5.245974659919738770e-02	3.088533878326416016e-03	3.367009013891220093e-02	-6.412938237190246582e-04	-5.231022834777832031e-03	4.095269739627838135e-02	-7.310558855533599854e-02	-5.608927458524703979e-02	5.548757314682006836e-02	-2.985777705907821655e-02	-7.285279035568237305e-02	-1.594828814268112183e-02	8.111202716827392578e-02	-3.746654838323593140e-02	5.483950674533843994e-02	-4.996472597122192383e-02	-3.385417535901069641e-02	-5.022651702165603638e-02	-1.922666281461715698e-02	-6.257745623588562012e-02	-1.152893900871276855e-02	-4.870890453457832336e-02	-5.146168172359466553e-03	1.135427504777908325e-02	5.313213169574737549e-02	-2.378243207931518555e-02	1.082578301429748535e-02	-6.300434470176696777e-02	5.929581820964813232e-02	5.301159620285034180e-02	-6.764724850654602051e-03	-6.693770736455917358e-02	5.953598022460937500e-02	-8.027778565883636475e-02	7.024697959423065186e-02	7.857324182987213135e-02	-7.833024859428405762e-02	-8.215807378292083740e-02	5.895535647869110107e-02	4.818554222583770752e-02	-3.191668912768363953e-02	4.406525194644927979e-02	-7.657914608716964722e-02	2.533312141895294189e-02	5.101409554481506348e-02	7.855014503002166748e-02	6.642544269561767578e-02	6.983435153961181641e-02	3.536885976791381836e-02	-7.339473813772201538e-02	-7.531096786260604858e-02	2.456462383270263672e-02	2.250991761684417725e-03	-4.593580216169357300e-02	7.099762558937072754e-02	1.980561763048171997e-02	2.934750914573669434e-02	-7.879586517810821533e-02	-4.195052012801170349e-02	-3.689721226692199707e-03	-5.820379406213760376e-02	9.119197726249694824e-03	-1.921574771404266357e-02	-4.656168073415756226e-02	-3.336400538682937622e-02	4.392357170581817627e-02	-3.053647279739379883e-02	1.492671668529510498e-02	-6.197886168956756592e-02
-7.507296651601791382e-02	8.070942759513854980e-02	-2.857465296983718872e-02	5.817236006259918213e-02	-1.324530690908432007e-02	5.967132747173309326e-03	-6.313993036746978760e-02	-4.572584480047225952e-02	-3.147790208458900452e-02	3.945618867874145508e-03	7.802437245845794678e-02	-4.257600754499435425e-02	2.286724746227264404e-03	1.083000749349594116e-02	-6.246919184923171997e-02	5.649586021900177002e-02	8.220762014389038086e-03	-5.339195206761360168e-02	-7.539945840835571289e-02	-2.634133771061897278e-02	-4.506164789199829102e-02	-1.062063872814178467e-02	1.807178556919097900e-02	2.145837247371673584e-02	7.864196598529815674e-02	7.618881762027740479e-02	3.703048825263977051e-02	1.193721592426300049e-02	-2.057926356792449951e-02	-7.116727530956268311e-02	-1.842461526393890381e-02	-1.536145806312561035e-02	4.266905784606933594e-02	6.439396739006042480e-02	5.460231006145477295e-02	6.833209097385406494e-02	4.210106283426284790e-02	-4.560872167348861694e-02	3.644525259733200073e-02	7.471406459808349609e-02	-5.510492622852325439e-02	3.690303117036819458e-02	2.156753838062286377e-02	1.119618117809295654e-02	-1.499250531196594238e-03	-5.182415246963500977e-02	6.631885468959808350e-02	2.899774163961410522e-02	-6.264082342386245728e-02	-6.582550704479217529e-02	-5.438702553510665894e-02	4.203739762306213379e-02	3.344640135765075684e-02	-1.562751829624176025e-03	3.574999421834945679e-02	1.720548421144485474e-02	5.221325159072875977e-02	1.646566390991210938e-02	1.371999830007553101e-02	-2.594299614429473877e-03	7.407975196838378906e-02	-2.797597646713256836e-02	-6.741369515657424927e-02	-6.794324517250061035e-02	4.349194467067718506e-02	3.098250925540924072e-02	2.568995952606201172e-02	1.019088923931121826e-02	2.858282625675201416e-02	-6.014528498053550720e-02	7.648399472236633301e-02	3.334426134824752808e-02	4.283878207206726074e-02	-6.314431130886077881e-02	-3.848567977547645569e-02	7.788138091564178467e-02	-7.942087948322296143e-02	1.270388811826705933e-02	-5.607939511537551880e-02	-2.889552712440490723e-02	8.031696081161499023e-02	1.069143414497375488e-03	7.492192089557647705e-02	6.131310760974884033e-02	-4.679809138178825378e-02	7.559551298618316650e-02	5.014735460281372070e-02	6.925369799137115479e-02	6.681969761848449707e-02	3.966690599918365479e-02	-4.542579129338264465e-02	-5.775121599435806274e-02	4.386681318283081055e-02	2.204280346632003784e-02	-3.106608614325523376e-02	-4.998042061924934387e-02	4.947836697101593018e-02	6.349496543407440186e-02	6.751194596290588379e-04	-1.578659564256668091e-02
1.960173249244689941e-03	7.541954517364501953e-02	-2.664217725396156311e-02	-6.302416324615478516e-02	1.211405545473098755e-02	-2.134222537279129028e-02	8.149062097072601318e-02	-2.289397642016410828e-02	9.800933301448822021e-03	-5.806847661733627319e-02	5.259874463081359863e-02	-4.912810772657394409e-02	-4.929833114147186279e-03	7.101394236087799072e-03	3.791801631450653076e-03	-3.620844706892967224e-02	-3.076426312327384949e-02	3.887219727039337158e-02	-6.232817843556404114e-02	-7.904789596796035767e-02	7.125154137611389160e-02	-3.563366830348968506e-03	6.260967254638671875e-02	-3.304623067378997803e-02	2.665276080369949341e-02	-3.110368177294731140e-02	-1.233522593975067139e-02	7.696425914764404297e-02	6.721495091915130615e-02	-2.353085577487945557e-02	-5.676015466451644897e-02	-3.817614167928695679e-02	5.322232842445373535e-02	-3.173759207129478455e-02	-1.460514962673187256e-03	8.138154447078704834e-02	-4.211380705237388611e-02	-3.971457481384277344e-04	-4.537884891033172607e-02	5.529086291790008545e-02	6.246508657932281494e-02	-2.587557956576347351e-02	7.638527452945709229e-02	6.318219006061553955e-03	-5.112379044294357300e-02	-5.853779613971710205e-03	1.210562884807586670e-02	-4.170792177319526672e-02	2.884131669998168945e-02	-2.570845186710357666e-03	2.391955256462097168e-02	2.048276364803314209e-02	-3.112163394689559937e-02	-1.064559072256088257e-02	2.706096321344375610e-02	-5.344351381063461304e-02	1.440034806728363037e-02	1.687636226415634155e-02	8.215931057929992676e-02	-8.219103515148162842e-02	2.916191518306732178e-02	-3.622767701745033264e-02	-4.638460651040077209e-02	5.582757294178009033e-03	6.692476570606231689e-02	5.421979725360870361e-02	-8.135512471199035645e-03	-6.196951121091842651e-02	7.817985117435455322e-02	1.310818642377853394e-02	-6.138138473033905029e-02	-1.032102108001708984e-02	-3.622712567448616028e-02	3.719867020845413208e-02	-5.292647331953048706e-02	6.981976330280303955e-02	3.625839948654174805e-02	7.024985551834106445e-02	1.389902085065841675e-02	2.081280946731567383e-02	-7.725425064563751221e-02	-5.139771848917007446e-02	7.597495615482330322e-02	1.365721225738525391e-03	2.367929369211196899e-02	-2.770968899130821228e-02	4.518747329711914062e-02	3.603897243738174438e-02	1.157075166702270508e-02	-2.664580941200256348e-03	-7.241922616958618164e-02	-1.181207597255706787e-02	-5.108819901943206787e-02	3.120933473110198975e-02	3.558354824781417847e-02	5.537052452564239502e-02	-6.250098347663879395e-03	-6.272748112678527832e-02	5.882854759693145752e-02	-2.252863347530364990e-02
-3.417599201202392578e-02	-4.555684700608253479e-02	-5.205203965306282043e-02	-1.346292253583669662e-02	2.720377780497074127e-02	-6.869599968194961548e-02	-3.843591362237930298e-02	4.735485464334487915e-02	-2.808840200304985046e-02	2.682536840438842773e-02	1.579903438687324524e-02	4.674016684293746948e-02	-3.907845914363861084e-02	-5.743672326207160950e-02	-2.678578905761241913e-02	7.294640690088272095e-02	-2.006713068112730980e-03	3.661256283521652222e-02	1.805957034230232239e-02	-5.115881562232971191e-02	-5.882460623979568481e-02	-2.020919695496559143e-02	-3.621899755671620369e-03	5.323136970400810242e-02	-9.805209934711456299e-03	7.082692533731460571e-02	-3.551558777689933777e-02	5.964427813887596130e-02	-4.996663331985473633e-02	-4.173644352704286575e-03	-7.947446405887603760e-02	1.731634698808193207e-02	-2.158988453447818756e-02	-3.295191377401351929e-02	7.012560218572616577e-02	-9.319302625954151154e-03	7.193065434694290161e-02	7.765610516071319580e-02	3.959321603178977966e-02	-6.283434480428695679e-02	-6.371334195137023926e-02	8.156063407659530640e-02	-4.001170769333839417e-02	-7.277583330869674683e-02	-1.299547217786312103e-02	-2.433277480304241180e-02	-4.535925108939409256e-04	-5.295874923467636108e-02	6.521384418010711670e-02	-8.665741421282291412e-03	1.773519441485404968e-02	3.521618247032165527e-02	7.939689606428146362e-02	8.153320848941802979e-02	-3.954865410923957825e-02	-1.950098946690559387e-02	7.616957649588584900e-03	-2.207121811807155609e-02	4.149092733860015869e-02	-2.271662093698978424e-02	5.463204905390739441e-02	5.970333702862262726e-03	-7.159816473722457886e-02	3.692406043410301208e-02	6.581389158964157104e-02	-5.816426873207092285e-02	-4.800903610885143280e-03	2.165601961314678192e-02	7.585077732801437378e-02	-2.665722183883190155e-02	5.353860557079315186e-02	-1.568747311830520630e-02	-3.131193108856678009e-03	7.212316244840621948e-02	1.073781680315732956e-02	3.055080212652683258e-02	-6.837267428636550903e-03	3.931154310703277588e-02	2.985533699393272400e-02	-5.232901126146316528e-02	-3.249195590615272522e-02	-8.309368789196014404e-02	5.731621012091636658e-02	2.896397188305854797e-02	3.633822128176689148e-02	2.347000502049922943e-02	-3.056348115205764771e-02	7.164878305047750473e-03	8.153802156448364258e-02	-5.695662647485733032e-02	2.985969930887222290e-02	5.407055839896202087e-02	-6.225098669528961182e-02	-4.261914268136024475e-02	3.071475774049758911e-02	4.077499359846115112e-02	2.422031015157699585e-02	-4.281022120267152786e-03	-4.627034068107604980e-02	3.429100289940834045e-02
-3.253293037414550781e-02	2.158571500331163406e-03	7.648986577987670898e-02	-7.615647464990615845e-02	-1.898119039833545685e-02	-3.003545477986335754e-02	-7.415554672479629517e-02	-8.136950433254241943e-02	3.839202225208282471e-02	-5.437097698450088501e-02	-4.813710600137710571e-02	5.937707424163818359e-02	4.552169144153594971e-02	6.476419419050216675e-02	-3.561008349061012268e-02	-8.466848521493375301e-04	4.606196284294128418e-02	-4.655490070581436157e-02	-8.553297258913516998e-03	-7.919618487358093262e-02	-5.248268321156501770e-02	-7.207164913415908813e-02	-1.071190275251865387e-02	3.544875886291265488e-03	-4.849639162421226501e-02	-4.021562635898590088e-02	2.691589994356036186e-03	-1.990098506212234497e-03	5.230592563748359680e-02	-3.953754901885986328e-02	-2.027072571218013763e-02	-7.657637447118759155e-02	-4.000052809715270996e-02	4.030900448560714722e-02	1.276706904172897339e-02	2.411776222288608551e-02	-3.479005023837089539e-02	-3.585507348179817200e-02	2.519946917891502380e-02	6.040222570300102234e-02	1.800889032892882824e-03	-1.245053578168153763e-02	-2.751007862389087677e-02	8.187494240701198578e-03	5.396967008709907532e-02	1.521505229175090790e-02	-6.208292767405509949e-02	4.713707044720649719e-02	4.660511016845703125e-02	-7.920022308826446533e-02	-6.036093831062316895e-02	1.174416858702898026e-02	2.691805362701416016e-02	6.322863698005676270e-02	-3.391249105334281921e-02	-5.941022560000419617e-02	3.053863532841205597e-02	-3.695786744356155396e-02	-5.240127444267272949e-02	-5.556800216436386108e-02	5.883321538567543030e-02	1.493130344897508621e-02	-2.482073754072189331e-02	-2.642202377319335938e-02	-4.688820987939834595e-02	6.863908469676971436e-02	5.854035168886184692e-02	-1.752819493412971497e-02	7.153525203466415405e-02	-1.282874494791030884e-02	-2.564291656017303467e-02	3.207170963287353516e-02	5.573635548353195190e-02	-6.385173648595809937e-02	4.492213949561119080e-02	3.073521703481674194e-02	5.791387706995010376e-02	-5.025089532136917114e-02	-4.409888386726379395e-02	-7.250992953777313232e-02	-3.704386949539184570e-02	-5.400548130273818970e-02	4.348061233758926392e-02	-8.214148133993148804e-02	2.127009257674217224e-02	-5.203177407383918762e-02	5.177613720297813416e-02	3.321666270494461060e-02	1.995387719944119453e-03	-3.766828216612339020e-03	-5.085702054202556610e-03	3.311859816312789917e-02	-4.416123405098915100e-02	-4.740326106548309326e-02	-4.111122712492942810e-02	-4.793166741728782654e-02	7.984709739685058594e-02	-6.690543889999389648e-02	-3.843493014574050903e-02	-7.067237794399261475e-02
-6.527969241142272949e-02	-4.167433828115463257e-03	4.650028049945831299e-02	4.950665682554244995e-02	-4.395038262009620667e-02	3.238437697291374207e-02	2.426744904369115829e-03	-4.651039093732833862e-02	5.315980687737464905e-02	-6.758651137351989746e-02	5.547802150249481201e-02	6.038811802864074707e-02	-2.701747976243495941e-02	5.444803833961486816e-02	1.380711700767278671e-02	-6.566260010004043579e-02	-1.041627302765846252e-02	-7.496805489063262939e-02	5.422415956854820251e-02	4.215504974126815796e-02	-2.659581042826175690e-02	6.074452027678489685e-02	1.754176802933216095e-02	2.224595099687576294e-02	2.166650071740150452e-02	2.340254932641983032e-02	-5.940827541053295135e-04	4.973178729414939880e-02	7.502182573080062866e-02	2.596688829362392426e-02	2.588069997727870941e-03	3.182447701692581177e-02	-5.979395285248756409e-02	-1.789311692118644714e-02	1.401279587298631668e-02	-3.231003135442733765e-02	4.257620871067047119e-02	-4.224635777063667774e-04	3.891221061348915100e-02	5.168385431170463562e-02	6.457867473363876343e-02	-3.383832797408103943e-02	6.539949215948581696e-03	3.543777763843536377e-02	-7.070890627801418304e-03	-5.940397828817367554e-02	-3.172508254647254944e-02	-3.715307265520095825e-02	-2.757847681641578674e-02	-5.070649459958076477e-02	1.374030020087957382e-02	-7.776388525962829590e-02	2.084537595510482788e-02	1.867129094898700714e-02	4.758248850703239441e-02	2.652235329151153564e-02	-4.479363188147544861e-02	5.197967588901519775e-02	-7.347449660301208496e-02	5.173888802528381348e-02	-2.920877374708652496e-02	-3.698322980199009180e-04	-2.121768333017826080e-02	6.569374352693557739e-03	2.612681128084659576e-02	-7.193499058485031128e-02	4.709906503558158875e-02	7.441651076078414917e-02	3.629479929804801941e-02	-4.024609923362731934e-02	-4.306120332330465317e-03	2.272165194153785706e-02	5.723064392805099487e-02	-7.063829898834228516e-02	5.996591225266456604e-02	4.346119612455368042e-02	-6.151308864355087280e-02	6.954954564571380615e-02	-4.316164180636405945e-02	-7.249993085861206055e-02	-1.637415774166584015e-02	7.734742015600204468e-02	-6.065017357468605042e-02	3.267044946551322937e-02	7.579535990953445435e-02	2.533232606947422028e-02	8.090248703956604004e-02	5.755884200334548950e-02	7.768840342760086060e-02	5.252394080162048340e-02	-7.364968955516815186e-02	4.310328885912895203e-02	3.550608828663825989e-02	2.521405462175607681e-03	5.517439916729927063e-02	5.869808420538902283e-02	-2.084428444504737854e-02	-5.955759808421134949e-02	7.136438041925430298e-02	-1.840410009026527405e-02
-6.285665929317474365e-02	8.076134137809276581e-03	2.852019667625427246e-02	-2.650137990713119507e-02	7.436422165483236313e-03	-4.786799103021621704e-02	-8.081863820552825928e-02	-3.671288490295410156e-02	3.421488404273986816e-02	-6.406836211681365967e-02	6.153760850429534912e-02	1.235732063651084900e-02	-3.101290948688983917e-02	-5.254067108035087585e-02	-8.482651785016059875e-03	-4.666410386562347412e-03	-4.003532975912094116e-02	7.074073702096939087e-02	5.294895172119140625e-02	-1.592398993670940399e-02	6.941143423318862915e-02	-6.512715946882963181e-03	-1.650905981659889221e-02	-3.455294296145439148e-02	-7.955277711153030396e-02	5.692697688937187195e-02	5.998188629746437073e-02	7.909915596246719360e-02	1.301865209825336933e-03	5.105518922209739685e-02	-7.962119579315185547e-02	4.120138008147478104e-03	3.192217648029327393e-02	-5.200775340199470520e-02	-3.016416542232036591e-02	-3.926011547446250916e-02	1.068856846541166306e-02	-6.074222549796104431e-02	1.375564467161893845e-02	7.084277272224426270e-02	8.991926908493041992e-03	-5.606121569871902466e-02	-6.780486553907394409e-02	-1.028247922658920288e-02	-2.113543264567852020e-02	7.094299793243408203e-02	3.215633332729339600e-02	-2.338340505957603455e-02	7.817386090755462646e-02	2.717250585556030273e-02	-2.384172752499580383e-02	-5.526372417807579041e-02	6.918997317552566528e-02	-7.261440157890319824e-02	-7.740054279565811157e-03	-3.769601508975028992e-02	-7.461262494325637817e-02	-1.303279655985534191e-03	-2.236947230994701385e-02	-1.417556405067443848e-02	-9.801674605114385486e-05	-9.537373669445514679e-03	-4.264986142516136169e-02	4.354835301637649536e-02	-7.563130557537078857e-02	-4.231507331132888794e-02	-7.750673219561576843e-03	-2.065060846507549286e-02	4.445763677358627319e-02	-8.566563017666339874e-03	-1.258037984371185303e-02	3.116717562079429626e-02	-6.879914551973342896e-02	2.117099612951278687e-02	4.667644947767257690e-02	-5.507230013608932495e-02	-5.943536758422851562e-02	3.673917055130004883e-02	2.842658199369907379e-02	6.972868740558624268e-02	1.850418932735919952e-02	-6.775453686714172363e-02	7.336648553609848022e-02	-2.397782355546951294e-02	-2.624579519033432007e-02	-7.062770426273345947e-02	-4.322921484708786011e-02	-1.189303584396839142e-02	1.641454547643661499e-02	-3.789404407143592834e-02	2.653619041666388512e-03	1.721884496510028839e-02	-6.883803009986877441e-02	-3.176860883831977844e-02	8.171905577182769775e-02	3.563028946518898010e-02	3.441562131047248840e-02	1.177745964378118515e-02	6.046687066555023193e-02	-3.859208524227142334e-02
-1.342596113681793213e-02	-4.664433375000953674e-02	-2.033487707376480103e-02	6.916648149490356445e-02	1.504679024219512939e-02	-1.298316568136215210e-02	-5.396143719553947449e-02	-3.658913075923919678e-02	-5.410975590348243713e-02	7.506810128688812256e-03	7.338844239711761475e-03	9.969107806682586670e-03	3.841528296470642090e-02	-3.872894868254661560e-02	3.095310181379318237e-02	-5.574747920036315918e-02	-6.662525981664657593e-02	-4.446613416075706482e-02	-5.615992844104766846e-02	-3.412867337465286255e-02	1.549822837114334106e-02	-5.279777571558952332e-02	1.627631485462188721e-02	8.508324623107910156e-03	3.218741714954376221e-02	-7.047174870967864990e-02	-1.364306360483169556e-02	4.320611059665679932e-02	-7.031081616878509521e-02	2.900300920009613037e-02	-8.109712600708007812e-02	-3.390921279788017273e-02	-2.487830817699432373e-02	-3.484836220741271973e-02	4.556968808174133301e-03	8.852928876876831055e-04	-1.811387389898300171e-02	2.615869045257568359e-03	2.132114768028259277e-02	2.606035768985748291e-02	7.786764204502105713e-02	-7.540770620107650757e-02	-1.492038369178771973e-03	1.074664294719696045e-03	2.111626416444778442e-02	-1.246690750122070312e-02	5.904391407966613770e-02	1.706347614526748657e-02	5.387948453426361084e-02	-4.126623272895812988e-03	-2.335446700453758240e-02	2.465387433767318726e-02	-6.577771902084350586e-02	2.439640462398529053e-03	6.756021082401275635e-02	1.465483009815216064e-02	1.792348921298980713e-03	-5.556881427764892578e-02	-7.282803952693939209e-02	2.949541807174682617e-02	-3.283975273370742798e-02	6.938175857067108154e-02	7.830931246280670166e-02	-3.949528932571411133e-02	-2.842433005571365356e-02	8.199176192283630371e-02	-5.892530828714370728e-02	-7.482963800430297852e-02	-2.882656455039978027e-02	6.057375669479370117e-02	1.850987970829010010e-02	8.400328457355499268e-03	4.612071812152862549e-02	1.288911700248718262e-02	-4.689842462539672852e-02	-3.484977781772613525e-02	-7.995341718196868896e-02	-4.075574874877929688e-02	-3.469377756118774414e-02	-4.649980738759040833e-02	7.241305708885192871e-02	2.975068986415863037e-02	-4.197599738836288452e-02	-1.287772506475448608e-02	6.431318819522857666e-03	-1.422191411256790161e-02	4.496446251869201660e-02	7.409615814685821533e-02	-5.919535085558891296e-02	5.667896568775177002e-02	5.042439699172973633e-02	2.144823223352432251e-02	-3.571071475744247437e-02	5.515950918197631836e-02	6.959292292594909668e-02	1.459708064794540405e-02	6.346414983272552490e-02	1.909740269184112549e-02	-2.206529304385185242e-02	3.073211014270782471e-02
7.776826620101928711e-03	-4.503756389021873474e-02	7.693950831890106201e-02	-3.876839205622673035e-02	-3.437180444598197937e-02	-2.263804152607917786e-02	-7.802343368530273438e-02	-6.744641810655593872e-02	8.125762641429901123e-02	-2.691039070487022400e-02	5.264441668987274170e-02	-8.015801012516021729e-02	-7.487310469150543213e-02	-2.972581982612609863e-02	3.656616806983947754e-02	-5.538916587829589844e-02	2.963118255138397217e-02	3.095819056034088135e-02	8.048084378242492676e-02	-3.980365023016929626e-02	1.098808646202087402e-02	2.705772221088409424e-02	-5.056461691856384277e-02	-4.884154722094535828e-02	5.078287422657012939e-02	5.000276863574981689e-02	-7.594391703605651855e-02	5.801104009151458740e-02	-7.945205271244049072e-02	-1.234565675258636475e-02	5.191564559936523438e-02	5.130001902580261230e-02	-5.216527730226516724e-02	7.493904232978820801e-02	7.710522413253784180e-02	6.299018859863281250e-04	-7.000829279422760010e-02	7.547906041145324707e-02	-1.939678937196731567e-02	5.410188436508178711e-02	3.734529763460159302e-02	5.571131408214569092e-02	6.328870356082916260e-02	-4.813709855079650879e-02	-7.006637752056121826e-03	2.030749619007110596e-02	3.833940625190734863e-02	7.934513688087463379e-02	5.475164949893951416e-02	-5.687107145786285400e-02	-6.386598944664001465e-02	-1.435737311840057373e-02	2.965603023767471313e-02	-3.477527573704719543e-02	-8.855417370796203613e-03	6.757541000843048096e-02	7.878573238849639893e-02	4.296940565109252930e-02	2.717846632003784180e-02	-3.407628834247589111e-02	-3.098549321293830872e-02	-1.625983417034149170e-02	9.628891944885253906e-03	-2.336409315466880798e-02	4.579164087772369385e-03	-8.161007612943649292e-02	7.960712909698486328e-02	5.692498385906219482e-02	7.197903096675872803e-02	4.772862792015075684e-02	-6.849046051502227783e-02	-2.160778641700744629e-02	-5.166650563478469849e-02	3.068787604570388794e-02	6.988018751144409180e-03	-3.728823363780975342e-02	-7.236672937870025635e-02	-5.210788547992706299e-02	7.008610665798187256e-02	-7.713270187377929688e-02	-1.065637171268463135e-02	-6.985247135162353516e-03	-2.301513031125068665e-02	-6.672747433185577393e-02	2.385842800140380859e-02	5.891333520412445068e-02	1.858583837747573853e-02	2.139621973037719727e-02	5.171953141689300537e-02	7.704244554042816162e-02	2.684330940246582031e-02	-8.175761252641677856e-02	8.132198452949523926e-02	6.889845430850982666e-02	7.714869081974029541e-02	-1.210537552833557129e-02	9.133398532867431641e-03	-2.587312459945678711e-02	-2.465564385056495667e-02	1.768489181995391846e-02
6.382094323635101318e-02	2.452199906110763550e-02	7.654868066310882568e-02	-3.151663765311241150e-02	9.425006806850433350e-03	5.354215204715728760e-02	-4.467115923762321472e-02	-1.654125750064849854e-03	-3.942290693521499634e-02	8.221518993377685547e-02	-4.500511661171913147e-02	-7.599895447492599487e-02	4.789556562900543213e-02	7.862743735313415527e-02	-5.496523156762123108e-02	-3.706298023462295532e-02	-1.677086204290390015e-02	-3.483263030648231506e-02	3.982967883348464966e-02	-7.954379916191101074e-02	2.442611008882522583e-02	3.056108206510543823e-02	3.054600208997726440e-02	-3.961659967899322510e-02	-5.814909934997558594e-03	6.248880922794342041e-02	4.948474466800689697e-03	-1.725672930479049683e-02	5.185389518737792969e-02	7.670219242572784424e-02	-4.154479131102561951e-02	-1.048281043767929077e-02	3.353817015886306763e-02	-3.585913032293319702e-02	-4.005911946296691895e-02	-7.766630500555038452e-02	7.634517550468444824e-02	2.215700596570968628e-02	-7.753916084766387939e-02	-2.706885337829589844e-03	8.575223386287689209e-03	-3.570986911654472351e-02	7.570445537567138672e-03	-5.862456932663917542e-02	-1.637375354766845703e-02	-1.545589417219161987e-02	6.196609139442443848e-02	-6.158554553985595703e-02	2.548199146986007690e-02	-8.659131824970245361e-03	-3.836790844798088074e-02	-3.011487424373626709e-02	-4.906169697642326355e-02	-7.802098244428634644e-02	-5.674744397401809692e-02	3.013797104358673096e-02	1.331126689910888672e-02	-3.981337323784828186e-02	3.908532112836837769e-02	2.697497606277465820e-02	7.444164156913757324e-02	-3.009745106101036072e-02	-6.175896897912025452e-02	-8.197356015443801880e-02	5.070948600769042969e-02	-4.652078449726104736e-02	-5.062896385788917542e-02	-7.656331360340118408e-02	6.555646657943725586e-02	-2.862564101815223694e-02	1.717612147331237793e-02	5.421337485313415527e-02	-6.513017416000366211e-02	4.859584569931030273e-02	7.846856117248535156e-02	1.493431627750396729e-02	6.844864785671234131e-02	-6.888104230165481567e-02	-2.933716028928756714e-02	-3.144741058349609375e-04	4.519186913967132568e-02	-5.411888659000396729e-02	6.198157370090484619e-02	5.298115313053131104e-02	-5.516868457198143005e-02	-1.044906675815582275e-03	-4.431300237774848938e-02	4.291264712810516357e-02	3.235747665166854858e-02	-4.998440667986869812e-02	-4.582922160625457764e-02	-3.772044181823730469e-02	5.808179080486297607e-02	-5.933448672294616699e-03	-5.611500516533851624e-02	1.086223870515823364e-02	4.228483140468597412e-02	6.215474009513854980e-02	1.999171078205108643e-02	-3.102625161409378052e-02
4.153886437416076660e-02	-6.721585988998413086e-02	-5.797602236270904541e-02	-3.254681080579757690e-02	-3.320820257067680359e-02	1.336693018674850464e-02	-8.358351886272430420e-03	-6.843335926532745361e-03	-2.670213580131530762e-03	-1.433839648962020874e-02	-3.024779260158538818e-03	7.253165543079376221e-02	-6.726227700710296631e-03	-5.548064410686492920e-02	7.694981992244720459e-02	-7.407553493976593018e-02	-6.065896898508071899e-02	1.323206722736358643e-02	-7.613502442836761475e-03	3.711353987455368042e-02	-4.910084232687950134e-02	4.325079917907714844e-02	5.678647756576538086e-02	-3.878705203533172607e-02	2.965988218784332275e-02	6.875014305114746094e-02	3.791491687297821045e-02	8.226871490478515625e-03	6.283785402774810791e-02	5.622622370719909668e-02	7.570953667163848877e-02	-6.689161062240600586e-03	2.927613258361816406e-02	2.582525461912155151e-02	6.763035058975219727e-02	2.972491830587387085e-02	-4.269926249980926514e-02	1.412920653820037842e-02	4.936861991882324219e-02	-1.383614540100097656e-02	1.397589594125747681e-02	-6.087854504585266113e-02	8.039700984954833984e-02	4.546353220939636230e-02	1.339653134346008301e-02	-6.135761737823486328e-02	-4.225277528166770935e-02	-9.120218455791473389e-03	-8.124740421772003174e-02	-4.348164796829223633e-02	3.685789555311203003e-02	5.845859646797180176e-02	-3.808095306158065796e-02	-4.191365465521812439e-02	-2.726413309574127197e-03	6.158460676670074463e-02	-4.436102882027626038e-02	4.639543592929840088e-03	-3.926504403352737427e-02	5.621983110904693604e-02	1.047004759311676025e-02	5.707287788391113281e-02	-1.134726405143737793e-02	-6.096355617046356201e-02	6.242200732231140137e-02	3.802897781133651733e-02	-3.096237406134605408e-02	-7.348265498876571655e-02	-1.929175853729248047e-02	-5.608887970447540283e-02	7.153835892677307129e-02	6.580542027950286865e-02	4.040432721376419067e-02	-1.601271331310272217e-02	6.848749518394470215e-02	-4.166111350059509277e-02	1.768956333398818970e-02	2.196505665779113770e-03	-3.893413022160530090e-02	-6.716166436672210693e-02	6.770759820938110352e-03	4.652753472328186035e-02	-4.845720902085304260e-02	-3.959481418132781982e-02	3.132041543722152710e-02	5.855911970138549805e-02	5.942778289318084717e-02	7.268704473972320557e-02	6.532019376754760742e-02	-5.296815186738967896e-02	6.473429501056671143e-03	-6.707634031772613525e-02	-5.219419300556182861e-02	-7.483231276273727417e-02	3.856081515550613403e-02	-3.833058848977088928e-02	-4.206537082791328430e-02	-6.508603692054748535e-02	6.649145483970642090e-02	-1.691979169845581055e-02
-3.722308203577995300e-02	-4.139313474297523499e-02	-5.711372941732406616e-02	5.572338402271270752e-02	8.166164159774780273e-02	1.738670468330383301e-02	2.349263429641723633e-02	-5.722712725400924683e-02	6.800742447376251221e-02	-5.310893058776855469e-03	1.691552996635437012e-02	2.951949834823608398e-02	6.210482120513916016e-02	-3.601811453700065613e-02	-5.192179232835769653e-02	2.570267021656036377e-02	5.685243010520935059e-02	1.484924554824829102e-02	-3.897659480571746826e-03	2.739802747964859009e-02	-1.092499494552612305e-02	-7.544498890638351440e-02	3.544957190752029419e-02	-6.521481275558471680e-02	7.210522890090942383e-03	1.901044696569442749e-02	7.197682559490203857e-02	-3.957042098045349121e-02	-5.244896933436393738e-02	9.911403059959411621e-03	-5.349809676408767700e-02	-1.382351666688919067e-02	-2.520407363772392273e-02	-2.917731180787086487e-02	1.556082814931869507e-02	-2.903398498892784119e-02	6.592768430709838867e-02	-6.320111453533172607e-02	5.331914126873016357e-02	-3.469812124967575073e-02	1.473166793584823608e-02	-1.980830729007720947e-02	5.924987792968750000e-02	7.671892642974853516e-02	5.980215966701507568e-02	-2.471924573183059692e-02	7.705891132354736328e-02	3.957937657833099365e-02	-2.757183834910392761e-02	-4.031457006931304932e-03	-3.891058266162872314e-03	5.700647830963134766e-02	2.789010107517242432e-02	2.779956907033920288e-02	2.007012069225311279e-02	-2.808567881584167480e-02	-5.626898258924484253e-02	-7.920554280281066895e-02	7.240697741508483887e-02	6.421171128749847412e-02	6.507535278797149658e-02	-7.591755688190460205e-02	-4.152634739875793457e-02	-4.413164779543876648e-02	2.029987424612045288e-02	-4.234440624713897705e-02	-7.178070396184921265e-02	-1.946933567523956299e-03	-3.321826457977294922e-03	8.154214918613433838e-02	4.899002611637115479e-02	-8.743971586227416992e-03	3.957175463438034058e-02	-5.511802807450294495e-02	-1.762936264276504517e-02	8.162529766559600830e-02	2.449563890695571899e-02	-7.890374213457107544e-02	-7.696656882762908936e-02	5.156683921813964844e-02	3.757896274328231812e-02	2.201922982931137085e-02	-2.952998876571655273e-02	4.533247649669647217e-02	-1.237496733665466309e-02	3.200953453779220581e-02	-7.271708548069000244e-02	-6.424270570278167725e-03	-1.107957959175109863e-02	3.241974860429763794e-02	2.927815914154052734e-02	-4.705921560525894165e-02	3.823933005332946777e-02	-6.620841473340988159e-02	-3.089895099401473999e-02	-4.937245696783065796e-02	-2.868346869945526123e-02	-5.136206746101379395e-04	1.809820532798767090e-02	6.891055405139923096e-02
-6.401722878217697144e-02	-5.852553248405456543e-02	8.167374134063720703e-02	1.765910536050796509e-02	6.710040569305419922e-02	-6.049100682139396667e-02	-8.343487977981567383e-03	-3.325336053967475891e-02	-5.671381950378417969e-03	-8.179978281259536743e-02	-1.151247322559356689e-02	7.107709348201751709e-02	3.252930939197540283e-02	-5.567845702171325684e-02	-2.076788991689682007e-02	-7.814621925354003906e-02	5.252002179622650146e-02	-2.860152348875999451e-02	3.133999556303024292e-02	2.109911292791366577e-02	-6.606577336788177490e-02	-2.656700462102890015e-02	4.819400608539581299e-03	5.727255344390869141e-02	-8.063415437936782837e-02	-6.912590563297271729e-02	4.467254877090454102e-02	-5.387603491544723511e-02	-1.350978761911392212e-02	5.184073746204376221e-02	-2.269792929291725159e-02	3.561295568943023682e-02	-7.415622472763061523e-02	-1.893374323844909668e-02	2.541200816631317139e-02	-4.694931954145431519e-02	-3.832339867949485779e-02	1.818349212408065796e-02	1.168864965438842773e-02	-8.873686194419860840e-03	4.895584285259246826e-02	-4.053946584463119507e-02	-4.824725165963172913e-02	7.127037644386291504e-02	-4.769361764192581177e-02	2.976082265377044678e-03	-4.184747859835624695e-02	1.535122841596603394e-02	-1.202378422021865845e-02	-5.457690358161926270e-02	-2.814010903239250183e-02	5.158591270446777344e-02	6.213231384754180908e-02	8.093263208866119385e-02	3.519984334707260132e-02	-5.043692514300346375e-02	6.457820534706115723e-03	9.508639574050903320e-03	-3.111725300550460815e-02	4.127258807420730591e-02	3.236830234527587891e-02	2.772934734821319580e-02	5.306991934776306152e-02	3.063528984785079956e-02	-7.228438556194305420e-02	7.578927278518676758e-02	-3.172546625137329102e-03	3.515462577342987061e-02	3.112332522869110107e-02	-5.776219815015792847e-02	6.908100843429565430e-02	-4.310943186283111572e-03	-3.294941782951354980e-02	4.499731957912445068e-02	-7.998853921890258789e-02	4.291599988937377930e-02	3.053332865238189697e-02	3.670702129602432251e-02	7.246361672878265381e-02	-4.271935671567916870e-02	-1.509139686822891235e-02	-1.327208429574966431e-02	-3.696419298648834229e-03	-2.295418083667755127e-02	-6.777907907962799072e-02	-7.650666683912277222e-02	-3.495641425251960754e-02	3.622983396053314209e-02	2.857072651386260986e-02	-6.895535439252853394e-02	-1.212538778781890869e-02	5.447751283645629883e-02	-5.654841661453247070e-03	-7.244537025690078735e-02	1.905870437622070312e-02	-1.248501986265182495e-02	-1.582436263561248779e-02	-4.252637177705764771e-02	-4.957543686032295227e-02	5.957561731338500977e-02
7.611946761608123779e-02	-4.238060861825942993e-02	3.334461897611618042e-02	6.174109876155853271e-02	-7.704775035381317139e-02	-4.418992623686790466e-02	2.086358517408370972e-02	-3.015017136931419373e-02	-5.583152920007705688e-02	6.930838525295257568e-02	-1.623215526342391968e-02	2.258233726024627686e-02	3.469441086053848267e-02	4.067236930131912231e-02	-5.724413692951202393e-02	-3.576203808188438416e-02	-1.122169196605682373e-02	-2.095758914947509766e-03	-7.998869568109512329e-02	-6.717585027217864990e-02	-6.172700971364974976e-02	-3.877100348472595215e-02	-3.090806305408477783e-02	2.632782608270645142e-02	-7.287263870239257812e-03	7.504871487617492676e-02	8.112004399299621582e-02	-5.903445929288864136e-02	5.515843629837036133e-02	1.331944018602371216e-02	2.088321000337600708e-02	-5.625792220234870911e-02	-7.933686673641204834e-02	2.674739807844161987e-02	6.329400837421417236e-02	5.199952423572540283e-02	2.165538072586059570e-02	2.927322685718536377e-02	4.940398037433624268e-02	-1.558818668127059937e-02	2.736963331699371338e-03	-3.223257511854171753e-02	-4.193685948848724365e-03	-7.205528020858764648e-02	-7.443480193614959717e-03	6.871438026428222656e-02	4.399484395980834961e-02	-5.806859582662582397e-02	8.100008964538574219e-02	1.485107839107513428e-02	3.853881359100341797e-02	-6.427905708551406860e-02	-2.027840539813041687e-02	5.338840186595916748e-03	7.019604742527008057e-02	7.107332348823547363e-02	-2.400896698236465454e-02	-4.121863469481468201e-02	1.417267322540283203e-02	3.217816352844238281e-02	4.141937941312789917e-02	-4.567518830299377441e-02	9.766146540641784668e-03	-1.120299100875854492e-02	-7.903481274843215942e-02	6.168396770954132080e-02	2.006911486387252808e-02	3.509064763784408569e-02	4.757939279079437256e-02	-4.743856564164161682e-02	-4.408295452594757080e-02	1.743431389331817627e-02	5.810287594795227051e-02	-6.862480938434600830e-02	-2.200436219573020935e-02	-4.840306937694549561e-03	2.576433122158050537e-02	-2.330049872398376465e-03	-2.152523025870323181e-02	2.815065532922744751e-02	7.202696800231933594e-02	2.270507812500000000e-02	-7.588782161474227905e-02	6.328055262565612793e-02	6.577406823635101318e-02	8.494354784488677979e-03	2.924557030200958252e-02	-5.085504800081253052e-02	5.557900667190551758e-02	5.061691999435424805e-02	3.262406587600708008e-02	-3.896783664822578430e-02	7.426914572715759277e-02	-1.826215535402297974e-02	4.739111661911010742e-02	-2.084663510322570801e-02	2.374968677759170532e-02	2.200208604335784912e-02	6.708304584026336670e-02	-3.381940722465515137e-02
-4.480812326073646545e-02	5.252783000469207764e-02	-1.865889132022857666e-02	-4.303378611803054810e-02	-4.729329049587249756e-02	-5.006183683872222900e-02	2.588278800249099731e-02	-7.591366767883300781e-03	4.709795117378234863e-02	-1.698881387710571289e-02	5.886709690093994141e-02	-2.784800902009010315e-02	7.825402915477752686e-02	-6.084658950567245483e-02	4.348978400230407715e-02	1.042174547910690308e-02	6.170293688774108887e-02	-7.655718922615051270e-02	6.180293858051300049e-03	1.293014734983444214e-02	1.170024275779724121e-03	7.911990582942962646e-02	6.196916103363037109e-02	-1.616559177637100220e-02	-2.479744330048561096e-02	3.231397271156311035e-02	-4.854188486933708191e-02	6.606882810592651367e-02	7.479333877563476562e-02	1.319683343172073364e-02	4.718393087387084961e-02	-2.529542893171310425e-02	-4.692852497100830078e-03	-4.760442301630973816e-02	-1.316045224666595459e-02	3.015075623989105225e-02	1.736268401145935059e-03	1.108871400356292725e-02	-5.701679736375808716e-02	3.209991008043289185e-02	7.347120344638824463e-02	-7.817405462265014648e-02	6.304386258125305176e-02	4.054211825132369995e-02	3.634055703878402710e-02	-4.829518496990203857e-03	-7.894697040319442749e-02	3.998222202062606812e-02	2.796537429094314575e-02	-2.893887832760810852e-02	-2.005935460329055786e-02	7.134088873863220215e-02	5.879636108875274658e-02	4.277203977108001709e-02	-3.136183694005012512e-02	-1.386519521474838257e-02	-3.778624162077903748e-02	1.601823419332504272e-02	9.435214102268218994e-03	3.864531219005584717e-02	-5.747630447149276733e-02	-5.432218313217163086e-04	6.787997484207153320e-02	7.729907333850860596e-02	-8.447490632534027100e-03	7.684119045734405518e-02	-6.580800563097000122e-02	6.791383028030395508e-03	5.872327089309692383e-02	5.340835452079772949e-02	-7.028356194496154785e-04	1.200533658266067505e-02	8.081585168838500977e-02	-4.986203834414482117e-02	6.835532188415527344e-02	7.207643985748291016e-02	-2.109648287296295166e-02	-5.474190041422843933e-02	-2.552341669797897339e-02	7.795950770378112793e-02	-2.342013269662857056e-02	-5.526738613843917847e-02	4.349535703659057617e-02	9.574972093105316162e-03	-6.716252863407135010e-02	3.233663737773895264e-02	1.243983954191207886e-02	2.387969940900802612e-02	2.644720673561096191e-02	-5.610316991806030273e-03	6.077776849269866943e-02	1.113198697566986084e-02	3.151418268680572510e-02	7.615181803703308105e-02	-8.008645474910736084e-02	4.013122618198394775e-02	6.926940381526947021e-02	6.627710163593292236e-02	4.535362124443054199e-03	-6.770092248916625977e-02
-6.085299327969551086e-02	2.542730420827865601e-02	-6.103578209877014160e-02	1.102118194103240967e-02	-4.346436262130737305e-02	-6.985001266002655029e-02	-7.524013519287109375e-03	5.409282445907592773e-02	-2.535547688603401184e-02	2.523545920848846436e-02	5.987475812435150146e-02	3.820676356554031372e-02	8.160097897052764893e-02	5.976969003677368164e-02	6.200598180294036865e-02	2.456238120794296265e-02	1.463542133569717407e-02	-4.405580461025238037e-03	3.981836140155792236e-02	7.255758345127105713e-02	6.243605911731719971e-02	-5.433436483144760132e-02	2.908585965633392334e-02	-3.086447715759277344e-02	3.040120005607604980e-02	-5.111899971961975098e-02	-2.348781749606132507e-02	3.291080147027969360e-02	7.026001811027526855e-02	3.363925218582153320e-02	7.664825022220611572e-02	3.284293413162231445e-02	-2.866473048925399780e-02	-6.002144142985343933e-02	8.040377497673034668e-02	1.735064387321472168e-02	1.826388388872146606e-02	-4.627551138401031494e-02	-2.832726016640663147e-02	6.566120684146881104e-02	3.075125813484191895e-02	-5.027096718549728394e-02	-6.357803195714950562e-02	-6.031322479248046875e-02	-1.896499097347259521e-02	-7.231347262859344482e-03	6.145149469375610352e-02	-7.676258683204650879e-03	-5.544245988130569458e-02	-4.958748817443847656e-03	9.993016719818115234e-03	-5.904266983270645142e-02	-2.409393712878227234e-02	-8.027017116546630859e-02	4.136981815099716187e-02	7.979184389114379883e-02	4.660134017467498779e-02	-2.312675863504409790e-02	5.659465491771697998e-02	-2.755264937877655029e-02	4.391294717788696289e-02	2.412237226963043213e-03	2.512271702289581299e-02	-3.741714730858802795e-02	-4.760253801941871643e-02	-1.691448688507080078e-02	-1.094184815883636475e-02	-2.126098424196243286e-02	-6.647199392318725586e-02	2.238821238279342651e-02	7.544457912445068359e-02	-6.543409824371337891e-02	5.612395703792572021e-02	5.465844273567199707e-02	-3.476682677865028381e-02	-2.559758722782135010e-02	6.140522658824920654e-02	3.977026045322418213e-02	-1.637727022171020508e-03	-6.502158939838409424e-02	7.723988592624664307e-02	-8.135675638914108276e-02	-5.946549028158187866e-02	2.394314110279083252e-02	3.120869398117065430e-03	-4.306087270379066467e-02	-5.109168589115142822e-03	-1.658566296100616455e-03	6.213025748729705811e-02	5.657374858856201172e-04	5.246900022029876709e-03	-5.086121335625648499e-02	4.067933559417724609e-02	3.110633045434951782e-02	-8.219771087169647217e-02	1.487193256616592407e-02	1.193057745695114136e-02	-2.367422357201576233e-02	6.725414097309112549e-02	3.396035730838775635e-02
7.680889964103698730e-02	-3.803744539618492126e-02	-6.445755064487457275e-02	4.886187613010406494e-03	-3.857988491654396057e-02	-5.108183622360229492e-02	-1.891957968473434448e-02	-1.997401192784309387e-02	1.171021163463592529e-02	-4.380529373884201050e-02	-1.435905694961547852e-03	-7.602357119321823120e-02	-2.765561267733573914e-02	7.286724448204040527e-02	-5.856024101376533508e-02	-7.711872458457946777e-03	1.508513092994689941e-02	5.854353308677673340e-03	-1.576526463031768799e-02	-1.089559495449066162e-02	-7.391545176506042480e-02	2.105367928743362427e-02	-6.271483749151229858e-02	-8.045397698879241943e-03	3.899445384740829468e-02	-1.341352611780166626e-02	3.098602592945098877e-02	-1.249778270721435547e-02	1.789917051792144775e-02	6.031766533851623535e-02	-8.057833462953567505e-02	-8.032479137182235718e-02	2.271985262632369995e-02	-5.826878920197486877e-02	-4.998656734824180603e-02	-3.552560508251190186e-02	-2.056447416543960571e-02	1.372058689594268799e-02	-4.042351990938186646e-02	1.667227596044540405e-02	6.942456960678100586e-02	1.431649178266525269e-02	-1.442115008831024170e-02	4.464015364646911621e-03	-1.105442643165588379e-03	6.180378794670104980e-02	6.187248229980468750e-02	-3.817586600780487061e-02	3.652812540531158447e-02	-2.192585542798042297e-02	-7.523784041404724121e-02	5.309604108333587646e-02	4.400768876075744629e-02	6.581243872642517090e-02	-1.643755286931991577e-02	-5.466873198747634888e-02	4.655295610427856445e-02	-6.587251275777816772e-02	2.058670669794082642e-02	4.509687423706054688e-03	-7.659509778022766113e-02	-7.736833393573760986e-02	2.991354465484619141e-02	1.344509422779083252e-03	6.852293014526367188e-02	3.704225271940231323e-02	-5.280007421970367432e-02	3.241785615682601929e-02	6.866142153739929199e-02	2.792093902826309204e-02	-3.585989400744438171e-02	3.070957958698272705e-02	2.826212346553802490e-02	5.907295644283294678e-02	7.060910761356353760e-02	-3.680684417486190796e-02	4.314598441123962402e-02	5.191767215728759766e-02	-1.681543886661529541e-03	-1.490552723407745361e-02	-7.856379449367523193e-02	7.653446495532989502e-02	8.137708902359008789e-02	-5.048058927059173584e-03	5.846044421195983887e-02	-6.437774002552032471e-02	-4.241747409105300903e-02	-4.463383927941322327e-02	4.213211685419082642e-02	-2.183078601956367493e-02	7.111917436122894287e-02	-4.320017993450164795e-03	-8.787572383880615234e-03	-3.322784230113029480e-02	-5.282714217901229858e-02	5.032154917716979980e-02	4.584218561649322510e-02	7.778844237327575684e-02	-6.432787328958511353e-02	4.721662402153015137e-02
-7.424524426460266113e-02	2.348265051841735840e-02	3.749874234199523926e-02	-6.597329676151275635e-02	1.911985129117965698e-02	3.713700920343399048e-02	5.792328715324401855e-02	-6.616625934839248657e-02	-3.433772549033164978e-02	-5.559327080845832825e-02	1.588825881481170654e-02	5.820311605930328369e-03	4.078417271375656128e-02	5.817010998725891113e-02	-5.539655685424804688e-04	-8.216500282287597656e-03	8.074072003364562988e-02	-5.170244723558425903e-02	-4.497969895601272583e-02	-3.941858559846878052e-02	-5.726923793554306030e-02	3.023814409971237183e-02	5.524852871894836426e-02	5.062715709209442139e-02	-1.836333423852920532e-02	-7.033631205558776855e-02	2.038794755935668945e-02	-1.607747375965118408e-02	-7.972234487533569336e-02	-5.998370796442031860e-02	-2.268180251121520996e-02	-4.895044490694999695e-02	2.132415771484375000e-02	9.854026138782501221e-03	5.384206771850585938e-02	8.506476879119873047e-03	7.353183627128601074e-02	4.448658227920532227e-02	-3.038202598690986633e-02	2.497156709432601929e-02	4.735438525676727295e-02	3.913679718971252441e-02	-7.787814736366271973e-02	6.729279458522796631e-02	-3.428341448307037354e-02	4.732564091682434082e-03	-4.898507148027420044e-02	-7.284413278102874756e-02	-4.380262270569801331e-02	-3.133447468280792236e-02	-1.230344921350479126e-02	-6.778296828269958496e-02	-5.492186173796653748e-02	7.945537567138671875e-02	6.192034482955932617e-02	-8.069396018981933594e-03	-7.605256140232086182e-02	4.290322959423065186e-02	7.056400179862976074e-02	-6.126686930656433105e-03	-3.823874145746231079e-02	7.475301623344421387e-02	-7.129482924938201904e-03	5.009488761425018311e-02	-6.746070086956024170e-02	-3.772712126374244690e-02	3.230825811624526978e-02	-6.896226853132247925e-02	-8.196194469928741455e-02	-3.817537426948547363e-02	4.152803868055343628e-02	-1.264788955450057983e-02	3.832942992448806763e-02	8.118905127048492432e-02	-4.131598025560379028e-02	-2.587937191128730774e-02	-6.785969436168670654e-02	5.729861557483673096e-03	1.254139095544815063e-02	4.581427574157714844e-02	-6.738395988941192627e-02	-1.366396248340606689e-02	-3.079319745302200317e-02	5.608431994915008545e-03	-1.796717196702957153e-02	5.840593576431274414e-02	-7.718206197023391724e-02	2.537262439727783203e-02	2.214590460062026978e-02	-3.369941189885139465e-02	6.931297481060028076e-02	-4.689706861972808838e-02	-1.012010127305984497e-02	5.707761645317077637e-02	3.142595291137695312e-02	7.035474479198455811e-02	2.398002892732620239e-02	7.424122095108032227e-02	-2.259879559278488159e-02	-9.539052844047546387e-04
5.214186012744903564e-02	7.644911110401153564e-02	2.083621919155120850e-03	6.970442831516265869e-02	9.362027049064636230e-03	-7.015104591846466064e-02	-6.965209543704986572e-02	3.360528498888015747e-02	4.450805485248565674e-02	2.611388266086578369e-02	5.971032381057739258e-02	6.500984728336334229e-02	-6.027148663997650146e-02	-4.828516393899917603e-02	5.912870168685913086e-02	1.694247871637344360e-02	2.522841095924377441e-02	2.557743340730667114e-02	-7.579609006643295288e-02	3.533301502466201782e-02	5.460105836391448975e-02	-1.465041190385818481e-02	-7.287266850471496582e-02	8.195827901363372803e-02	-7.710498571395874023e-02	-2.748655527830123901e-02	-5.700062960386276245e-02	2.700485289096832275e-03	6.245501339435577393e-03	7.896701991558074951e-02	2.320525050163269043e-02	-6.012491881847381592e-03	3.437574952840805054e-02	-3.344233706593513489e-02	5.236154794692993164e-02	-2.161780372262001038e-02	-2.295946329832077026e-02	-7.269489020109176636e-02	-4.701054096221923828e-02	1.625835895538330078e-02	6.190021336078643799e-02	-2.722230926156044006e-02	6.565845012664794922e-02	2.576368302106857300e-02	-4.793867468833923340e-03	-1.123927533626556396e-03	1.230215281248092651e-02	3.878647834062576294e-02	8.743911981582641602e-03	-4.658908024430274963e-02	3.929287940263748169e-02	6.171393394470214844e-02	2.172524482011795044e-02	-8.219516277313232422e-02	1.719790697097778320e-02	2.522568404674530029e-02	-7.959571480751037598e-02	-2.258370816707611084e-02	-5.711542069911956787e-02	-4.445381462574005127e-03	-4.617847874760627747e-02	-3.401015326380729675e-02	-9.724877774715423584e-03	4.738675057888031006e-02	-7.547394186258316040e-02	7.830113172531127930e-02	-3.739834949374198914e-02	-4.643705114722251892e-02	-9.572908282279968262e-03	3.868785500526428223e-02	-3.083524852991104126e-02	-7.629728317260742188e-02	7.468104362487792969e-02	1.556732505559921265e-02	4.318068921566009521e-02	2.631582319736480713e-03	2.647557109594345093e-02	-5.762953311204910278e-02	-6.303757429122924805e-02	-1.679162681102752686e-02	5.302573740482330322e-02	6.376720964908599854e-02	-6.193989515304565430e-02	6.440339982509613037e-02	8.748918771743774414e-03	7.178358733654022217e-02	-5.857235938310623169e-02	-4.506700858473777771e-02	4.157774895429611206e-02	-7.785665243864059448e-02	-2.177553251385688782e-02	7.434803247451782227e-02	3.337398171424865723e-02	-2.716261520981788635e-02	-3.415314853191375732e-02	-2.752919867634773254e-02	-9.049877524375915527e-03	2.998747676610946655e-02	-1.676333695650100708e-02	6.976561248302459717e-02
-2.726133540272712708e-02	7.501232624053955078e-02	-1.656324416399002075e-02	-5.641195550560951233e-02	-1.878125965595245361e-02	4.351511597633361816e-02	-9.188055992126464844e-04	5.219557881355285645e-02	3.153826296329498291e-02	1.673175394535064697e-02	6.391970813274383545e-02	5.657857656478881836e-02	-1.870251446962356567e-02	6.534293293952941895e-02	7.619319856166839600e-02	-3.873594105243682861e-02	-5.842855945229530334e-02	1.134901493787765503e-02	-3.737827390432357788e-02	-9.354524314403533936e-03	-3.484488651156425476e-02	3.615845739841461182e-02	5.046841502189636230e-02	4.454469680786132812e-02	-2.249771729111671448e-02	-1.458384096622467041e-02	-4.561600834131240845e-02	-7.503737509250640869e-02	4.354938864707946777e-02	-1.260029524564743042e-02	3.189459443092346191e-02	-2.973465994000434875e-02	2.615685760974884033e-02	4.411920905113220215e-02	-5.953975766897201538e-02	7.918228209018707275e-02	2.478284388780593872e-02	-1.632541418075561523e-03	2.739142626523971558e-02	5.949047207832336426e-02	6.222806870937347412e-02	-7.632631063461303711e-02	3.098775446414947510e-02	6.159527599811553955e-02	-1.256400346755981445e-02	4.324145615100860596e-03	7.731910049915313721e-02	2.029103785753250122e-02	4.588477313518524170e-02	1.887589693069458008e-02	-2.919571846723556519e-02	7.304981350898742676e-03	-5.917439237236976624e-02	-7.839294523000717163e-02	1.227241009473800659e-02	6.059813499450683594e-02	-3.081990778446197510e-02	6.860242784023284912e-02	4.673662781715393066e-02	-8.262403309345245361e-03	-1.547408849000930786e-02	-2.249922975897789001e-02	4.321809113025665283e-02	-7.298669219017028809e-02	3.664253652095794678e-02	2.061130106449127197e-02	-2.170311287045478821e-02	-4.864230751991271973e-03	4.233428835868835449e-02	6.685584783554077148e-03	-4.690264910459518433e-02	-4.757482185959815979e-02	8.076570928096771240e-03	-7.108126580715179443e-02	-6.932452321052551270e-03	5.943736433982849121e-02	2.043177187442779541e-02	2.646936476230621338e-02	-1.340140402317047119e-02	-3.880109637975692749e-02	-5.056332051753997803e-02	6.095477938652038574e-02	3.913500905036926270e-02	-6.556634604930877686e-02	-5.875672027468681335e-02	-6.742966175079345703e-02	7.782945036888122559e-02	-7.567548751831054688e-02	-4.198363795876502991e-02	-4.437499493360519409e-02	8.029989898204803467e-02	4.772476851940155029e-02	6.877335906028747559e-02	7.391792535781860352e-02	3.014539927244186401e-02	-1.409339904785156250e-02	2.256259322166442871e-03	1.069223880767822266e-02	-8.192991465330123901e-02	-3.701082989573478699e-02
4.307074844837188721e-02	2.642890065908432007e-02	-5.560152232646942139e-02	8.012512326240539551e-02	5.597205460071563721e-02	5.294637382030487061e-02	-5.609070882201194763e-02	4.864265024662017822e-02	-5.478985607624053955e-03	-3.450341522693634033e-03	-5.922508984804153442e-02	-6.542588770389556885e-02	5.284576117992401123e-02	-7.311090826988220215e-03	-5.366615951061248779e-03	1.069233566522598267e-02	-8.009513467550277710e-02	3.315504640340805054e-02	-6.465131789445877075e-02	7.248148322105407715e-04	-1.803377270698547363e-02	-1.284042745828628540e-02	-3.471544384956359863e-02	-2.888322994112968445e-02	1.293782889842987061e-02	3.463864326477050781e-02	-5.702263116836547852e-02	6.213977932929992676e-03	1.103772222995758057e-02	7.582134008407592773e-02	-3.535446152091026306e-02	-6.024278700351715088e-02	6.845405697822570801e-02	-3.524739295244216919e-02	2.632858604192733765e-02	-7.104638218879699707e-02	-7.124643027782440186e-02	6.811891496181488037e-02	-8.173137903213500977e-04	-5.350948870182037354e-02	3.761382400989532471e-02	3.719419240951538086e-03	-1.291297376155853271e-03	-2.730865404009819031e-02	-5.903067067265510559e-02	-2.594865113496780396e-02	2.868445217609405518e-02	1.034615933895111084e-02	-6.621666252613067627e-02	4.489667713642120361e-03	2.529413253068923950e-02	8.220858871936798096e-02	-7.122413814067840576e-02	-5.152853578329086304e-02	3.916677087545394897e-02	1.840017735958099365e-03	2.497798949480056763e-02	-1.770897209644317627e-02	1.876626908779144287e-02	-2.444720268249511719e-02	-1.606293767690658569e-02	5.445909500122070312e-02	7.121630012989044189e-02	-5.200979113578796387e-02	-7.070554792881011963e-02	-7.505061477422714233e-02	6.634101271629333496e-02	-4.835960641503334045e-02	1.713149249553680420e-03	5.100613832473754883e-02	4.984810948371887207e-02	-3.176234290003776550e-02	3.119537234306335449e-02	4.394844174385070801e-02	-2.643451839685440063e-02	-7.010858505964279175e-02	5.847017467021942139e-02	-6.257131695747375488e-03	-5.861893296241760254e-03	-5.101424828171730042e-02	5.624921619892120361e-02	1.989090442657470703e-02	7.632692158222198486e-02	-3.754560649394989014e-02	5.076228082180023193e-02	2.526873350143432617e-02	1.095353811979293823e-02	-2.159714698791503906e-03	-2.306399866938591003e-02	5.200023949146270752e-02	5.744352936744689941e-02	-3.906767815351486206e-02	-4.530222341418266296e-02	-4.278171807527542114e-02	-3.126998990774154663e-02	-4.838584735989570618e-02	-7.656027376651763916e-02	-6.805982440710067749e-02	4.009221494197845459e-02	7.192528247833251953e-02
-5.435600876808166504e-03	-2.548662573099136353e-02	-4.762646183371543884e-02	5.492486059665679932e-02	-3.638043999671936035e-03	-8.045724034309387207e-02	-4.144227877259254456e-02	-8.119661360979080200e-02	-6.517876684665679932e-02	-3.296678140759468079e-02	-3.357908502221107483e-02	3.485016524791717529e-03	7.771527767181396484e-02	4.288850724697113037e-02	-7.739286124706268311e-02	3.373140841722488403e-02	-5.989286303520202637e-02	4.531352221965789795e-02	2.937272191047668457e-03	-2.569249644875526428e-02	-2.287938445806503296e-02	2.944652736186981201e-02	-6.734559684991836548e-02	1.775452494621276855e-02	-8.651770651340484619e-03	-8.309423923492431641e-03	4.517288506031036377e-02	4.997017979621887207e-02	3.856255859136581421e-02	-5.955089628696441650e-02	2.437479794025421143e-03	-3.212446346879005432e-02	2.139105647802352905e-02	-3.347910940647125244e-03	-6.457516551017761230e-02	7.476849853992462158e-02	-4.505932703614234924e-02	7.022167742252349854e-02	-6.763423979282379150e-02	9.296521544456481934e-03	4.424166679382324219e-02	-1.530679315328598022e-02	2.413565665483474731e-02	-2.700015902519226074e-04	-2.778436988592147827e-02	3.981278836727142334e-02	3.706755489110946655e-02	-4.024468362331390381e-03	1.328080147504806519e-02	-1.309446990489959717e-03	-2.564136683940887451e-02	3.320932388305664062e-02	3.929086029529571533e-03	-5.951158702373504639e-02	5.491007864475250244e-02	-1.648353785276412964e-02	4.503567516803741455e-02	7.150489091873168945e-02	3.780523687601089478e-02	4.033409059047698975e-02	3.830479830503463745e-02	-2.361484616994857788e-02	-8.841432631015777588e-03	-4.086210951209068298e-02	-1.363982260227203369e-02	3.627271205186843872e-02	6.567244231700897217e-02	1.711670309305191040e-02	-1.956266164779663086e-02	-4.114118590950965881e-02	4.986180365085601807e-02	-5.370930954813957214e-02	-7.592791318893432617e-02	3.436616808176040649e-02	-6.491254270076751709e-02	6.453627347946166992e-02	2.063157409429550171e-02	-6.096810102462768555e-05	4.744070768356323242e-02	-1.891671121120452881e-02	2.054283022880554199e-02	-8.099598437547683716e-02	-5.494999140501022339e-02	8.125813305377960205e-02	8.106425404548645020e-03	3.966102749109268188e-02	6.764030456542968750e-02	8.042354881763458252e-02	6.014312803745269775e-02	-2.223250642418861389e-02	2.412885427474975586e-03	-7.407639920711517334e-02	4.909679293632507324e-02	3.176964819431304932e-02	6.142979860305786133e-02	6.955318152904510498e-02	-4.424184188246726990e-02	-2.266630530357360840e-03	5.404421687126159668e-02	1.093271374702453613e-02
7.599367201328277588e-02	-6.063219532370567322e-02	7.921399176120758057e-02	5.196101963520050049e-03	-6.581370532512664795e-02	-7.806660979986190796e-02	-6.061355397105216980e-02	4.302413761615753174e-02	-4.151338338851928711e-02	1.036926358938217163e-02	7.381160557270050049e-02	3.149618953466415405e-02	-4.015171155333518982e-02	1.339549571275711060e-02	5.680902302265167236e-02	2.356116473674774170e-02	-1.053895056247711182e-02	-3.618713468313217163e-02	1.721723377704620361e-02	-5.296215415000915527e-03	1.135944575071334839e-02	-4.883241280913352966e-02	1.929688453674316406e-02	-6.377233564853668213e-02	2.840675413608551025e-02	-7.240496575832366943e-02	5.057525634765625000e-02	-3.150921314954757690e-02	-4.597618430852890015e-02	-7.007285207509994507e-02	4.582172632217407227e-02	-1.370045542716979980e-02	2.812761813402175903e-02	1.898594200611114502e-03	-8.166529238224029541e-03	3.718703985214233398e-02	1.300662010908126831e-02	4.955768585205078125e-02	3.868439793586730957e-02	-7.543876022100448608e-02	2.179718017578125000e-02	-8.185362070798873901e-02	-1.635713875293731689e-02	2.325313538312911987e-02	-6.653773784637451172e-02	-1.952069252729415894e-02	-7.500039041042327881e-02	1.598594337701797485e-02	4.716947674751281738e-03	-2.301772311329841614e-02	-1.429400593042373657e-02	8.595041930675506592e-03	-1.735783368349075317e-02	-2.768702805042266846e-03	-9.426750242710113525e-03	-1.655821502208709717e-02	-1.205900311470031738e-02	6.554387509822845459e-02	7.183001935482025146e-02	-2.512805908918380737e-02	-3.452187031507492065e-02	4.086337983608245850e-03	9.708024561405181885e-03	-4.924087226390838623e-02	7.016460597515106201e-02	-7.049891352653503418e-02	-7.839223742485046387e-02	8.172318339347839355e-02	-5.104802548885345459e-03	1.024532318115234375e-02	7.652525603771209717e-02	6.927520036697387695e-02	-4.755239188671112061e-02	1.274187862873077393e-02	5.270212888717651367e-03	-4.182294756174087524e-02	-7.857461273670196533e-02	6.784525513648986816e-02	3.007493913173675537e-02	4.789330065250396729e-02	2.620559185743331909e-02	-7.136312872171401978e-02	2.093396335840225220e-02	1.187217980623245239e-02	5.782224237918853760e-03	2.918169647455215454e-02	-4.017547890543937683e-02	-4.710211604833602905e-02	-6.603363901376724243e-02	-5.530396103858947754e-02	-3.730580210685729980e-03	7.703720033168792725e-02	5.518788099288940430e-02	5.355533957481384277e-02	-1.173950731754302979e-03	2.395060658454895020e-02	-2.001339197158813477e-02	-6.509483605623245239e-02	3.657481074333190918e-02	-5.250149220228195190e-02
-8.465648628771305084e-03	-7.082826644182205200e-02	-6.776651740074157715e-02	-1.661423780024051666e-02	-6.277871131896972656e-02	-2.662191726267337799e-02	9.399479313287883997e-05	2.850322518497705460e-03	-5.085954070091247559e-02	4.903595894575119019e-02	-4.624831676483154297e-02	-3.387223556637763977e-02	6.361667066812515259e-02	7.884269952774047852e-02	-3.653043508529663086e-02	6.461566686630249023e-02	4.704527184367179871e-02	4.191956017166376114e-03	3.209814056754112244e-02	-1.830265298485755920e-02	-7.667728513479232788e-02	2.643302083015441895e-02	-1.687997207045555115e-02	6.428466737270355225e-02	7.014527171850204468e-02	-1.579779083840548992e-03	-3.804297302849590778e-04	-2.319570165127515793e-03	-6.442541629076004028e-02	5.842156708240509033e-03	6.178519129753112793e-02	-6.822717376053333282e-03	-4.363207891583442688e-02	-6.955339759588241577e-02	6.884751468896865845e-02	4.713006317615509033e-02	4.471041634678840637e-02	7.241615653038024902e-02	2.197454310953617096e-02	-4.143422469496726990e-02	5.465285480022430420e-02	-4.986528679728507996e-02	6.098094582557678223e-02	8.105873316526412964e-02	5.306283384561538696e-02	5.908619612455368042e-02	-9.493025019764900208e-03	-2.285332791507244110e-02	-2.412589639425277710e-02	1.904530078172683716e-02	-2.467630617320537567e-02	-6.539180874824523926e-02	-2.772825583815574646e-02	3.790933638811111450e-02	-5.011517927050590515e-02	6.702881306409835815e-03	6.834060698747634888e-02	-4.937857761979103088e-02	5.400544777512550354e-02	6.509375572204589844e-02	1.260626595467329025e-02	-3.590881079435348511e-02	-1.914691878482699394e-03	-4.201703891158103943e-02	-7.465627789497375488e-02	-7.868903130292892456e-02	7.778535783290863037e-02	6.849344074726104736e-02	1.295296289026737213e-02	-2.050010859966278076e-02	-4.333719611167907715e-02	-1.165251526981592178e-02	7.446696609258651733e-02	5.148157477378845215e-02	-1.936820708215236664e-02	-3.671267256140708923e-02	-7.413173560053110123e-03	5.214615911245346069e-02	-6.124288216233253479e-02	7.381216436624526978e-02	-3.284728527069091797e-02	4.703580215573310852e-02	-5.891593918204307556e-02	-7.537828758358955383e-03	2.473013848066329956e-02	3.955142199993133545e-02	5.878744274377822876e-02	6.404059380292892456e-02	-5.896707251667976379e-02	-8.070026338100433350e-02	-3.938193246722221375e-02	8.235365897417068481e-02	2.190025895833969116e-02	6.936497241258621216e-02	4.372300580143928528e-02	3.414929285645484924e-02	-3.965611685998737812e-04	-1.108597591519355774e-02	-2.335732616484165192e-02	3.735471144318580627e-02
3.445535525679588318e-02	9.445339441299438477e-03	6.433074921369552612e-02	-4.482046887278556824e-02	-7.879050076007843018e-02	-7.639508694410324097e-02	6.612016260623931885e-02	-7.094224542379379272e-02	-2.704708836972713470e-02	5.549624189734458923e-02	6.922300904989242554e-03	-3.189593926072120667e-02	6.894846260547637939e-02	2.076819725334644318e-02	7.141722738742828369e-02	-3.954135626554489136e-02	6.159568205475807190e-02	1.301568280905485153e-02	6.021218746900558472e-02	-6.060447916388511658e-02	-3.807036904618144035e-03	5.019263178110122681e-02	-8.163549005985260010e-02	1.679520239122211933e-03	-9.974587708711624146e-03	2.545811794698238373e-02	1.590986363589763641e-02	-7.907514274120330811e-02	4.106058739125728607e-03	1.015822123736143112e-02	-7.285707443952560425e-02	-2.030154876410961151e-02	3.610783489421010017e-03	-3.293235227465629578e-02	2.731186896562576294e-02	-7.207879424095153809e-02	7.009553909301757812e-02	5.506581068038940430e-02	-7.564789801836013794e-02	8.410565555095672607e-03	8.160223253071308136e-03	-6.267165392637252808e-02	1.651431061327457428e-02	7.937309890985488892e-02	-2.475461922585964203e-03	4.968843981623649597e-02	7.528028637170791626e-02	7.176693063229322433e-03	-4.438693821430206299e-02	1.972869597375392914e-02	1.022241637110710144e-02	-7.416411489248275757e-02	6.674423813819885254e-02	4.976763576269149780e-02	-7.172105461359024048e-02	5.974599719047546387e-02	-4.930101335048675537e-02	3.837877139449119568e-02	1.005075685679912567e-02	1.640398055315017700e-02	8.669523522257804871e-03	4.451808333396911621e-02	5.937692150473594666e-02	4.311448335647583008e-02	7.553907483816146851e-02	-5.579730868339538574e-02	-6.256195157766342163e-02	2.383355237543582916e-02	7.603736966848373413e-02	7.933422923088073730e-02	5.764899030327796936e-02	-4.662737622857093811e-02	-6.895615160465240479e-02	3.375430777668952942e-02	-4.511991888284683228e-02	-1.061835791915655136e-02	-6.445845216512680054e-02	7.334947586059570312e-03	-3.487157821655273438e-02	-6.435021758079528809e-02	3.271025419235229492e-02	-4.133115056902170181e-03	-4.185460135340690613e-02	4.556413739919662476e-02	-2.959752269089221954e-02	-6.464178115129470825e-02	7.653002440929412842e-02	6.191616877913475037e-02	7.582148909568786621e-02	-3.252397105097770691e-02	6.937430799007415771e-02	-5.527619644999504089e-02	-3.507169196382164955e-03	6.381851155310869217e-03	-1.182494312524795532e-02	6.980485469102859497e-02	-1.810524798929691315e-02	2.882146800402551889e-04	5.342454835772514343e-02	-3.203919529914855957e-02
-2.043313160538673401e-02	1.014566235244274139e-02	-4.107945412397384644e-02	6.519591063261032104e-02	3.781987354159355164e-02	5.277537181973457336e-02	3.045320510864257812e-02	5.521663650870323181e-02	-3.985345736145973206e-02	1.159622427076101303e-02	-1.572505384683609009e-02	8.623219281435012817e-02	1.589770615100860596e-02	3.396665677428245544e-02	9.580877423286437988e-02	6.981042027473449707e-02	-7.358788046985864639e-03	-4.510428011417388916e-02	-6.960511207580566406e-02	6.160934269428253174e-02	-7.459129393100738525e-02	-3.854966536164283752e-02	7.365214824676513672e-02	7.912143482826650143e-04	5.881481617689132690e-02	-4.453972727060317993e-02	-3.679284453392028809e-02	-8.249126374721527100e-03	1.247060112655162811e-02	9.114856272935867310e-02	-5.573009699583053589e-02	6.989499181509017944e-02	5.819783732295036316e-02	6.061821058392524719e-02	-1.331319008022546768e-02	6.415472179651260376e-02	5.312131252139806747e-03	-8.024866133928298950e-02	2.758829388767480850e-03	4.704633727669715881e-02	-5.386546626687049866e-02	3.265453875064849854e-02	-3.844302520155906677e-02	-1.598371751606464386e-02	3.503331542015075684e-02	-6.580157577991485596e-02	-4.057190194725990295e-02	-6.798984855413436890e-02	5.538944527506828308e-02	7.787814736366271973e-02	1.285309158265590668e-02	-6.377919763326644897e-02	1.294984831474721432e-03	-5.241232737898826599e-02	7.728753238916397095e-02	-2.284345589578151703e-02	-7.746254652738571167e-02	3.723460435867309570e-02	4.602005705237388611e-02	-1.240773778408765793e-02	-2.531900629401206970e-02	-2.931899763643741608e-02	-7.117837667465209961e-02	-1.443666871637105942e-02	-5.426472425460815430e-02	-4.285139963030815125e-02	-2.400531619787216187e-02	3.827119618654251099e-02	-3.866513725370168686e-03	4.176957160234451294e-02	6.445851922035217285e-02	-1.577723026275634766e-02	-8.255117386579513550e-02	4.974759742617607117e-02	7.247173786163330078e-02	6.958705931901931763e-02	-3.553547710180282593e-02	-6.760050356388092041e-02	-4.142967984080314636e-03	7.470114156603813171e-03	5.404716357588768005e-02	6.387624144554138184e-02	-5.264792591333389282e-02	1.955319009721279144e-02	-7.106693834066390991e-02	-7.474609464406967163e-02	-1.903456449508666992e-02	6.333993375301361084e-02	7.300589233636856079e-02	-1.141862943768501282e-03	6.017728243023157120e-03	1.664769835770130157e-02	2.470188029110431671e-02	-6.842366605997085571e-02	-5.056785792112350464e-02	7.033804804086685181e-02	7.854092121124267578e-02	-3.460083529353141785e-02	7.124561071395874023e-02	-1.749503239989280701e-02
-2.324243262410163879e-02	7.001426070928573608e-02	-6.324399262666702271e-02	3.810365870594978333e-02	1.323995552957057953e-02	2.607398293912410736e-02	-2.271429263055324554e-02	-7.411699742078781128e-02	4.670070111751556396e-02	1.988191856071352959e-03	7.052506506443023682e-02	9.547580778598785400e-02	-8.605496957898139954e-03	6.992839742451906204e-03	1.089046299457550049e-01	2.629608847200870514e-02	4.063099995255470276e-02	-4.964954778552055359e-02	-9.784020483493804932e-02	2.635619975626468658e-02	8.053863048553466797e-02	-6.826186925172805786e-02	-2.991018816828727722e-02	1.231117825955152512e-02	-3.465627133846282959e-02	2.362009137868881226e-02	8.574923127889633179e-02	2.424408681690692902e-03	1.081854850053787231e-01	7.844766229391098022e-02	3.759480640292167664e-02	-2.340398263186216354e-03	1.890434511005878448e-02	-6.585980951786041260e-02	1.240140013396739960e-02	-2.553639747202396393e-02	-3.540345653891563416e-02	5.567742511630058289e-02	7.424182444810867310e-02	5.497229471802711487e-02	4.128512740135192871e-02	-5.879196524620056152e-02	-4.469290003180503845e-02	-5.472987145185470581e-02	-3.447255818173289299e-03	5.615292582660913467e-03	-2.206900157034397125e-02	-4.953368380665779114e-02	-4.273772239685058594e-02	1.028586365282535553e-02	-8.804351091384887695e-02	4.302600398659706116e-02	-8.133526891469955444e-02	-7.795780897140502930e-02	-2.949168533086776733e-02	5.181830003857612610e-02	2.715556882321834564e-02	-6.283926963806152344e-02	4.161452502012252808e-02	-2.846474945545196533e-02	6.894939392805099487e-02	-6.462953239679336548e-02	3.531957045197486877e-02	-5.672547593712806702e-02	3.437626361846923828e-02	-1.269705127924680710e-03	-5.399320274591445923e-02	-6.514744460582733154e-02	5.515928938984870911e-02	-6.442391872406005859e-02	-6.647515296936035156e-02	5.928611382842063904e-02	-8.315241336822509766e-02	2.569424919784069061e-02	7.322747260332107544e-02	-9.498734027147293091e-03	-1.986213773488998413e-02	9.516166150569915771e-02	8.053178340196609497e-02	-7.786211371421813965e-02	-5.737489461898803711e-02	-5.116989836096763611e-02	-4.054394364356994629e-02	-1.019203756004571915e-02	3.862280771136283875e-02	9.546573273837566376e-03	-1.149893831461668015e-02	3.776400536298751831e-02	2.667347528040409088e-02	6.420991569757461548e-02	-7.350619137287139893e-02	1.280518155544996262e-02	3.600507229566574097e-02	1.898760534822940826e-02	-2.391782589256763458e-02	-5.736276879906654358e-02	6.454606354236602783e-02	-1.546917110681533813e-02	-3.609849140048027039e-02	-7.324102520942687988e-02
5.572117865085601807e-02	-7.462927699089050293e-02	-5.131905525922775269e-02	1.072749681770801544e-02	1.297880522906780243e-02	-2.962413709610700607e-03	5.100959539413452148e-02	-6.668261438608169556e-02	-7.438351958990097046e-02	4.697531461715698242e-02	-1.734369993209838867e-02	4.838167876005172729e-02	-1.101671531796455383e-02	4.942466504871845245e-03	-3.221776708960533142e-02	-4.251378402113914490e-02	8.210527896881103516e-02	-1.465679612010717392e-02	2.358854189515113831e-02	6.610534340143203735e-02	-7.119855284690856934e-02	-7.046906650066375732e-02	-5.328461900353431702e-02	2.955702599138021469e-03	-8.468749932944774628e-03	2.490891143679618835e-02	-1.884155720472335815e-02	-1.594524085521697998e-02	2.315769204869866371e-03	-2.089473046362400055e-02	3.671592101454734802e-02	-2.743636257946491241e-03	-6.229653581976890564e-02	7.146759331226348877e-02	3.494192659854888916e-02	-2.801701426506042480e-02	-1.951044239103794098e-02	6.194231286644935608e-02	8.483460545539855957e-02	1.940766535699367523e-02	5.221649631857872009e-02	-3.750556334853172302e-02	4.485405236482620239e-02	-2.190425992012023926e-02	-2.428676001727581024e-02	5.159405991435050964e-02	7.890378683805465698e-02	-2.823702059686183929e-02	-9.287059074267745018e-04	6.916800886392593384e-02	-9.022370912134647369e-03	-4.497344419360160828e-02	-5.663323681801557541e-03	-1.111969072371721268e-02	-5.822481587529182434e-03	-4.991661384701728821e-02	6.486266106367111206e-02	-6.948092021048069000e-03	-7.099816203117370605e-02	-2.564847469329833984e-02	7.055608928203582764e-02	-2.084165252745151520e-02	-2.756444923579692841e-02	-5.515308305621147156e-02	5.318081006407737732e-02	1.641939021646976471e-02	-5.764118954539299011e-02	-7.995228469371795654e-02	6.254387646913528442e-02	8.026800304651260376e-02	-2.888457477092742920e-02	-8.537290617823600769e-03	-8.291430771350860596e-02	-8.441334217786788940e-02	-6.375438719987869263e-02	3.287991508841514587e-02	-1.651063188910484314e-02	-5.067831650376319885e-02	-3.431925922632217407e-02	-9.192731976509094238e-02	2.857092395424842834e-02	5.022373422980308533e-02	-3.867958858609199524e-02	-2.311998978257179260e-02	-2.892987802624702454e-02	-1.536461932118982077e-04	1.752162701450288296e-03	5.608115717768669128e-02	6.705965846776962280e-02	-6.131279841065406799e-02	-8.014611899852752686e-02	-7.163607329130172729e-02	-5.201005935668945312e-02	1.759046316146850586e-02	-9.812348335981369019e-02	1.545773469842970371e-03	1.624926738440990448e-02	-7.386363297700881958e-02	-4.944294318556785583e-02	5.694487690925598145e-02
7.741452194750308990e-03	-2.205971442162990570e-02	-1.312582008540630341e-02	1.933488436043262482e-02	1.298169023357331753e-03	5.959093198180198669e-02	3.992679342627525330e-02	-3.728438541293144226e-02	-6.661374866962432861e-02	-3.904279321432113647e-02	7.102157175540924072e-02	8.922316879034042358e-02	-7.921729236841201782e-02	-1.151622831821441650e-02	4.078282415866851807e-02	-3.485559299588203430e-02	-4.375347867608070374e-02	3.005695901811122894e-02	4.370439425110816956e-02	-5.028605833649635315e-02	3.012830205261707306e-02	-2.586369961500167847e-02	8.624613285064697266e-02	5.564306303858757019e-02	1.959014870226383209e-02	-2.551452070474624634e-02	5.456468462944030762e-02	4.432982578873634338e-02	3.161649778485298157e-02	6.183285638689994812e-02	3.710482642054557800e-02	-2.273206040263175964e-02	-3.554278612136840820e-02	1.822480186820030212e-02	-5.502460896968841553e-02	7.546632736921310425e-02	-3.213668987154960632e-02	5.087387934327125549e-02	5.332059413194656372e-02	-6.618547253310680389e-03	-6.951154768466949463e-02	7.009590417146682739e-02	1.567467302083969116e-02	-7.455724477767944336e-02	3.056360594928264618e-02	8.577331155538558960e-02	-5.909290909767150879e-02	3.251684829592704773e-02	5.975524336099624634e-02	-4.812593013048171997e-02	3.863283619284629822e-02	-7.784927636384963989e-02	-8.244355767965316772e-02	-7.380573451519012451e-02	-8.237580955028533936e-02	2.142796665430068970e-02	1.254722103476524353e-02	4.836777225136756897e-02	5.638421699404716492e-02	-6.068705022335052490e-02	9.004488587379455566e-02	-1.303205732256174088e-02	7.469236385077238083e-03	-2.031356096267700195e-02	5.033360421657562256e-02	-4.001447185873985291e-02	2.591521851718425751e-02	-2.702422067523002625e-02	-7.806802541017532349e-02	-9.333484806120395660e-03	8.554362691938877106e-03	-1.026169303804636002e-02	-1.794754900038242340e-02	3.049554862082004547e-02	-4.772768169641494751e-02	2.673871815204620361e-02	7.712595164775848389e-02	8.356067538261413574e-02	-1.448004692792892456e-02	-3.893113508820533752e-02	4.381874948740005493e-02	1.379668945446610451e-03	2.883347682654857635e-02	4.905759915709495544e-02	2.768775261938571930e-02	-3.475046716630458832e-03	7.971666753292083740e-02	7.273335754871368408e-02	-8.068731985986232758e-03	6.663522124290466309e-02	-1.758457906544208527e-02	4.544037207961082458e-02	7.481002807617187500e-02	3.214779868721961975e-02	-1.164642907679080963e-02	-5.236726254224777222e-02	3.662464022636413574e-02	7.113817264325916767e-04	-5.547806248068809509e-02	-7.840564846992492676e-02
7.367303222417831421e-02	7.950618118047714233e-02	4.233456775546073914e-02	-3.956889733672142029e-02	1.211506873369216919e-02	3.531800955533981323e-02	6.858786195516586304e-02	4.680458456277847290e-02	2.250344306230545044e-02	-2.166979759931564331e-02	-4.798554349690675735e-03	-4.516504704952239990e-02	-8.803315460681915283e-03	-8.283635973930358887e-02	-3.003389388322830200e-02	1.707713305950164795e-02	3.012538328766822815e-02	-1.068882294930517673e-03	-7.474382221698760986e-02	-8.532661944627761841e-03	5.442434176802635193e-02	6.113759800791740417e-02	2.919404767453670502e-02	7.459365762770175934e-03	4.810155928134918213e-02	-2.228640019893646240e-02	7.199490815401077271e-02	2.770474366843700409e-02	3.575167432427406311e-02	5.341386422514915466e-02	4.628892242908477783e-02	3.354011103510856628e-02	-2.483210898935794830e-02	-2.533396705985069275e-02	9.043238312005996704e-02	1.284727174788713455e-02	3.812410682439804077e-02	-2.380852028727531433e-02	8.779841661453247070e-02	1.984617114067077637e-02	-5.133234336972236633e-02	-5.987348034977912903e-02	2.477762289345264435e-02	-8.128269761800765991e-02	7.100470364093780518e-02	-2.824246697127819061e-02	5.510135740041732788e-02	3.770272061228752136e-02	1.895118504762649536e-02	1.455220673233270645e-02	7.684633880853652954e-02	-2.599318977445363998e-03	1.843945309519767761e-02	5.103478208184242249e-02	3.568938001990318298e-02	6.466945260763168335e-02	2.341785468161106110e-03	9.199405461549758911e-02	-3.368799760937690735e-02	4.886313527822494507e-02	5.216244235634803772e-02	6.903795897960662842e-02	-6.149766594171524048e-02	-4.987113177776336670e-02	-1.568463630974292755e-03	-3.153616189956665039e-02	-4.119251295924186707e-02	-7.558504492044448853e-02	-3.526628389954566956e-02	5.455450082081370056e-05	-3.566056862473487854e-02	1.947553828358650208e-02	-3.874297067523002625e-02	-3.979147970676422119e-02	-5.322257522493600845e-03	-5.263193324208259583e-02	1.302098762243986130e-02	-5.819424241781234741e-02	3.634726256132125854e-02	6.693530082702636719e-02	-6.203509494662284851e-02	4.863462969660758972e-02	5.052968114614486694e-02	-6.772899627685546875e-02	-2.831985056400299072e-02	-6.348137557506561279e-02	1.944652758538722992e-02	4.560670629143714905e-02	-2.815667353570461273e-02	5.387986451387405396e-02	-4.391626641154289246e-02	6.805147230625152588e-02	-5.103968083858489990e-02	5.473276600241661072e-02	6.197895109653472900e-02	-3.603906184434890747e-02	2.643549814820289612e-02	2.657774649560451508e-02	-5.448458250612020493e-03	2.554220706224441528e-02
